tree
version=v4
num_class=1
num_tree_per_iteration=1
label_index=0
max_feature_idx=26
objective=binary sigmoid:1
feature_names=hr_last hr_mean hr_std hr_min hr_max hr_delta hr_slope hr_missing_frac hr_max_missing_run spo2_last spo2_mean spo2_std spo2_min spo2_max spo2_delta spo2_slope spo2_missing_frac spo2_max_missing_run map_last map_mean map_std map_min map_max map_delta map_slope map_missing_frac map_max_missing_run
feature_infos=[0:219] [0:167.10666666666665] [0:75.711742520929704] [0:156] [0:300] [-247:171] [-11.412087912087909:3.0133333333333341] [0:1] [0:300] [33:100] [42.603333333333332:100] [0:25.556368559715654] [32:100] [49:100] [-67:60] [-5.4999999999999956:0.75614035087719433] [0:1] [0:300] [-94:349] [-72:346.7837837837838] [0:194.39375847319104] [-96:346] [-72:350] [-390:400] [-10.640415140415143:26.111278195488726] [0:1] [0:300]
tree_sizes=3437 3530 3531 3523 3558 3523 3530 3525 3547 3543 3543 3528 3547 3540 3536 3556 3541 3544 3548 3543 3552 3552 3529 3540 3533 3548 3541 3515 3560 3550 3529 3552 3541 3530 3556 3534 3544 3553 3588 3541 3555 3545 3548 3544 3535 3564 3544 3546 3577 3537 3541 3540 3551 3516 3520 3507 3560 3552 3540 3523 3530 3543 3515 3493 3529 3538 3512 3529 3539 3544 3549 3524 3522 3491 3527 3522 3568 3560 3534 3514 3523 3490 3518 3505 3519 3506 3473 3511 3532 3481 3535 3485 3508 3503 3542 3513 3512 3543 3517 3518 3500 3558 3504 3488 3508 3509 3532 3544 3557 3494 3539 3498 3513 3475 3522 3521 3510 3523 3462 3484 3546 3531 3519 3469 3502 3534 3496 3487 3500 3478 3500 3523 3533 3484 3528 3501 3507 3477 3475 3530 3477 3478 3479 3473 3489 3497 3498 3484 3487 3480 3528 3485 3536 3514

Tree=0
num_leaves=31
num_cat=0
split_feature=18 18 21 18 18 18 20 20 11 18 20 18 18 25 20 18 2 18 18 18 20 2 20 4 20 6 2 20 19 20
split_gain=49232.1 7597.5 5283.96 4375.16 3579.16 3116.69 2095.88 1793.36 1272.26 1044.2 1012.8 919.936 895.613 623.49 575.065 555.924 525.589 501.278 469.315 543.696 468.305 422.616 399.893 390.14 384.475 372.457 333.152 307.183 278.672 266.044
threshold=70.500000000000014 50.500000000000007 66.500000000000014 67.500000000000014 61.500000000000007 148.50000000000003 4.3482787142982344 3.5037590924179889 0.972469644832194 66.500000000000014 3.1021318834161069 75.500000000000014 76.500000000000014 0.35500000000000004 2.031097130403055 74.500000000000014 2.4101682744343518 111.50000000000001 63.500000000000007 65.500000000000014 4.1067694791041625 1.7661319944630438 1.4833052429799352 75.500000000000014 2.6831314623759925 0.038930654785053344 3.3852588937579067 72.071007726958172 68.301666666666677 3.7871419877831447
decision_type=8 10 10 10 10 10 10 10 10 10 10 10 10 2 10 10 8 10 10 10 10 8 10 8 10 10 8 10 10 10
left_child=1 10 5 4 24 11 13 22 12 18 -1 16 -8 15 -11 -4 29 -10 -6 -20 -21 -7 -5 -13 -3 -14 -9 28 -25 -2
right_child=2 3 6 7 9 21 8 26 17 14 -12 23 25 -15 -16 -17 -18 -19 19 20 -22 -23 -24 27 -26 -27 -28 -29 -30 -31
leaf_value=-2.0401645459161513 -2.0457170760324983 -1.9701615729008519 -2.0494719223509859 -2.0393341552371878 -1.8860783117039639 -1.7874492079427819 -2.0067448213340477 -1.9488786443031616 -2.0156399400010723 -1.9793074744320485 -1.98321209499314 -2.0597289211091563 -2.0601130880991767 -1.9533733715843842 -1.8934445014774985 -2.0755738865149982 -1.98641810815762 -1.9399611523378852 -1.8280439506102373 -1.9072477576421567 -1.8294363006997711 -1.908301010028622 -1.9885472020789221 -2.0019962586781945 -1.9313284265003638 -2.0298138505916339 -1.897292386646936 -1.9182383223399859 -2.0382312156131537 -2.0006312357353235
leaf_weight=1576.0292628705502 817.26127713918686 1017.2075895965099 2274.8647549450397 560.56927600502968 1140.4649822115898 103.62256193161011 1020.5999948978424 736.76875135302544 742.42276018857956 283.62564322352409 1546.7312170863152 1536.5540011823177 7805.3077974021435 109.68777140974998 624.09977528452873 19749.864063233137 1782.0407848060131 310.25088483095169 1430.7726358771324 529.52362748980522 304.59687599539757 239.62717446684837 1256.1151629388332 650.82781705260277 1706.9966675341129 1165.7538217306137 544.1212503015995 60.85769510269165 2872.6476891040802 545.66325271129608
leaf_count=15331 7950 9895 22129 5453 11094 1008 9928 7167 7222 2759 15046 14947 75927 1067 6071 192119 17335 3018 13918 5151 2963 2331 12219 6331 16605 11340 5293 592 27944 5308
internal_value=-2.02772 -1.94377 -2.05435 -1.92276 -1.90096 -2.01945 -2.06341 -1.97227 -2.04562 -1.87262 -2.01196 -2.02558 -2.05113 -2.07229 -1.92027 -2.07288 -2.00429 -1.99334 -1.85992 -1.84675 -1.87883 -1.87182 -2.00422 -2.03865 -1.94583 -2.05618 -1.92696 -2.02961 -2.03154 -2.02767
internal_weight=55045.5 13257.6 41787.9 10134.9 7037.29 8609.1 33178.8 3097.57 11044.3 4313.08 3122.76 8265.85 9991.66 22134.4 907.725 22024.7 3144.97 1052.67 3405.36 2264.89 834.121 343.25 1816.68 5120.89 2724.2 8971.06 1280.89 3584.33 3523.48 1362.92
internal_count=535461 128965 406496 98588 68456 83746 322750 30132 107435 41956 30377 80407 97195 215315 8830 214248 30593 10240 33126 22032 8114 3339 17672 49814 26500 87267 12460 34867 34275 13258
is_linear=0
shrinkage=1


Tree=1
num_leaves=31
num_cat=0
split_feature=21 23 21 21 20 21 23 23 23 11 21 21 25 21 23 3 6 21 23 20 4 1 23 1 10 16 21 20 15 4
split_gain=35084.8 2460.42 2214.66 2204.85 2204.62 1267.38 1204.78 1547.91 1108.2 1085.05 881.125 707.21 628.199 606.31 724.689 469.072 368.479 360.829 337.799 327.571 326.646 321.859 297.301 286.744 270.406 262.703 240.113 238.341 227.277 223.635
threshold=67.500000000000014 -1.4999999999999998 63.500000000000007 47.500000000000007 4.3890267206560374 42.500000000000007 7.5000000000000009 80.500000000000014 11.500000000000002 0.972469644832194 55.500000000000007 71.500000000000014 0.35500000000000004 73.500000000000014 -8.4999999999999982 63.500000000000007 0.042700004033324891 66.500000000000014 -4.4999999999999991 31.336252812315767 82.500000000000014 66.734050179211479 19.500000000000004 45.492429378531078 92.913604465709739 0.14500000000000005 118.50000000000001 3.9952749869199851 -0.0087734308158977942 130.50000000000003
decision_type=10 8 8 10 10 10 10 10 10 10 10 10 2 10 10 10 8 10 10 10 10 8 10 8 8 2 10 8 10 10
left_child=1 3 5 19 11 8 -7 10 27 13 15 18 26 14 -6 22 28 21 -2 -1 -15 -5 -8 -21 -4 -10 -13 -3 -11 -17
right_child=4 2 24 17 9 6 7 -9 25 16 -12 12 -14 20 -16 29 -18 -19 -20 23 -22 -23 -24 -25 -26 -27 -28 -29 -30 -31
leaf_value=0.017917922501250644 0.0051482050126829921 -0.01917289853003433 0.052099457161930089 0.071919429835988036 0.037601814825707652 0.080052053413383464 0.061198455110652819 0.20638657391865003 0.044436353725267594 0.052188451793199545 0.0046192789406279628 -0.047849516864291473 0.069987131835081207 -0.039593487520794834 -0.018744976447761488 0.08299015876326693 0.087437106167893686 0.046285568126818027 -0.031000633514233503 0.27597079835116345 -0.018013795939666715 0.096664042082738433 -0.024844108890809239 0.05117190896240497 -0.0033292904845536966 0.1104264467995372 0.047848101111770486 0.015955858363521522 -0.0027386041016911437 0.17309504838819539
leaf_weight=1819.3635178655386 848.48254610598087 1042.8236321657896 235.51490747183561 2047.8109615072608 872.9921113550663 3425.4094028845429 244.38547233492136 126.03243753314018 1911.7175854369998 294.40929478406906 1623.3320350721478 17962.550755754113 114.49955078959465 3205.1459695845842 1647.5292285084724 439.61965749412775 240.73144835978746 576.20718342810869 2711.634359382093 14.415798157453535 3872.0262143090367 3668.0605106651783 170.39171625673771 888.05986440181732 3347.1000883430243 163.73303712159395 65.787242144346237 899.19952867925167 522.69428117573261 81.652719177305698
leaf_count=17242 8239 10217 2233 18405 8310 31386 2265 1080 17974 2783 15753 181178 1053 31885 16253 4089 2258 5428 27053 134 38415 33005 1668 8320 32433 1489 664 8528 4972 749
internal_value=-0.000175176 0.047442 0.0341022 0.0677328 -0.0336159 0.0460537 0.0603947 0.0353207 0.02424 -0.0149901 0.0268968 -0.0427606 -0.0467588 -0.0202871 0.000770948 0.0655313 0.0330696 0.0839972 -0.0223853 0.0301345 -0.0277869 0.0877989 0.0258519 0.0547628 0.000314499 0.0496423 -0.0475003 -0.00290751 0.0170521 0.0971043
internal_weight=55083.3 22724.8 13710.9 9013.92 32358.5 10128.3 6110.82 2685.41 4017.47 10655.5 2559.38 21703 18142.8 9597.69 2520.52 936.05 1057.84 6292.08 3560.12 2721.84 7077.17 5715.87 414.777 902.476 3582.61 2075.45 18028.3 1942.02 817.104 521.272
internal_count=535461 212398 129864 82534 323063 95198 56990 25604 38208 104876 24524 218187 182895 94863 24563 8771 10013 56838 35292 25696 70300 51410 3933 8454 34666 19463 181842 18745 7755 4838
is_linear=0
shrinkage=0.05


Tree=2
num_leaves=31
num_cat=0
split_feature=18 22 20 18 18 18 18 18 20 21 25 6 18 20 2 2 20 4 11 20 19 21 18 18 20 18 12 2 20 19
split_gain=38311.4 5288.56 4715.81 2134.72 3194.41 1708.57 1902.66 1325.62 1289.19 787.643 749.29 620.729 588.458 473.425 446.956 382.363 374.276 357.054 306.025 291.415 285.562 293.395 281.571 295.535 285.394 278.147 278.101 244.836 241.598 240.078
threshold=70.500000000000014 55.500000000000007 5.1019669408571771 67.500000000000014 61.500000000000007 133.50000000000003 77.500000000000014 74.500000000000014 2.9975953325564211 63.500000000000007 0.16166666666666671 0.038930654785053344 66.500000000000014 2.3773608148319334 3.4598908137993507 3.1642411762100981 2.031097130403055 75.500000000000014 0.972469644832194 3.8852913516297276 118.39666666666669 69.500000000000014 63.500000000000007 65.500000000000014 3.0229382316739124 57.500000000000007 96.500000000000014 3.090694815679508 1.3809819371925804 67.874166666666682
decision_type=8 10 8 10 10 10 10 10 10 10 2 8 10 10 8 10 10 10 10 10 10 10 10 10 10 10 8 8 10 10
left_child=1 19 7 4 25 6 14 13 28 15 20 17 22 -2 -4 -7 -14 -8 -11 -1 21 -9 -6 -24 -25 -3 -13 -10 -5 -19
right_child=2 3 5 8 12 9 11 10 27 18 -12 26 16 -15 -16 -17 -18 29 -20 -21 -22 -23 23 24 -26 -27 -28 -29 -30 -31
leaf_value=-0.013389867508817141 -0.028110416386446159 0.050158765482445335 0.0067773226080611905 -0.014425876969380302 0.10977959893809892 0.15257399346096381 -0.037599156210523552 -0.026112402943664743 0.060204704440493265 2.6220725476609278e-05 0.060111152424870265 0.046320556408922985 0.039895413642236754 0.0087873334165654189 0.04308269924236624 0.060594031962056455 0.10581046779485258 0.022750580404243818 0.096982764971192126 0.030494226881668082 0.019875526001471217 -0.046796679667800684 0.15000602464588642 0.088033826354211697 0.14190395588819221 0.076653738341512082 -0.0015425522070850433 0.098433076956618196 0.027705038942763507 -0.019026795028651844
leaf_weight=1670.7962401732802 1801.235362008214 2458.6395743861794 1716.3777436390519 482.2826776728034 1344.9287056475878 235.88789280503988 2986.3255671560764 1883.1057313606143 923.1459719389677 425.60914767533541 172.83409494161606 381.45667491108179 306.11030751466751 1680.3357527852058 1675.0885727480054 216.86084347963333 726.41617212444544 365.11160438507795 100.62646120786667 489.02553522586823 171.30082125216722 19136.533043026924 1756.0777493938804 477.32237222790718 507.01523218303919 1658.9616097286344 1484.7708882912993 766.68194115906954 1155.6487223207951 5914.1035092994571
leaf_count=16298 18054 21796 16288 4732 11094 1847 29963 18683 8200 4260 1555 3518 2759 16114 15622 1850 6071 3360 884 4480 1726 199770 13918 4021 4093 14303 14484 6564 10636 58518
internal_value=-0.00021703 0.0688202 -0.0254091 0.0812453 0.0936172 -0.00376872 -0.0080784 -0.0389116 0.0469098 0.0601654 -0.043574 -0.0180676 0.119993 -0.0103022 0.024709 0.108517 0.0862688 -0.0233665 0.0185662 -0.00345366 -0.0444196 -0.0449436 0.128517 0.137713 0.115781 0.0608335 0.00824066 0.0775491 0.0152998 -0.0165976
internal_weight=55070.6 14723.1 40347.6 12563.2 9235.47 15502.2 14523.2 24845.3 3327.76 978.984 21363.8 11131.8 5117.87 3481.57 3391.47 452.749 1032.53 9265.54 526.236 2159.82 21190.9 21019.6 4085.34 2740.42 984.338 4117.6 1866.23 1689.83 1637.93 6279.22
internal_count=535461 128965 406496 108187 78055 150594 141753 255902 30132 8841 221734 109843 41956 34168 31910 3697 8830 91841 5144 20778 220179 218453 33126 22032 8114 36099 18002 14764 15368 61878
is_linear=0
shrinkage=0.05


Tree=3
num_leaves=31
num_cat=0
split_feature=18 20 22 18 18 18 18 20 18 18 26 20 15 21 6 20 15 2 18 19 2 19 20 18 17 4 2 17 24 23
split_gain=33614.4 4373.01 3868.43 2812.94 2018.72 1577.2 1307.31 1190.52 908.909 871.889 735.809 634.76 606.081 587.899 465.874 426.808 392.952 378.856 356.507 319.185 304.818 276.94 258.791 248.683 295.358 236.69 204.041 200.169 191.468 189.815
threshold=71.500000000000014 5.1019669408571771 54.500000000000007 68.500000000000014 60.500000000000007 130.50000000000003 78.500000000000014 3.7871419877831447 66.500000000000014 76.500000000000014 29.500000000000004 1.992290697147957 -0.0073023033589260412 66.500000000000014 0.038930654785053344 2.6393349311295657 -0.0012134579273101857 2.014082365935304 62.500000000000007 66.908333333333346 4.4033036814396995 118.39666666666669 1.522291766210752 3.5000000000000004 10.500000000000002 75.500000000000014 3.3852588937579067 23.500000000000004 0.018403760041778412 -37.499999999999993
decision_type=8 8 10 10 10 10 10 10 10 10 2 10 8 10 8 10 8 8 10 10 10 10 10 10 2 10 8 2 10 10
left_child=2 9 23 4 29 6 17 22 18 15 21 -10 -8 20 19 -2 -15 -3 -6 -14 -7 -11 -5 -1 -25 -21 -9 28 -20 -4
right_child=1 5 3 7 8 13 12 26 11 10 -12 -13 14 16 -16 -17 -18 -19 27 25 -22 -23 -24 24 -26 -27 -28 -29 -30 -31
leaf_value=-0.015854024449975399 -0.032706376957517796 -0.0077912741928588799 0.030167792458224964 -0.023088396916130755 0.084606172810267694 0.11860554985802403 0.040392807801531511 0.047699943102981403 0.026792702460680551 -0.045894932267993113 0.054842736390920716 0.086363285617377286 0.017686416455082506 0.093847570117051249 0.003300464776347844 -0.0013308971313348286 -0.0057328123176589975 0.027922097324477198 0.10913631407051833 -0.040100151582896711 0.041597056877097652 0.01773918528789058 0.01618275455856381 0.010912799074904313 0.130082528028999 -0.021813674011322448 0.08580617481161136 0.19133418938364488 0.14147947917549852 0.057158585110117135
leaf_weight=1470.0943146422505 2625.3827383294702 1072.847006522119 831.87991347163916 580.0172913223505 1233.1152180284262 337.77307752519846 420.71659527719021 793.90364523977041 625.90750578790903 18438.114615313709 185.23600155860186 1566.0816261768341 404.78555420786142 127.77921488881111 1666.2399379611015 1846.0702532827854 440.89720747619867 2412.3859876021743 3160.3739137202501 2634.9102575853467 207.40277852863073 172.58041796088219 1515.9592664912343 549.47291843593121 57.428584344685078 5387.95427313447 630.09805583953857 85.205112159252167 535.05438666045666 3002.176409997046
leaf_count=14421 27371 10288 7201 5801 9701 2488 3849 6911 5686 199014 1610 12644 3751 1133 16112 18108 4391 22224 23332 27298 1726 1713 13892 5133 530 54257 5191 622 3936 25127
internal_value=-0.000263706 -0.0259947 0.0590978 0.0682041 0.0806139 -0.00505406 -0.00961003 0.0292832 0.09621 -0.039597 -0.0443179 0.0693533 -0.0184067 0.0522092 -0.0208575 -0.0197528 0.0166425 0.0169286 0.107952 -0.0256337 0.089309 -0.0453048 0.00531529 -0.00473769 0.0221893 -0.0278194 0.0645613 0.115566 0.113819 0.0513024
internal_weight=55017.8 38381.1 16636.8 14559.8 11039.8 15113.7 13999.8 3519.98 7205.74 23267.4 18795.9 2191.99 10514.6 1113.85 10093.9 4471.45 568.676 3485.23 5013.75 8427.65 545.176 18610.7 2095.98 2077 606.902 8022.86 1424 3780.63 3695.43 3834.06
internal_count=535461 395333 140128 120044 88249 147517 137779 31795 55921 247816 202337 18330 105267 9738 101418 45479 5524 32512 37591 85306 4214 200727 19693 20084 5663 81555 12102 27890 27268 32328
is_linear=0
shrinkage=0.05


Tree=4
num_leaves=31
num_cat=0
split_feature=19 20 19 19 19 24 19 20 24 24 14 20 20 25 24 6 19 1 2 20 19 20 4 12 20 19 19 17 4 2
split_gain=18291.2 6407.91 1707.84 1270.52 1188.44 1142.85 1057.61 1250.13 847.76 680.296 671.246 662.59 654.37 543.208 490.178 438.931 394.719 310.573 367.288 300.539 298.897 263.004 252.213 251.769 245.392 278.671 224.424 211.119 202.207 199.602
threshold=71.640689655172437 4.7172938333826515 6.9384210526315799 67.160756013745711 76.058333333333351 -0.01194446604962259 81.677988505747138 66.390708312001081 -0.010564895165501654 -0.021759797331081316 -1.4999999999999998 26.790395456393114 5.7602526948724782 0.21833333333333335 -0.075026833631484671 0.035697285525394827 56.798333333333339 73.378333333333345 2.8937278911299678 2.8984785280230043 87.468333333333348 2.9975953325564211 69.500000000000014 94.500000000000014 40.544419717644992 92.421666666666681 118.39666666666669 42.500000000000007 70.500000000000014 2.3849004172056731
decision_type=8 8 10 10 10 10 10 10 8 10 8 10 10 2 10 10 10 10 10 10 10 10 10 8 10 10 10 2 10 8
left_child=2 4 12 16 9 -5 8 10 -3 -2 27 23 -1 21 20 24 19 -7 -19 -4 -12 26 -18 -10 29 -26 -6 -8 -24 -16
right_child=1 6 3 5 13 17 7 -9 11 -11 14 -13 -14 -15 15 -17 22 18 -20 -21 -22 -23 28 -25 25 -27 -28 -29 -30 -31
leaf_value=-0.01811505517123899 0.031524200656311036 0.048201577981568149 0.020436121504025805 0.061782488786925695 -0.048341601674821648 -0.0002568656564728051 0.023040362453012664 0.060839138917149573 0.034867352666978928 -0.0219408709868547 0.04689998960236532 0.073558350602337522 0.046092237248293658 0.050416710617178097 -0.036416102763351374 0.0081877198810157478 0.051753515568721514 0.012744684985246755 0.064092171688414162 0.057598506534509812 0.00039981446790566199 -0.034972320665127656 0.14573137531654598 -0.0067751339683614353 0.053888906324124235 -0.015024567094900533 0.032586384379016689 0.086438577885034409 0.073393362526005548 -0.018137961526482727
leaf_weight=1367.0608245506883 733.83986306190491 2004.8250457197428 804.20943604409695 1964.094828337431 11282.212497115135 1814.4315312579274 586.99254760146141 694.45020780712366 424.55972435325384 3144.1315311640501 434.63770238310099 334.41596522927284 559.11752641946077 156.35060633718967 2449.4007434993982 1437.1543445214629 1567.7419276759028 1023.7902784794569 527.80895472317934 1681.7107791379094 1686.6468576267362 6271.0324757546186 98.676466852426529 2501.9930386021733 211.8364505469799 477.07297144830227 86.322016656398773 169.1556973233819 4603.2984788566828 3827.734395340085
leaf_count=13660 6293 16346 6971 15015 126794 16879 5281 5821 3824 32579 3708 2731 4795 1284 25450 13900 12148 9461 4662 13990 16484 69052 751 24257 1742 4586 838 1428 35495 39236
internal_value=-0.000300522 -0.0188087 0.0446811 0.0507196 -0.0369047 0.0314733 0.00394013 -0.00427182 0.0226152 -0.0118235 -0.00828013 0.00688477 0.000522587 -0.0423702 -0.0115494 -0.0169709 0.062436 0.0137878 0.0302116 0.0455763 0.0099274 -0.0431927 0.0691208 -0.000733991 -0.0221614 0.00616601 -0.0477271 0.037223 0.0749115 -0.0252703
internal_weight=54926.7 38914.8 16011.9 14085.8 21673.9 5330.13 17240.9 11975.1 5265.79 3877.97 11280.6 3260.97 1926.18 17795.9 10524.5 8403.2 8755.64 3366.03 1551.6 2485.92 2121.28 17639.6 6269.72 2926.55 6966.04 688.909 11368.5 756.148 4701.97 6277.14
internal_count=535461 401634 133827 115372 236840 46017 164794 117636 47158 38872 111815 30812 18455 197968 105106 84914 69355 31002 14123 20961 20192 196684 48394 28081 71014 6328 127632 6709 36246 64686
is_linear=0
shrinkage=0.05


Tree=5
num_leaves=31
num_cat=0
split_feature=18 20 18 18 18 18 18 20 18 26 18 4 21 20 20 6 20 18 2 15 21 20 19 21 20 18 11 2 19 20
split_gain=27377.6 3918.37 2758.23 1993.25 1566.95 1302.95 1025.18 893.548 833.295 631.979 590.038 539.372 503.373 499.323 391.755 373.41 352.618 326.069 311.015 282.487 276.127 258.254 249.629 244.016 220.428 205.826 201.727 199.687 189.901 188.579
threshold=71.500000000000014 5.1632642769206916 9.5000000000000018 68.500000000000014 60.500000000000007 134.50000000000003 77.500000000000014 2.6393349311295657 76.500000000000014 28.500000000000004 66.500000000000014 77.500000000000014 66.500000000000014 2.8266342372269873 2.4200091827016119 0.059101388185936542 4.6690874669723614 63.500000000000007 3.5008980138709185 -0.0010951232791473729 106.50000000000001 2.8984785280230043 118.39666666666669 16.500000000000004 53.114652704717919 65.500000000000014 0.972469644832194 3.4598908137993507 82.694166666666675 2.971718545060281
decision_type=8 8 10 10 10 10 10 10 10 2 10 8 10 10 10 10 10 10 8 8 10 10 10 10 10 10 10 10 10 10
left_child=2 8 16 4 21 6 18 -5 14 22 17 -8 23 -12 -2 20 -1 -6 -3 -14 -13 -4 -10 -7 28 -19 -17 -9 -25 -27
right_child=1 5 3 7 10 12 11 27 9 -11 13 15 19 -15 -16 26 -18 25 -20 -21 -22 -23 -24 24 -26 29 -28 -29 -30 -31
leaf_value=-0.018687844586007876 -0.033284450541057845 9.5658227528945239e-07 0.025896157172768594 -0.0043284872070829912 0.074629043996071218 0.046034231509140523 -0.033267593663630912 0.033591410011339001 -0.044681897519396309 0.046495047105283217 0.03413495182985668 -0.015032868414903209 0.079301982260228041 0.080444369040234998 -0.0033690699703164727 0.0084654330108364598 0.021589725255338837 0.10847931559413 0.031445208721183435 -0.0097490346350788994 0.058397213171092921 0.05215516876928631 0.014466048718435646 0.11565474383039774 0.16916709749089309 0.061675375711328584 0.065653683365760551 0.064358397398122422 0.010582301489712075 0.10144254956402424
leaf_weight=1279.1998610571027 2248.8945815637708 1553.277393758297 1497.8358282670379 1477.948271356523 2212.1330158263445 269.35766912996769 3324.6623368114233 1310.6677320376039 17356.939746230841 194.75081196427345 1054.2476638555527 6201.2488627880812 116.76776446402073 1299.6625405326486 2131.7290017455816 828.84647887200117 944.70208541303873 2178.3079493045807 1592.7827323302627 375.24190839380026 130.72586063295603 2497.7106636688113 180.2366231828928 124.87645242363214 106.96475598216057 564.82571259140968 189.44734051823616 882.44352467358112 65.587842620909214 631.33202891051769
leaf_count=13029 24573 14469 12153 14046 15471 1950 35245 10979 200643 1582 8714 62345 951 9506 21153 7934 7921 13954 13890 3761 1272 19448 1766 832 690 3991 1582 6877 500 4150
internal_value=-0.00037492 -0.024906 0.0505174 0.0579407 0.0678503 -0.00506848 -0.00916365 0.0257208 -0.0382549 -0.0430793 0.0807011 -0.0165563 0.0483879 0.0597037 -0.0187268 -0.0089975 -0.00157814 0.0895483 0.0159205 0.0113853 -0.0135169 0.0423113 -0.044074 0.0805086 0.111729 0.0993287 0.019105 0.0459711 0.0794722 0.0826645
internal_weight=54823.4 36992.3 17831 15607.1 11936.1 14879.8 13821 3671.06 22112.6 17731.9 7940.51 10674.9 1058.8 2353.91 4380.62 7350.27 2223.9 5586.6 3146.06 492.01 6331.97 3995.55 17537.2 566.787 297.429 3374.47 1018.29 2193.11 190.464 1196.16
internal_count=535377 395138 140239 119289 87387 145421 136737 31902 249717 203991 55786 108378 8684 18220 45726 73133 20950 37566 28359 4712 63617 31601 202409 3972 2022 22095 9516 17856 1332 8141
is_linear=0
shrinkage=0.05


Tree=6
num_leaves=31
num_cat=0
split_feature=21 20 22 21 22 12 23 22 23 22 21 26 21 1 23 26 21 21 23 6 2 3 12 4 4 24 17 22 21 23
split_gain=21458.7 1709.62 1342.51 1139.22 985.827 880.218 875.41 640.238 691.579 506.004 414.952 367.299 382.104 349.856 332.076 300.947 295.011 293.034 286.591 283.501 270.614 264.378 255.797 250.315 249.142 237.276 236.372 233.424 214.691 208.931
threshold=68.500000000000014 4.2652445546536422 15.500000000000002 65.500000000000014 76.500000000000014 96.500000000000014 -5.4999999999999991 190.50000000000003 -4.4999999999999991 62.500000000000007 56.500000000000007 108.50000000000001 71.500000000000014 71.408333333333346 -18.499999999999996 1.0000000180025095e-35 63.500000000000007 75.500000000000014 122.50000000000001 0.021919354659496338 2.3849004172056731 109.50000000000001 89.500000000000014 88.500000000000014 189.50000000000003 -0.0053129479216435941 10.500000000000002 283.50000000000006 119.50000000000001 -4.4999999999999991
decision_type=10 10 10 10 10 8 10 10 10 10 10 2 10 8 10 2 10 10 10 8 10 10 8 10 10 10 2 10 10 10
left_child=2 11 -1 4 9 19 -5 8 10 26 15 12 29 -10 17 -6 23 -7 27 -3 -16 -15 -17 -11 -8 -18 -4 -9 -14 -2
right_child=1 5 3 6 7 14 24 18 13 16 -12 -13 28 21 20 22 25 -19 -20 -21 -22 -23 -24 -25 -26 -27 -28 -29 -30 -31
leaf_value=-0.0055863263369974794 0.0019631366811491708 0.0039825244859004174 0.021785040526493382 0.045536566887935261 0.010578827493097999 0.03153753184927538 -0.0061414611922332172 0.036000315079718861 -0.0035851876180849453 0.053342054996747927 0.055897212745632467 0.041488988553860712 -0.045185190824634208 0.019487644840384503 -0.038809790775253983 0.026357154908431879 0.056926217347226582 -0.016647202459768386 0.090040489005190405 0.04949674968620682 -0.018469658862867205 0.098692001873244992 0.12746459131371676 0.073752982874679712 0.21406724494125023 0.01058223029298222 0.093142734089219775 0.07394306619302618 0.044645752264815319 -0.031897177658809853
leaf_weight=2301.2084565460682 610.73644427210093 955.23227000981569 1635.4852783083916 1217.6420304477215 1263.0920190811157 503.6726461276412 2826.2577229142189 2115.1655816808343 2328.4767387509346 4217.5665240734816 1839.314504981041 133.42774139344692 14790.26563783735 2748.018208347261 2537.99210434407 144.42962290346622 528.43671999126673 844.68828330934048 374.43203115463257 533.06637831032276 4597.3249951675534 109.55827621370554 110.35249977558851 2333.026036478579 12.903145797550676 578.59457451105118 124.91659872233868 501.44366694241762 66.81265664845705 1793.2263024449348
leaf_count=22297 5961 9384 13279 9531 10248 4511 28166 16991 21894 29840 12667 1010 178177 24667 28042 1169 3693 9058 2418 4638 48683 908 883 16376 120 5051 977 3922 612 20204
internal_value=-0.000396326 -0.0316877 0.0309594 0.0343221 0.0390178 -0.0151823 0.01007 0.0292175 0.0222473 0.0510203 0.0399285 -0.04115 -0.0417888 0.0108015 -0.0214043 0.020578 0.0565771 0.00135193 0.0491264 0.0202844 -0.0257045 0.0225243 0.0701493 0.0606115 -0.00514068 0.0327043 0.0268485 0.0432716 -0.0447812 -0.0232948
internal_weight=54676.8 27366.4 27310.3 25009.1 20952.3 9971.98 4056.8 11534.3 8543.24 9418.03 3357.19 17394.5 17261 5186.05 8483.68 1517.87 7657.62 1348.36 2991.04 1488.3 7135.32 2857.58 254.782 6550.59 2839.16 1107.03 1760.4 2616.61 14857.1 2403.96
internal_count=535377 310280 225097 202800 164983 104316 37817 95767 72436 69216 24967 205964 204954 47469 90294 12300 54960 13569 23331 14022 76725 25575 2052 46216 28286 8744 14256 20913 178789 26165
is_linear=0
shrinkage=0.05


Tree=7
num_leaves=31
num_cat=0
split_feature=18 20 22 18 18 18 20 18 18 25 21 11 18 6 20 18 18 20 4 22 15 20 13 3 20 9 18 20 4 4
split_gain=22240.9 3454.85 1905.81 2074.73 1244.23 1146.42 1023.29 648.867 532.105 573.068 427.977 491.752 419.172 395.415 381.869 308.426 269.981 267.426 264.291 222.777 196.425 195.73 178.478 175.665 233.988 169.283 208.939 163.089 162.31 150.214
threshold=72.500000000000014 5.1632642769206916 54.500000000000007 68.500000000000014 60.500000000000007 116.50000000000001 3.2688462115278072 79.500000000000014 77.500000000000014 0.095000000000000015 68.500000000000014 0.52623371824368881 66.500000000000014 0.067863420704674673 3.3847492931414425 150.50000000000003 62.500000000000007 2.5057932875285318 75.500000000000014 128.50000000000003 -0.0073023033589260412 1.522291766210752 99.500000000000014 90.500000000000014 11.176842127688161 99.500000000000014 7.5000000000000009 1.3809819371925804 75.500000000000014 88.500000000000014
decision_type=8 8 10 10 10 8 10 10 10 2 8 10 10 10 10 10 10 10 8 10 8 10 10 10 10 10 10 10 8 8
left_child=2 8 25 4 -4 7 21 28 17 19 15 -12 16 18 27 -7 -6 -2 -9 -10 -20 -5 -13 -15 -25 26 -1 -14 -3 -18
right_child=1 5 3 6 12 10 -8 13 9 -11 11 22 14 23 -16 -17 29 -19 20 -21 -22 -23 -24 24 -26 -27 -28 -29 -30 -31
leaf_value=-0.030189484515889854 -0.034349595103698304 -0.010172229846892462 0.035534463602502356 -0.024772200238353945 0.056727803473478493 0.011648679380575379 0.041874557002506876 -0.036609192789262827 -0.044135442876986758 0.040621376406885873 -0.0078683426198323213 0.011215176251182742 0.0041877889056425466 0.010107513926352308 0.071848355497721478 0.07421830568839119 0.074785377207858855 -0.0092819287671069301 0.02611530638612768 0.016892293866543315 -0.018873637960517123 0.0058049589904420572 0.06429357013046931 0.21039293712072638 -0.019211818102707529 0.0083246583827743265 0.041286337016291919 0.043469167718187429 0.016628716808901708 0.093769536900930262
leaf_weight=756.95849160850048 2260.412565767765 812.07925750315189 4376.4469769448042 748.33286509662867 1472.2428464591503 307.35986667126417 2505.7616697177291 2408.2581393793225 15402.404924303293 204.91529683768749 1349.3646566271782 253.42513293772936 362.76530101895332 640.37763861566782 1178.6167952716351 548.29877404868603 3028.4640721082687 2010.0108912289143 253.70090262591839 151.00582639873028 5554.5013960972428 1740.9021900743246 422.26757472008467 25.888868898153305 19.419499851763248 1211.556301034987 118.21233822405338 972.85454030334949 1856.1021947339177 1588.5804207623005
leaf_count=7686 26518 7768 32394 7826 9659 2693 19740 26723 190939 1588 13489 2178 3126 5897 7917 3475 18430 20792 2222 1485 57160 15897 3567 221 168 11473 998 7177 16694 9477
internal_value=-0.000407311 -0.0247621 0.041451 0.0467018 0.0572395 -0.00612925 0.0193185 -0.0131563 -0.038206 -0.0424485 0.0220946 0.00956715 0.0682804 -0.0196387 0.051105 0.0517428 0.0753721 -0.0225507 -0.0226828 -0.0435429 -0.0169085 -0.00338738 0.044386 0.0168392 0.111983 -0.00377905 -0.020535 0.0328 0.00847167 0.0813172
internal_weight=54541.5 34479.8 20061.7 17975 12980 14451 4995 11570.3 20028.7 15758.3 2880.72 2025.06 8603.52 8902.15 2514.24 855.659 6089.29 4270.42 8216.46 15553.4 5808.2 2489.24 675.693 685.686 45.3084 2086.73 875.171 1335.62 2668.18 4617.04
internal_count=535377 383577 151800 131643 88180 142255 43463 116853 241322 194012 25402 19234 55786 92391 18220 6168 37566 47310 86105 192424 59382 23723 5745 6286 389 20157 8684 10303 24462 27907
is_linear=0
shrinkage=0.05


Tree=8
num_leaves=31
num_cat=0
split_feature=18 20 18 18 18 18 20 18 18 25 14 18 20 5 3 20 19 1 19 2 15 20 20 20 2 19 16 22 2 1
split_gain=19912.4 3037.07 1980.34 1776.38 1182.47 961.447 895.287 682.539 475.284 425.665 412.583 409.157 313.663 305.076 278.648 260.511 245.471 240.527 228.034 224.273 214.813 207.564 207.46 205.967 184.871 175.616 158.839 157.339 154.702 150.42
threshold=72.500000000000014 4.5723322518570182 9.5000000000000018 68.500000000000014 116.50000000000001 61.500000000000007 3.7871419877831447 79.500000000000014 77.500000000000014 0.28833333333333339 -4.4999999999999991 66.500000000000014 1.4011106704538221 6.5000000000000009 122.50000000000001 4.6690874669723614 79.990850622406654 127.50333333333334 118.39666666666669 4.4033036814396995 -6.6808563168903833e-05 1.522291766210752 2.4200091827016119 2.8984785280230043 3.5008980138709185 65.521666666666675 0.19166666666666668 116.50000000000001 3.0575734750092525 71.238125000000011
decision_type=10 10 10 10 10 10 10 10 10 2 8 10 10 10 10 8 10 10 10 10 8 10 10 10 8 10 2 10 8 8
left_child=2 8 15 5 7 23 17 24 22 18 -9 26 -13 25 16 -1 19 21 -10 -6 -18 -5 -2 -4 -3 -12 -7 -15 -8 -27
right_child=1 4 3 6 14 11 28 10 9 -11 13 12 -14 27 -16 -17 20 -19 -20 -21 -22 -23 -24 -25 -26 29 -28 -29 -30 -31
leaf_value=-0.017424479632469087 -0.034156457230899849 -0.0046091154871013814 0.022526767617325503 -0.024488314435620606 0.093270820693083512 0.069752050539287944 0.028901510856963672 0.039358726116152161 -0.044747060454846693 0.040388836906487258 0.011761834451774283 0.0047122033567023021 0.05408463976027849 -0.01569461544616025 0.15220097284611997 0.011999325565985602 0.04138534478577717 0.19142407340576326 0.016291314228414799 0.018678984185858161 0.0026319238299166809 0.0064449902684101217 -0.011080457314510716 0.043472050118916888 0.020052873279942682 -0.036559518786931158 0.13217245948823209 0.011550795041412227 0.055348851183892545 -0.021830143424491334
leaf_weight=1244.3333241268992 2095.8137473836541 1654.9217924252152 1879.2555522620678 730.79140119999647 218.65343187004328 5571.1884023398161 1119.7921181172132 281.49265918880701 13633.614989116788 150.84300026297569 278.85388758778572 376.14960224181414 2221.7963125035167 1564.2176404446363 43.366315424442291 1902.2799782380462 533.17314238846302 16.242874301970005 154.7519970908761 186.91329856216908 1085.8101867809892 2102.5153236836195 1819.6136868745089 3126.3186235874891 1405.0555855110288 3250.0360586345196 103.81568303704262 801.36746210604906 1092.2760469317436 3714.1385708525777
leaf_count=13029 25361 15830 14003 7794 1368 32523 8835 2340 176438 1086 2485 3224 14996 16101 257 16047 4388 142 1498 1420 10389 18776 19269 22068 12417 36929 573 7918 7916 39957
internal_value=-0.000420273 -0.0248862 0.0370103 0.0432977 -0.00831519 0.0529051 0.0180938 -0.0139217 -0.0388246 -0.0431481 -0.0203066 0.0633705 0.0469361 -0.0220545 0.0267946 0.000363634 0.0241084 -0.000433711 -0.044062 0.0588937 0.0153944 -0.0015336 -0.0234324 0.0356085 0.00671498 -0.0271461 0.0708939 -0.00646494 0.0419607 -0.028704
internal_weight=54359.4 32872.6 21486.8 18340.1 15018 13278.5 5061.62 12950.1 17854.6 13939.2 9890.11 8272.95 2597.95 9608.61 2067.92 3146.61 2024.55 2849.55 13788.4 405.567 1618.98 2833.31 3915.43 5005.57 3059.98 7243.03 5675 2365.59 2212.07 6964.17
internal_count=535377 375451 159926 130850 151799 87387 43463 133977 223652 179022 105730 51316 18220 103390 17822 29076 17565 26712 177936 2788 14777 26570 44630 36071 28247 79371 33096 24019 16751 76886
is_linear=0
shrinkage=0.05


Tree=9
num_leaves=31
num_cat=0
split_feature=18 20 18 18 18 18 20 18 18 4 25 14 18 20 21 11 5 20 6 19 18 22 1 20 9 20 1 19 4 9
split_gain=17888.7 2916.68 1699.6 1499.77 1092.45 815.68 778.006 673.396 439.287 421.4 371.249 321.336 288.555 286.753 247.624 320.671 256.417 236.202 227.981 211.129 197.647 180.479 177.869 173.955 155.181 154.015 153.563 150.857 146.181 143.042
threshold=72.500000000000014 4.3482787142982344 9.5000000000000018 68.500000000000014 116.50000000000001 60.500000000000007 3.2688462115278072 78.500000000000014 77.500000000000014 75.500000000000014 0.22166666666666671 -4.4999999999999991 66.500000000000014 3.3847492931414425 68.500000000000014 0.52623371824368881 10.500000000000002 4.6690874669723614 0.025006055622840521 118.39666666666669 63.500000000000007 245.50000000000003 127.50333333333334 2.4200091827016119 99.500000000000014 1.4424785764423393 67.375000000000014 74.121666666666684 168.50000000000003 87.500000000000014
decision_type=10 10 10 10 10 10 10 10 10 8 2 8 10 10 10 10 10 8 10 10 10 10 10 10 10 10 8 10 8 10
left_child=2 8 17 5 7 21 22 26 23 -9 19 29 20 -14 16 -16 -6 24 27 -10 -7 28 25 -2 -1 -5 -3 -13 -4 -11
right_child=1 4 3 6 14 12 -8 9 10 11 -12 18 13 -15 15 -17 -18 -19 -20 -21 -22 -23 -24 -25 -26 -27 -28 -29 -30 -31
leaf_value=-0.033860912705982731 -0.033394719736120723 -0.007885240417508415 0.02738474674461927 -0.025475109158738032 0.058600920818469161 0.051947714433293893 0.035828975890674394 -0.035646990761983868 -0.044669983436663917 0.0062461882692639225 0.034116426872197049 0.0043734797603873039 0.027655108697021244 0.060429822151704643 -0.0073565798857869033 0.047843353371357811 -0.0060896222542481653 0.011298684861151953 -0.0012772840878946933 0.016320358808836536 0.069673996517024869 0.069289534654351406 0.16512823932995421 -0.011683269494426907 0.0017256922684992879 0.0031300571982757069 0.016684155378927978 -0.023616693463582788 0.11980067450706081 0.07996171085524105
leaf_weight=638.53350716084242 2037.9240117743611 982.15331848710775 4094.1851992383599 633.49161987751722 707.64224268496037 2587.1043173074722 2644.4148844256997 2951.522509008646 12637.185268953443 140.57283075898886 153.98799551278353 534.98432791978121 1402.0997083038092 1273.5776866823435 834.30040513724089 384.28891045600176 195.5003337264061 1918.7917560189962 2073.3608407825232 143.50592440366745 4009.7773468494415 287.9476458132267 15.602185830473898 1685.6830163300037 588.84330114722252 1829.5437765270472 1804.3135723099113 4805.0416010841727 43.241561703383923 123.7357037588954
leaf_count=6877 25361 9146 29320 6925 4607 15471 19740 34845 170188 1116 1089 5014 10303 7917 8822 3027 1566 16047 20730 1371 22095 1979 122 18081 6152 16676 16164 53317 302 1007
internal_value=-0.00042937 -0.0241647 0.0343579 0.0400441 -0.00858209 0.0486759 0.0169648 -0.0138546 -0.0386989 -0.0195902 -0.0430554 -0.0134175 0.0571049 0.0432553 0.0247562 0.010051 0.0445976 0.000341577 -0.015349 -0.0439852 0.0627223 0.0310144 -0.00316114 -0.0235659 -0.016788 -0.00422718 0.00802412 -0.0208125 0.0283506 0.040756
internal_weight=54162.9 32195.7 21967.2 18821 15537.4 13697.9 5123.05 13415.7 16658.3 10629.2 12934.7 7677.7 9272.56 2675.68 2121.73 1218.59 903.143 3146.17 7413.39 12780.7 6596.88 4425.37 2478.64 3723.61 1227.38 2463.04 2786.47 5340.03 4137.43 264.309
internal_count=535377 375451 159926 130850 159361 87387 43463 141339 216090 116029 172648 81184 55786 18220 18022 11849 6173 29076 79061 171559 37566 31601 23723 43442 13029 23601 25310 58331 29622 2123
is_linear=0
shrinkage=0.05


Tree=10
num_leaves=31
num_cat=0
split_feature=21 20 19 19 23 12 20 20 21 25 23 3 2 21 20 2 21 19 19 6 20 21 19 12 3 23 2 21 24 19
split_gain=14901.6 1519.28 857.161 941.767 928.232 649.161 556.155 416.666 340.514 362.892 312.544 306.753 273.447 235.241 230.957 229.741 224.277 203.191 202.287 194.183 179.99 175.231 155.756 177.312 154.728 151.692 146.71 142.596 276.975 143.791
threshold=68.500000000000014 4.3482787142982344 68.301666666666677 6.9384210526315799 -4.4999999999999991 96.500000000000014 40.544419717644992 5.8350602203216972 71.500000000000014 0.35500000000000004 -18.499999999999996 64.500000000000014 2.3361019288344642 53.500000000000007 13.025325758080777 3.1276579807312417 75.500000000000014 71.640689655172437 118.39666666666669 0.0089058767319638212 0.96680171374391322 105.50000000000001 81.968333333333348 92.500000000000014 108.50000000000001 -2.4999999999999996 3.6224607963189115 16.500000000000004 0.39916199068878538 84.967523056653505
decision_type=10 10 8 10 8 8 10 10 10 2 10 8 10 10 10 8 10 8 10 8 10 10 8 8 10 10 10 10 10 10
left_child=2 8 3 7 13 19 11 26 25 18 16 -6 -12 14 -4 22 -7 -17 -10 -3 -5 -14 23 -13 -15 -2 -1 -8 29 -29
right_child=1 5 4 20 6 10 27 -9 9 -11 12 15 21 24 -16 17 -18 -19 -20 -21 -22 -23 -24 -25 -26 -27 -28 28 -30 -31
leaf_value=-0.030624080928268505 -0.0043012983997944235 -0.00090535199460871807 -0.020911900767934588 0.014974286950254517 -0.0092745215417615792 0.028444217126410189 0.014787530782419473 0.033792155335438695 -0.042968214609382403 0.036211419758170618 -0.03743694710355535 0.099990876537035436 -0.017699225770058551 0.035791648262703264 0.025246914763853302 0.056180889318174471 -0.013434039826784074 0.015235490261561103 0.017075461062720863 0.035094506695047684 0.039764627164964289 0.037238493770702534 -0.023055220579121429 0.0045270858063339919 0.097465204601166991 -0.030792493712551102 0.0035240230549651533 0.074541950591048525 0.11316380149635925 0.021166775412982963
leaf_weight=732.98661376535892 884.69927547872066 739.94703717529774 355.25664276629686 783.45063206553459 3690.4631558731198 537.51308284699917 424.93255028128624 625.60975199192762 12925.130791462958 148.79411248117685 2200.6382585316896 49.841961033642292 4179.2392990663648 4259.9381625726819 1142.548539288342 377.55238439887762 788.9656193703413 1534.3056510537863 141.81190486252308 758.6267013028264 11190.702662155032 150.37020047008991 552.54988836497068 2018.4817675799131 104.18503487855196 1388.4572577700019 550.95492282509804 176.40984146296978 144.84332016855478 443.16523439437151
leaf_count=7910 9039 7258 2965 5334 35997 4562 3250 4785 179629 1015 26392 441 46572 27749 8803 3027 8977 14141 1338 6453 74749 1548 5481 19104 641 17485 5734 1109 850 3426
internal_value=-0.000294081 -0.0287484 0.0239504 0.0329423 0.0157772 -0.0128388 0.00605015 0.000332664 -0.0383578 -0.0414324 -0.018591 0.00142794 -0.0230856 0.031396 0.0142987 0.0101417 0.00353578 0.0233214 -0.0423166 0.0173189 0.0381426 -0.0157912 0.000527466 0.00682755 0.037264 -0.0204823 -0.0159707 0.0380082 0.0509163 0.0363641
internal_weight=54002.4 24844.2 29158.2 13883.7 15274.5 9355.3 9412.55 1909.55 15488.9 13215.7 7856.73 8223.19 6530.25 5861.93 1497.81 4532.73 1326.48 1911.86 13066.9 1498.57 11974.2 4329.61 2620.87 2068.32 4364.12 2273.16 1283.94 1189.35 764.418 619.575
internal_count=535764 310268 225496 98512 126984 101762 86826 18429 208506 181982 88051 78191 74512 40158 11768 42194 13539 17168 180967 13711 80083 48120 25026 19545 28390 26524 13644 8635 5385 4535
is_linear=0
shrinkage=0.05


Tree=11
num_leaves=31
num_cat=0
split_feature=18 18 18 18 21 12 2 23 2 18 18 1 2 25 19 13 25 2 21 2 3 18 18 1 2 21 3 5 15 3
split_gain=14965.2 2165.05 1359.4 1799.47 1192.28 622.699 461.27 431.527 404.079 376.961 327.871 320.227 272.481 243.197 203.1 188.978 276.68 187.722 168.513 176.709 167.647 166.734 155.055 155.054 163.811 153.017 146.854 146.101 143.599 170.133
threshold=73.500000000000014 116.50000000000001 69.500000000000014 57.500000000000007 68.500000000000014 95.500000000000014 2.0786213369808553 -11.499999999999998 2.4341779355738775 66.500000000000014 9.5000000000000018 70.593917525773207 2.683103509746823 0.29833333333333339 78.227916666666687 99.500000000000014 0.048333333333333346 4.5758808883217483 24.500000000000004 4.9538778300356654 111.50000000000001 62.500000000000007 81.500000000000014 68.160479452054815 18.064798985618324 60.500000000000007 109.50000000000001 5.5000000000000009 -3.2288057095178995e-16 90.500000000000014
decision_type=10 10 8 10 10 8 8 10 8 10 10 8 8 2 10 10 2 10 10 8 10 10 10 8 10 8 8 10 8 8
left_child=2 4 3 10 11 13 25 22 9 21 15 -2 -9 27 17 -1 -17 -3 -12 -20 28 -5 -7 24 -10 -4 -13 -6 29 -16
right_child=1 14 6 8 5 7 -8 12 23 -11 18 26 -14 -15 20 16 -18 -19 19 -21 -22 -23 -24 -25 -26 -27 -28 -29 -30 -31
leaf_value=-0.027595880618833581 -0.02182948458001454 0.082423855831561754 0.021455762603642885 0.034379725638665593 -0.021800067200789801 -3.4178422108366175e-06 0.021205082790651992 -0.044028308182052764 0.042857356365985998 0.022344358270080911 0.046868596614833842 -0.0012149420164426184 -0.031055498598304448 0.04500494050764537 0.041970111229097169 -0.0044191519696861106 0.047167962064916531 0.015335471307819041 0.010487981124641461 0.045338709178316533 0.10325894211035261 0.053603915336668265 -0.026645896579501688 0.063257620644937521 0.11486842304092014 -0.011647162528244765 0.062546423800725962 0.013480763980256031 0.002753527719723758 -0.032657327769039533
leaf_weight=577.6716423407197 2883.8398129269481 239.90714029222727 411.07930251955986 1777.6842336058617 1027.9886499792337 928.21331479400396 3264.1895484700799 10354.824626035988 1954.0979211702943 2395.2532074078918 565.01117440313101 3624.4355358853936 6645.3660428002477 217.43861109018326 558.77311211079359 1337.2658939734101 322.62477538734674 184.42716352641582 2061.3754701688886 441.65511897951365 52.467781893908978 3085.6903580129147 1326.5980117991567 3354.8274058103561 82.30008552968502 2315.3505115881562 92.612019918859005 410.65837506204844 1249.5123464614153 88.462137296795845
leaf_count=5973 30285 1348 3180 10952 12722 9977 26988 145561 11623 17391 4028 35173 86939 1563 4507 12482 2546 1323 14521 2999 310 16376 16309 19410 476 23045 810 4291 12012 644
internal_value=-0.000301636 -0.0238999 0.0291498 0.036031 -0.0278528 -0.0337008 0.00852502 -0.0362312 0.0462821 0.0385805 0.0115899 -0.00932657 -0.0389572 -0.00428023 0.021918 -0.00296456 0.00560758 0.0532654 0.0222047 0.0166373 0.0150939 0.046577 -0.0156783 0.0566512 0.0457677 -0.00665605 0.000373703 -0.0117292 0.012655 0.0317703
internal_weight=53831.6 29885.5 23946.1 17955.5 27512 20911.1 5990.62 19255 12649.9 7258.63 5305.6 6600.89 17000.2 1656.09 2373.55 2237.56 1659.89 424.334 3068.04 2503.03 1949.22 4863.37 2254.81 5391.23 2036.4 2726.43 3717.05 1438.65 1896.75 647.235
internal_count=535764 363774 171990 118777 343630 277362 53213 258786 76228 44719 42549 66268 232500 18576 20144 21001 15028 2671 21548 17520 17473 27328 26286 31509 12099 26225 35983 17013 17163 5151
is_linear=0
shrinkage=0.05


Tree=12
num_leaves=31
num_cat=0
split_feature=18 20 22 18 18 20 18 18 18 6 25 18 20 15 19 22 2 19 20 22 20 1 2 1 19 3 10 18 19 20
split_gain=13515.9 2566.05 1199.48 1370.42 910.22 662.642 505.514 411.815 362.526 348.35 311.932 306.735 296.03 218.137 204.539 170.388 161.948 154.367 148.393 144.429 144.415 143.466 140.534 138.194 136.383 136.232 134.163 236.772 132.919 170.314
threshold=73.500000000000014 4.3890267206560374 54.500000000000007 69.500000000000014 116.50000000000001 3.7871419877831447 59.500000000000007 81.500000000000014 67.500000000000014 0.034240824898054557 0.35500000000000004 78.500000000000014 2.1547247820455175 -0.0023804708941210632 118.39666666666669 135.50000000000003 2.4341779355738775 67.648333333333355 0.96680171374391322 116.50000000000001 1.5425501966174 67.541666666666686 3.6224607963189115 68.001666666666679 78.227916666666687 111.50000000000001 99.994698162729676 7.5000000000000009 95.428333333333356 17.792823449561773
decision_type=10 10 10 10 10 10 10 10 10 8 2 10 10 8 10 10 8 10 10 10 10 8 8 8 10 10 8 8 10 10
left_child=2 10 22 6 7 20 -4 21 16 13 11 -2 -10 -9 -13 -6 18 -15 -8 -11 -5 -3 -1 -7 -17 -26 27 -24 -23 -30
right_child=1 4 3 5 15 23 8 9 12 19 -12 14 -14 17 -16 24 -18 -19 -20 -21 -22 28 26 -25 25 -27 -28 -29 29 -31
leaf_value=-0.01496955678833569 -0.025820901976339669 -0.012711610273284572 0.023646325772336454 -0.027489467812413126 -0.0027614744079379784 0.012318336510071609 0.015364291442570661 0.0032349555527409757 0.0022759892348318202 -0.011284438944089396 0.032286670115469422 -0.043655724700507867 0.038254402804722205 0.0072642114311143634 0.015745718579479272 0.05547825364725463 0.05624695675652841 -0.028735631745187087 0.045380456553548561 0.017942963108503233 -0.0011321937802081085 0.0038867967569943813 -0.0036563836029539841 0.037711916004559282 0.018079262602973191 0.10248207205684828 -0.012847620312601369 0.041907650327931728 0.11321033672824957 0.019207993905030477
leaf_weight=1274.2070176228881 3475.1821391358972 1265.3992863595486 4239.5790023356676 692.06265051662922 550.53711135685444 840.41530311107635 450.08239132165909 656.31139395385981 799.74184110015631 1035.9273994937539 156.11940923333168 10848.099961996078 2005.3401070684195 312.79355087131262 146.87982854247093 383.65938020497561 3909.3883592709899 6203.4257453456521 4835.7943200692534 714.01714405417442 2086.6306104958057 2011.2956125512719 636.60402835905552 1478.038692869246 1207.4681594148278 49.779433615505695 573.19075389206409 516.40341532230377 63.116807460784912 203.68085664510727
leaf_count=12307 44995 13005 28559 8070 5472 6443 2640 6745 6797 10597 1028 162227 12977 2753 1367 2253 21069 74810 26638 6644 19606 19028 6656 10995 10015 266 5196 4037 648 1921
internal_value=-0.0003095 -0.0231944 0.0272264 0.0313888 -0.00840914 0.00877065 0.0384879 -0.0136333 0.0437313 -0.0193604 -0.0380111 -0.0387695 0.0279968 -0.0242403 -0.0428622 0.0213084 0.0485312 -0.0270076 0.0428246 0.000641005 -0.00769675 0.000787362 -0.00237463 0.028507 0.029384 0.0214211 0.00692241 0.0167506 0.00828556 0.0414463
internal_weight=53621.2 29283.7 24337.5 21337.1 14657.4 5097.15 16239.9 12466 12000.3 8922.48 14626.3 14470.2 2805.08 7172.53 10995 2191.44 9195.27 6516.22 5285.88 1749.94 2778.69 3543.49 3000.41 2318.45 1640.91 1257.25 1726.2 1153.01 2278.09 266.798
internal_count=535764 363774 171990 143794 154157 45114 98680 136151 70121 101549 209617 208589 19774 84308 163594 18006 50347 77563 29278 17241 27676 34602 28196 17438 12534 10281 15889 10693 21597 2569
is_linear=0
shrinkage=0.05


Tree=13
num_leaves=31
num_cat=0
split_feature=21 20 22 11 21 22 22 21 25 4 3 23 24 23 4 2 0 22 23 21 22 21 21 3 3 22 25 0 21 6
split_gain=11314.4 1395.59 649.543 550.467 482.992 392.404 341.091 331.262 334.933 314.807 265.573 269.926 238.473 193.308 180.512 172.907 194.223 171.864 169.059 174.824 168.195 161.243 145.039 143.83 217.241 139.749 151.6 134.065 133.768 130.814
threshold=68.500000000000014 4.3482787142982344 54.500000000000007 0.87859879107653038 66.500000000000014 76.500000000000014 249.50000000000003 76.500000000000014 0.33166666666666672 75.500000000000014 62.500000000000007 -7.4999999999999991 -0.035258947321636779 -5.4999999999999991 182.50000000000003 6.2718573351032694 143.50000000000003 138.50000000000003 -18.499999999999996 105.50000000000001 116.50000000000001 42.500000000000007 -4.4999999999999991 89.500000000000014 90.500000000000014 165.50000000000003 0.03500000000000001 93.500000000000014 72.500000000000014 0.0046302736697076243
decision_type=10 10 10 10 10 10 10 10 2 10 10 10 10 10 10 10 10 10 10 10 10 10 10 10 10 10 2 10 10 8
left_child=2 7 -1 9 5 15 10 13 17 -3 11 -7 -6 -2 23 16 -4 -9 28 -20 -5 25 -13 -14 27 26 -12 -25 -11 -22
right_child=1 3 4 20 12 6 -8 8 -10 18 21 22 14 -15 -16 -17 -18 -19 19 -21 29 -23 -24 24 -26 -27 -28 -29 -30 -31
leaf_value=-0.002268534083743271 -0.0083440002154346379 -0.032095590589921327 0.028919756886885219 -0.0052851665836298667 0.031024935299799689 0.023200550567213981 0.038541046219243806 -0.044271301019805344 0.030950024271605633 0.041221796989707633 -0.0035232957006324653 0.025892062875154494 -0.010632088777531431 -0.031559551898298781 0.15485973009009435 0.05024872846723414 0.12329420766038575 0.048532041911593597 -0.015753150318777217 0.034761173008040679 0.0078692176124163064 0.027231805769495483 -0.005790547712718001 0.29340032084475637 0.01531425075106189 0.031274482137788738 0.039551841012051947 0.048933891296537475 -0.0016074761054838958 0.049521453279228078
leaf_weight=2993.9092151671648 1136.4045080468059 2217.2929060980678 9699.4884807392955 431.13535761088133 573.60342524945736 1644.0115181058645 1892.2776204124093 8541.2077599689364 152.81090721487999 243.52699714154005 1346.6564930230379 414.70415558665991 1952.7431303113699 4250.4299860820174 17.465970113873482 1113.3388804197311 54.8250577673316 50.181173697113991 4452.0087489038706 178.13575895130634 306.46750037372112 4680.5758269056678 2801.3649997040629 12.117695994675161 173.4764836654067 603.64089572429657 240.78266193717718 10.439571373164652 725.2380513176322 489.72591833025217
leaf_count=28196 13349 27969 60431 4262 3969 10464 12699 132924 983 1838 10981 3284 19649 60829 136 6612 317 421 51601 1790 2761 34803 25924 118 1739 4345 1719 110 7870 3671
internal_value=-0.000315564 -0.0265998 0.0198372 -0.011262 0.0222675 0.0244947 0.0188422 -0.0364155 -0.0424242 -0.0161502 0.0156649 0.00671966 0.00235849 -0.026662 -0.00523215 0.0315809 0.0294502 -0.0437292 -0.00983551 -0.0138097 0.0198683 0.0219915 -0.00170515 -0.00653343 0.0342943 0.0107971 0.00301034 0.180261 0.0091589 0.0334888
internal_weight=53400 23174.6 30225.4 9043.53 27231.5 24491.7 13624 14131 8744.2 7816.2 11731.7 4860.08 2739.85 5386.83 2166.24 10867.7 9754.31 8591.39 5598.91 4630.14 1227.33 6871.66 3216.07 2148.78 196.034 2191.08 1587.44 22.5573 968.765 796.193
internal_count=535764 310268 225496 101762 197300 171579 104219 208506 134328 91068 91520 39672 25721 74178 21752 67360 60748 133345 63099 53391 10694 51848 29208 21616 1967 17045 12700 228 9708 6432
is_linear=0
shrinkage=0.05


Tree=14
num_leaves=31
num_cat=0
split_feature=18 20 20 18 18 22 4 18 18 25 18 18 12 23 19 18 18 20 18 22 18 4 19 4 22 22 22 19 20 10
split_gain=11351.2 2326 971.818 795.91 679.152 880.067 420.06 401.178 374.593 270.122 290.017 260.216 231.756 203.631 193.172 185.054 235.473 174.868 171.229 161.72 145.937 144.964 144.45 141.283 138.48 138.289 154.51 129.699 151.336 120.852
threshold=73.500000000000014 4.3482787142982344 2.9467335964910286 116.50000000000001 68.500000000000014 61.500000000000007 75.500000000000014 42.500000000000007 69.500000000000014 0.35500000000000004 78.500000000000014 81.500000000000014 96.500000000000014 -8.4999999999999982 118.39666666666669 65.500000000000014 62.500000000000007 1.5425501966174 63.500000000000007 -12.499999999999998 80.500000000000014 99.500000000000014 76.208333333333343 80.500000000000014 135.50000000000003 112.50000000000001 148.50000000000003 95.428333333333356 17.792823449561773 92.913604465709739
decision_type=10 10 10 10 8 10 8 10 10 2 10 10 8 10 10 10 10 8 10 10 10 10 10 10 10 10 10 10 10 10
left_child=2 9 4 6 5 21 20 19 13 10 -2 27 25 18 -12 16 23 -6 -9 -4 -3 -1 -14 -7 -5 -13 -27 -8 -29 -22
right_child=1 3 7 24 17 15 11 8 -10 -11 14 12 22 -15 -16 -17 -18 -19 -20 -21 29 -23 -24 -25 -26 26 -28 28 -30 -31
leaf_value=-0.013826528119557511 -0.024817968871259845 -0.011324869456528445 0.14801798818915754 -0.0024589058754035595 -0.023926635853074751 0.0094625469502504882 0.0019889837433360448 0.023797118827342416 0.021131546215218729 0.02756212105826223 -0.042649818182037662 -0.011650899905712331 0.0035583119361716322 0.048634327060997462 0.015650495631872728 0.020807792082341948 0.051551056253752475 0.001750793816350927 0.043653716160144823 0.0081806133952472774 0.14079829826201853 0.014486422402120275 -0.020431458928687991 0.040294960447316196 0.026440519630049054 0.040849559892892601 -0.011376269504155608 0.10068447421710383 0.017009711475681057 -0.035327870749646349
leaf_weight=1494.8210780099034 3329.7299655042589 928.67154661566019 20.943377561867237 549.9917029067874 871.94746581465006 740.89072602242231 2245.4818001389503 2193.7487872689962 3033.5700418651104 160.82243429869413 10010.508461516351 515.52328953146935 726.08073184639215 4709.6780848875642 144.12866113334894 2071.2377239614725 1881.5626255422831 2767.5982627794147 2149.4791903272271 1616.9477375671268 9.7789732813835126 648.10832292586565 4621.1611195877194 745.31516718864441 1682.913189470768 419.68574524670839 213.74812231957912 71.326989129185677 222.92700313776731 2425.3224873319268
leaf_count=14331 44749 9769 190 5497 10127 4372 21026 12899 22950 1020 161065 5163 6805 26299 1338 13064 9219 25274 11441 12077 81 5402 54483 4345 12547 3720 1979 675 2043 31814
internal_value=-0.000317485 -0.0220052 0.0242671 -0.00815745 0.013353 0.0218754 -0.0131059 0.0331907 0.0363376 -0.0368551 -0.0376234 -0.00749095 -0.0127963 0.0414331 -0.0418223 0.032568 0.0398007 -0.0044009 0.0336242 0.00996869 -0.0281891 -0.00526355 -0.017174 0.0249246 0.0193222 0.00757732 0.0232263 0.00607924 0.0372924 -0.0346206
internal_weight=53223.7 28277.8 24945.8 14632.6 11221.5 7581.94 12399.7 13724.4 12086.5 13645.2 13484.4 9035.93 6496.2 9052.91 10154.6 5439.01 3367.77 3639.55 4343.23 1637.89 3363.77 2142.93 5347.24 1486.21 2232.9 1148.96 633.434 2539.74 294.254 2435.1
internal_count=535764 363774 171990 155602 86134 50733 137558 85856 73589 208172 207152 95894 72150 50639 162403 31000 17936 35401 24340 12267 41664 19733 61288 8717 18044 10862 5699 23744 2718 31895
is_linear=0
shrinkage=0.05


Tree=15
num_leaves=31
num_cat=0
split_feature=18 20 20 18 18 22 4 18 25 18 18 1 18 18 15 18 11 19 6 24 18 3 4 15 6 20 1 18 25 18
split_gain=10314.7 2252.89 875.213 704.348 610.75 646.013 354.491 331.129 304.741 285.628 284.063 264.762 248.004 222.531 230.586 209.378 207.87 182.687 170.004 168.816 170.826 159.855 157.113 154.891 148.226 147.791 122.015 117.273 111.627 179.873
threshold=73.500000000000014 4.7172938333826515 2.9467335964910286 116.50000000000001 69.500000000000014 61.500000000000007 75.500000000000014 42.500000000000007 0.22166666666666671 69.500000000000014 78.500000000000014 43.550000000000004 65.500000000000014 81.500000000000014 -0.0073023033589260412 61.500000000000007 0.21095102577328476 118.39666666666669 0.079150212780142101 -0.031096123290258772 63.500000000000007 122.50000000000001 118.50000000000001 -3.2288057095178995e-16 0.020009555661729777 2.4839261037133946 69.694124293785322 79.500000000000014 0.048333333333333346 -15.499999999999998
decision_type=10 10 10 10 8 10 8 10 2 10 10 8 10 10 8 10 10 10 10 10 10 10 10 8 10 10 8 10 2 10
left_child=2 8 4 6 5 -1 27 28 10 19 25 -8 15 -13 -15 -7 -6 24 -16 20 -9 23 -14 -5 -12 -2 -21 -3 -4 -30
right_child=1 3 7 21 16 12 11 9 -10 -11 17 13 22 14 18 -17 -18 -19 -20 26 -22 -23 -24 -25 -26 -27 -28 -29 29 -31
leaf_value=-0.0039974208429955499 -0.033485802762231419 -0.0090098766330263154 0.0022692383178920645 0.035160539921104704 -0.016262789220705121 0.018484040120184644 0.21852062133430752 0.022351160182032002 0.026936077937910287 0.020984627317627937 -0.042907048985158042 0.0062252838557985768 0.013667416167255787 0.026311233397151829 -0.016834524859252593 0.045207670132287263 0.011066862512176553 0.011472731721694177 0.016649994408047739 0.034622089980172445 0.0413011663769971 0.108991217712058 0.066145238863996689 0.0072406269157814828 -0.022428779063348881 -0.012732306258912959 0.051796643573253504 -0.03200123778110308 0.060009881001578648 -0.0031985762126327008
leaf_weight=2131.937074303627 1794.7559977397323 733.00159650295973 1191.3912100121379 765.76392389833927 1954.4265985861421 1063.6057309880853 13.062859281897543 2327.9573172926903 194.78874557465315 3071.7275880873203 9345.3672472201288 2366.5391509607434 2540.717291392386 370.73270133882761 5214.6709431633353 2357.7332459241152 1080.3721130415797 168.77536544203758 408.77635658532381 1623.5895116627216 2431.3009784221649 48.323465876281261 151.10947053879499 1414.0264085605741 975.92368153110147 1643.2745266519487 2848.5340313091874 2279.2758072540164 248.65525708347559 205.63023822754622
leaf_count=19725 26678 7501 8942 5410 20088 6402 124 13435 1269 22928 154837 21707 17273 2905 59549 11495 10176 1557 3848 8975 12655 232 923 12067 15653 19912 15484 30330 1743 1555
internal_value=-0.000136196 -0.0211797 0.0229996 -0.00666607 0.0126435 0.019702 -0.011697 0.0313742 -0.0351705 0.0341917 -0.0360391 -0.0064056 0.0279671 -0.00675702 -0.0118825 0.0369 -0.00653358 -0.040127 -0.0144005 0.0385863 0.0320319 0.019043 0.0166133 0.0170489 -0.0409707 -0.0235663 0.0455615 -0.0264066 0.0103104 0.0313989
internal_weight=52965.7 27737.1 25228.7 13614.2 11279.9 8245.1 11386.1 13948.8 14122.9 12303.1 13928.1 8373.78 6113.17 8360.72 5994.18 3421.34 3034.8 10490.1 5623.45 9231.38 4759.26 2228.11 2691.83 2179.79 10321.3 3438.03 4472.12 3012.28 1645.68 454.285
internal_count=535378 363579 171799 143673 86082 55818 125964 85717 219906 73477 218637 88133 36093 88009 66302 17897 30264 172047 63397 50549 26090 17709 18196 17477 170490 46590 24459 37831 12240 3298
is_linear=0
shrinkage=0.05


Tree=16
num_leaves=31
num_cat=0
split_feature=18 20 20 18 18 22 4 18 18 26 21 6 18 11 15 19 3 2 15 18 18 21 18 19 22 3 20 15 23 4
split_gain=9341.87 2157.49 760.049 683.332 545.623 634.016 374.133 290.259 325.945 263.944 262.471 223.664 235.035 177.91 161.871 156.064 147.63 146.052 144.139 141.716 187.977 129.76 129.629 125.225 175.704 124.686 130.605 122.351 119.981 117.357
threshold=73.500000000000014 4.3076643578490659 2.9467335964910286 116.50000000000001 68.500000000000014 61.500000000000007 75.500000000000014 57.500000000000007 68.500000000000014 66.500000000000014 70.500000000000014 0.079150212780142101 81.500000000000014 0.19837683788952024 -0.0073023033589260412 118.39666666666669 107.50000000000001 3.0252235910995959 -1.0666785186205282e-05 65.500000000000014 62.500000000000007 68.500000000000014 79.500000000000014 94.018333333333345 129.50000000000003 90.500000000000014 11.176842127688161 4.8129614290597227e-17 31.500000000000004 114.50000000000001
decision_type=10 10 10 10 8 10 8 10 10 2 10 8 10 10 8 10 8 10 8 10 10 10 10 10 10 10 10 8 10 10
left_child=2 9 4 6 5 -1 22 -4 -9 10 -2 12 23 -6 29 -12 18 -10 -5 20 27 -20 -3 -8 -25 -13 -27 -7 -16 -14
right_child=1 3 7 16 13 19 11 8 17 -11 15 25 14 -15 28 -17 -18 -19 21 -21 -22 -23 -24 24 -26 26 -28 -29 -30 -31
leaf_value=-0.0038089914569723647 -0.018629573065935129 -0.0091231423797725579 0.016343430628329127 0.03219825963459113 -0.012175984493516182 -0.0028043592229366442 -0.00050049729328371874 0.039809826399327918 0.01258912353313027 0.024192218071617814 -0.040091046781684674 0.016534186157952508 0.037978433238137349 0.011137269842305788 -0.019054287688820799 0.011650143540180071 0.064447582611010759 0.0318068677007367 0.022082698512627216 0.018088608219658599 0.044732190900717339 -0.0086072835421007812 -0.032343890489282441 0.091825163958489872 0.010542113618458011 0.16657070368828253 -0.011589730182323298 0.02964104653492244 0.0036508397386233148 -0.028027225188849883
leaf_weight=2125.6967087611556 1775.8797628730536 797.46712745726109 3310.7419526278973 734.42132730036974 2361.4799484610558 391.18082094937563 2177.8923273086548 6907.9085001796484 2058.6396139189601 182.12302576750517 10597.671647928655 533.76321561262012 240.33298607170582 1252.3173028156161 4903.1954274065793 147.76948837935925 157.34103026241064 1902.1397474780679 613.17977137863636 2124.2363570705056 1955.9089892208576 785.7944951467216 2439.851372435689 90.426408812403679 251.10871932655573 28.956425368785858 15.954654157161711 1129.6705563217402 660.17967043071985 93.556873127818108
leaf_count=19725 22876 8323 22337 5176 23797 2254 20411 35361 15307 1162 181012 4830 1940 11556 59252 1347 822 12712 3988 13107 9215 8117 33749 822 2277 205 131 6428 6386 753
internal_value=-0.000146167 -0.020518 0.0215883 -0.00735448 0.0119396 0.0194401 -0.0120478 0.0293051 0.0332533 -0.0355674 -0.0364366 -0.00680206 -0.00886937 -0.00409706 -0.0143306 -0.0393795 0.017708 0.0218183 0.0142609 0.0282636 0.0344803 0.00484434 -0.0266238 0.00391383 0.032063 0.0232665 0.103279 0.0212957 -0.01636 0.0194835
internal_weight=52746.8 27226.9 25519.9 14523.4 11340.5 7726.69 12232.7 14179.4 10868.7 12703.4 12521.3 8995.37 8416.69 3613.8 5897.26 10745.4 2290.74 3960.78 2133.4 5601 3476.76 1398.97 3237.32 2519.43 341.535 578.674 44.9111 1520.85 5563.38 333.89
internal_count=535378 363579 171799 157182 86082 50729 139079 85717 63380 206397 205235 97007 91841 35353 68331 182359 18103 28019 17281 31004 17897 12105 42072 23510 3099 5166 336 8682 65638 2693
is_linear=0
shrinkage=0.05


Tree=17
num_leaves=31
num_cat=0
split_feature=18 20 20 18 18 18 4 18 22 26 18 20 18 2 6 18 1 19 19 22 24 3 18 0 1 19 14 20 3 10
split_gain=8466.91 2059.48 678.465 618.872 372.928 503.822 350.951 281.6 357.758 248.364 261.403 240.849 209.582 203.545 202.466 182.445 182.286 157.783 136.31 149.276 129.463 136.531 124.193 122.995 121.804 117.788 120.011 117.011 111.902 111.823
threshold=73.500000000000014 4.3076643578490659 1.6608766089003242 116.50000000000001 69.500000000000014 57.500000000000007 75.500000000000014 68.500000000000014 63.500000000000007 66.500000000000014 78.500000000000014 3.7871419877831447 77.500000000000014 10.931527289761338 0.026714074600829099 65.500000000000014 67.851666666666674 118.39666666666669 80.685000000000016 184.50000000000003 -0.015349392771030602 67.500000000000014 79.500000000000014 80.500000000000014 127.50333333333334 66.13833333333335 -5.4999999999999991 2.4839261037133946 6.5000000000000009 92.913604465709739
decision_type=10 10 10 10 10 10 8 10 10 2 10 10 10 10 10 10 8 10 10 10 10 10 10 10 10 10 8 10 10 10
left_child=2 9 7 6 5 -4 22 8 13 10 27 24 -8 -1 25 -10 28 -12 19 -5 21 -18 -3 -20 -6 -14 -27 -2 -7 -24
right_child=1 3 4 18 11 16 12 -9 15 -11 17 -13 14 -15 -16 -17 20 -19 23 -21 -22 -23 29 -25 -26 26 -28 -29 -30 -31
leaf_value=-0.0049275756724663769 -0.032007954679253853 -0.0087305599005994879 0.013338809955529629 0.0076729406462802893 -0.0020054103090621071 0.086670320530033332 0.01132904467381747 -0.018796629766838501 0.037734680442208457 0.022644948870949547 -0.040902656207903641 0.022320148335389711 0.016200726116735967 0.06577497728888175 0.0033938592117637462 0.0086476632024178324 0.049420802433251809 0.010969822490985968 -0.0033664644208902745 0.061774865758243841 0.045892780377916963 0.027236881525488546 0.13865276799812284 0.022868242005447938 0.16200051006798438 0.030007596371818157 -0.01785996554715823 -0.012425070295925614 0.024405623295481994 -0.03228886144710516
leaf_weight=2537.4992377310991 1693.4205077923834 791.80805588141084 4107.8269206434488 219.53111623972654 1969.0646068975329 73.44425156712532 1390.7337862849236 1003.6933776065707 1251.5898441970348 184.76804008334875 8898.9238548725843 2480.7914289310575 288.77414163947105 106.05003637075424 2101.1162184290588 947.02005287259817 904.78563369810581 149.0530526638031 871.10614717379212 304.12853395193815 3298.112514950335 2971.1358693316579 9.6058805957436544 917.12680157646537 11.386387817561625 134.44333913549781 5028.0580129958689 1388.0534218214452 4125.7214374691248 2364.705275259912
leaf_count=22993 26678 8323 28257 1465 18182 377 11916 11699 6106 1162 159521 17402 2385 1014 21120 6207 4624 1347 7670 1566 17258 15376 77 7402 77 1046 60540 17689 22227 33672
internal_value=-0.000154292 -0.0198705 0.0202861 -0.00704687 0.0246771 0.0283475 -0.0115727 0.00530693 0.0103032 -0.0348881 -0.0357645 0.01194 -0.00650798 -0.00209123 -0.00979258 0.0252059 0.0337685 -0.0400481 0.0166584 0.039094 0.0386114 0.0324154 -0.0258786 0.0100885 -0.00106248 -0.0148751 -0.0166134 -0.0231868 0.0254946 -0.0315973
internal_weight=52523.5 26735.4 25788.1 14421.1 19942.3 15481 12109.2 5845.85 4842.16 12314.2 12129.5 4461.24 8943.13 2643.55 7552.39 2198.61 11373.2 9047.98 2311.89 523.66 7174.03 3875.92 3166.12 1788.23 1980.45 5451.28 5162.5 3081.47 4199.17 2374.31
internal_count=535378 363579 171799 157182 123780 88119 139079 48019 36320 206397 205235 35661 97007 24007 85091 12313 59862 160868 18103 3031 37258 20000 42072 15072 18259 63971 61586 44367 22604 33749
is_linear=0
shrinkage=0.05


Tree=18
num_leaves=31
num_cat=0
split_feature=18 20 20 18 18 18 18 4 18 8 18 18 2 18 1 19 15 23 4 15 3 18 17 15 20 23 2 6 20 10
split_gain=7676.28 1964.32 604.396 560.697 475.271 505.988 313.442 274.748 239.973 235.592 253.09 223.206 193.351 172.57 161.435 161.35 155.11 169.228 143.013 141.382 178.15 120.435 139.213 148.262 111.998 110.036 107.897 106.274 103.61 103.234
threshold=73.500000000000014 4.3076643578490659 3.2399676828902857 111.50000000000001 69.500000000000014 59.500000000000007 78.500000000000014 75.500000000000014 42.500000000000007 200.50000000000003 78.500000000000014 65.500000000000014 2.0570137470467098 70.500000000000014 43.550000000000004 118.39666666666669 -0.0073023033589260412 27.500000000000004 118.50000000000001 -3.2288057095178995e-16 107.50000000000001 9.5000000000000018 10.500000000000002 -0.0022030244780496277 2.4839261037133946 -1.4999999999999998 10.33237080106756 0.020009555661729777 1.0222524144929841 93.380839694656501
decision_type=10 10 10 10 8 10 10 8 10 2 10 10 8 10 8 10 8 10 10 8 10 10 2 10 10 10 10 10 10 10
left_child=2 9 4 6 5 21 -3 29 -4 10 24 -7 -6 25 -9 27 -16 -18 28 -5 -21 26 -23 -24 -2 -10 -1 -12 -13 -8
right_child=1 3 8 19 12 11 7 14 13 -11 15 18 -14 -15 16 -17 17 -19 -20 20 -22 22 23 -25 -26 -27 -28 -29 -30 -31
leaf_value=-0.018831086903226518 -0.031251947518333767 0.0044399171440446302 0.0086071245660841091 0.028231576597406518 -0.017039471840508202 0.033481806343354931 0.16007351814067103 0.16809514014082783 0.028051833571120111 0.032171359932241704 -0.04189434158635609 -0.013355126300960538 0.0073451989083497485 0.016107843468982527 0.02029182000619421 0.012336467336276271 -0.016411161530471462 0.0064717365155730795 0.056777635798074925 0.0014700404207731803 0.073888201996626809 0.0042553036862736891 -0.0081226413417056793 0.13219023770805857 -0.011910782019680906 0.039430326145557054 0.037946479803345159 -0.02270293107842666 0.015622038712275908 -0.031374922001090676
leaf_weight=983.76504388451576 1646.6877076514065 2382.9489919543266 1663.6980816498399 996.80729453265667 1685.9564501047134 3380.7989368438721 7.0629094764590254 12.581622086465357 6582.5802453309298 132.1900559514761 7847.2961091212928 351.25784260034561 1569.8921400457621 2162.5547439604998 370.149384111166 149.06307448446751 5422.9939744248986 949.41458062082529 190.91357136517763 1782.567470241338 89.17220114171505 1628.3771912455559 32.572407327592373 44.612816460430622 1372.208925537765 3137.459199115634 91.453553967177868 794.38794526457787 2533.1678055822849 2310.54124796018
leaf_count=11183 26651 21778 11994 7206 18304 16376 56 106 34961 935 145788 2718 14131 15960 2925 1324 65414 9160 1084 16499 472 11084 213 295 17666 16476 947 14033 16073 33566
internal_value=-0.000160984 -0.0192326 0.0190769 -0.00674794 0.0111446 0.0169347 -0.0116981 -0.0159367 0.0263923 -0.0342081 -0.0349511 0.0246149 -0.00528177 0.0288825 -0.0108402 -0.0392405 -0.0111741 -0.0130019 0.0148672 0.0130208 0.00492014 -0.000896504 0.00736534 0.0729778 -0.0224606 0.0317246 -0.0140018 -0.0401302 0.0120933 -0.0307915
internal_weight=52305.1 26266.1 26039.1 14324.2 12492.8 9236.92 11455.7 9072.74 13546.3 11941.8 11809.6 6456.14 3255.85 11882.6 6755.14 8790.75 6742.56 6372.41 3075.34 2868.55 1871.74 2780.78 1705.56 77.1852 3018.9 9720.04 1075.22 8641.68 2884.43 2317.6
internal_count=535378 363579 171799 157182 92408 59973 133005 111227 79391 206397 205462 36251 32435 67397 77605 161145 77499 74574 19875 24177 16971 23722 11592 508 44317 51437 12130 159821 18791 33622
is_linear=0
shrinkage=0.05


Tree=19
num_leaves=31
num_cat=0
split_feature=18 20 18 18 18 20 18 4 21 25 18 6 20 21 19 20 16 19 5 18 10 0 21 24 6 20 19 14 20 16
split_gain=6962.18 1872.5 535.115 576.327 517.32 441.431 390.033 325.788 223.782 237.33 189.604 187.332 153.508 151.959 141.422 137.87 120.941 120.476 116.211 114.006 116.36 112.994 115.597 146.987 111.608 134.009 106.34 109.383 106.317 133.603
threshold=73.500000000000014 4.1845794956550195 9.5000000000000018 67.500000000000014 116.50000000000001 3.8173980376033203 62.500000000000007 75.500000000000014 70.500000000000014 0.22166666666666671 77.500000000000014 0.026714074600829099 1.4011106704538221 24.500000000000004 118.39666666666669 0.87286246764912834 0.075000000000000011 80.685000000000016 10.500000000000002 79.500000000000014 92.195122265122279 67.500000000000014 10.500000000000002 0.46763541817131304 -0.02250791675463058 4.8193838924835388 66.13833333333335 -5.4999999999999991 16.080990643825508 0.12833333333333338
decision_type=10 10 10 10 10 10 10 8 10 2 10 10 10 10 10 10 2 10 10 10 10 10 10 10 8 8 10 8 10 2
left_child=2 8 24 6 7 12 13 19 -2 14 -9 26 -5 28 -10 -15 -8 18 -6 -3 -21 -19 -23 -24 -1 -26 -12 -28 29 -4
right_child=1 4 3 5 17 -7 16 10 9 -11 11 -13 -14 15 -16 -17 -18 21 -20 20 -22 22 23 -25 25 -27 27 -29 -30 -31
leaf_value=0.01932873903001895 -0.016510912263037674 -0.0085991003680518981 0.0097461802013795971 -0.019491335822165605 0.047599259588583402 0.022461024326732613 0.033400010694739891 0.010527049838460568 -0.038558110819501577 0.019652362995719999 0.015157448139741375 0.0033981901244179028 0.0039691366788463843 -0.020239251570641898 0.010961756554391355 0.016833665953876278 0.074884681171357395 -0.014161865993098849 -0.0094795031569733911 0.15719033853739717 -0.031088097061476434 -0.032355055656300535 0.014206998400154346 0.071574936235737227 -0.020274610730458179 0.003064846219577296 0.027588851898913632 -0.016998968193515734 0.052661639991164279 0.12121337514371336
leaf_weight=549.86402707546949 1596.159578345716 806.81311200931668 365.88761686533689 863.89836750924587 422.72433049976826 3894.2578083500266 7497.2275274246931 1446.6453956142068 9380.1491867080331 183.22971973568201 293.5297883450985 2117.9625957719982 3614.9090836718678 262.00366641581059 146.428481310606 5854.7487724944949 179.90150353312492 420.04276425391436 113.01423121988773 8.2354439795017225 2311.3340656682849 116.20271303504705 1161.9157157093287 123.52564845234156 966.17954021692276 1692.1833411902189 141.41585404425859 5030.1000967398286 498.83110280334949 29.013674035668373
leaf_count=4741 21795 8604 2385 9822 2255 24593 36021 12374 177524 1133 2390 21476 30332 1777 1297 33834 810 3735 777 57 34887 749 9995 685 10974 13453 1069 62777 2879 178
internal_value=-0.000166579 -0.0186048 0.0179562 0.020618 -0.00672049 0.010149 0.026586 -0.0108776 -0.0338608 -0.0367129 -0.00606111 -0.00922571 -0.000556055 0.0180596 -0.037797 0.0152457 0.0343721 0.0147154 0.0355585 -0.0247885 -0.0304196 0.00858564 0.0154026 0.0197198 -0.00117649 -0.00541786 -0.0141181 -0.0157797 0.0373178 0.0179358
internal_weight=52088.3 25819.4 26268.9 23060.7 14513.5 8373.07 14687.6 12156 11306 9709.81 9029.65 7583.01 4478.81 7010.48 9526.58 6116.75 7677.13 2357.43 535.739 3126.38 2319.57 1821.69 1401.64 1285.44 3208.23 2658.36 5465.05 5171.52 893.732 394.901
internal_count=535378 363579 171799 142631 161830 64747 77884 143634 201749 179954 100086 87712 40154 41053 178821 35611 36831 18196 3032 43548 34944 15164 11429 10680 29168 24427 66236 63846 5442 2563
is_linear=0
shrinkage=0.05


Tree=20
num_leaves=31
num_cat=0
split_feature=21 20 15 1 21 2 19 21 0 22 19 22 3 20 19 22 21 20 3 25 21 2 16 2 19 22 23 20 24 22
split_gain=6172.71 1009.08 368.643 340.873 285.174 267.938 246.307 237.961 229.636 219.834 262.423 243.852 211.15 164.889 211.076 191.231 153.266 146.652 145.973 137.168 132.05 131.965 149.505 131.672 124.031 131.942 120.072 119.342 129.046 116.78
threshold=68.500000000000014 3.8510056405356203 -0.0013369037433750178 67.851666666666674 76.500000000000014 1.6117623204392399 118.39666666666669 41.500000000000007 80.500000000000014 275.50000000000006 66.39500000000001 64.500000000000014 6.5000000000000009 55.615493244925261 75.098333333333343 20.500000000000004 66.500000000000014 11.816325802301739 108.50000000000001 0.69166666666666676 75.500000000000014 1.8556744797270361 0.091666666666666688 6.4637944652415458 103.24833333333335 201.50000000000003 -2.4999999999999996 1.5621566287917557 0.012427915865732166 103.50000000000001
decision_type=10 10 8 10 10 8 10 10 8 10 10 10 8 10 10 8 10 10 10 2 10 10 2 10 10 8 10 10 10 10
left_child=3 4 29 12 27 -4 19 17 20 10 11 23 -1 14 15 -14 -17 21 -12 -6 26 -5 -23 -9 -10 -26 -7 -2 -29 -3
right_child=1 2 5 7 6 8 -8 9 24 -11 18 -13 13 -15 -16 16 -18 -19 -20 -21 -22 22 -24 -25 25 -27 -28 28 -30 -31
leaf_value=0.050659147494104988 -0.036535666878198807 -0.013827275368715274 -0.032867402131542024 -0.019750885338873023 -0.042059735006901355 0.0084178098826308868 0.02244185117507198 0.0076464487769381173 -0.0054602822611656641 0.059874327443764946 0.013013930378070738 0.034740918861644952 -0.01831583757465613 0.032901500163403929 -0.010501223325796749 0.011745182837405978 -0.012340280827325837 0.015158056916101581 0.044163365280090065 0.022176417553771921 -0.024179642160724837 0.0026654475947914947 0.068949475374845956 0.080279421333392054 0.029695250252627588 -0.023389292732753413 -0.020415303738702401 -0.011837276634643665 -0.035766536554266967 0.018999110406849554
leaf_weight=264.79795975238085 1145.5090685710311 347.66411692649126 1620.0124549381435 690.37105920910835 6014.4921443872154 758.92926451563835 156.05774391442537 1401.7007252126932 1629.1753996275365 347.2780589684844 8600.12380085513 3963.9415012821555 663.52890897542238 523.32045828551054 1999.5229116976261 7413.323760278523 725.11106772348285 3170.895996414125 393.30954319238663 84.270427614450455 2571.0423398911953 1420.5015932843089 90.48963475227356 65.304472595453262 593.75152437761426 145.79693349450827 688.77975380793214 2328.9750837534666 743.20397891849279 1227.5761603824794
leaf_count=1869 19028 4109 23337 5815 120542 6943 1279 8841 19964 2022 63659 20763 7346 3297 18335 48362 7075 22193 2363 485 36011 12142 716 381 6531 1534 9489 35418 13733 11041
internal_value=-0.000367422 -0.0220812 -0.0103566 0.0133554 -0.0328097 -0.0147062 -0.039585 0.0172861 -0.0101001 0.0205634 0.019617 0.0282955 0.00652349 0.00549151 0.00416352 0.00749488 0.00959924 0.00827486 0.0143762 -0.0411721 -0.0173785 -0.00163987 0.00663504 0.0108797 0.00224836 0.01923 -0.00530018 -0.0227619 -0.0176261 0.0117541
internal_weight=51788.8 20055.2 9582.73 31733.5 10472.5 8007.49 6254.82 20143.9 6387.48 14771.7 14424.4 5430.95 11589.6 11324.8 10801.5 8801.96 8138.43 5372.26 8993.43 6098.76 4018.75 2201.36 1510.99 1467.01 2368.72 739.548 1447.71 4217.69 3072.18 1575.24
internal_count=534623 309444 118959 225179 190485 103809 122306 138895 80472 98029 96007 29985 86284 84415 81118 62783 55437 40866 66022 121027 52443 18673 12858 9222 28029 8065 16432 68179 49151 15150
is_linear=0
shrinkage=0.05


Tree=21
num_leaves=31
num_cat=0
split_feature=18 20 18 20 18 22 18 6 12 18 0 18 18 18 18 22 2 22 17 18 22 20 12 2 19 2 20 2 12 12
split_gain=5791.94 1640.62 445.855 444.66 369.669 407.12 276.638 243.562 230.747 189.09 184.087 179.469 177.987 197.219 148.297 136.118 129.547 123.919 123.381 116.181 112.549 111.123 108.82 108.708 117.913 168.43 106.173 103.403 102.658 99.8205
threshold=73.500000000000014 4.2652445546536422 111.50000000000001 3.3847492931414425 69.500000000000014 61.500000000000007 81.500000000000014 0.017746863854043015 96.500000000000014 80.500000000000014 86.500000000000014 125.50000000000001 57.500000000000007 70.500000000000014 65.500000000000014 135.50000000000003 2.6550109855372508 -12.499999999999998 17.500000000000004 61.500000000000007 109.50000000000001 1.0480749548269441 88.500000000000014 10.931527289761338 17.626666666666669 1.2978935925388229 2.9223696622253805 2.7144295268189365 88.500000000000014 81.500000000000014
decision_type=10 10 10 10 10 10 10 8 8 10 8 10 10 10 10 10 10 10 2 10 10 10 10 10 8 8 10 8 8 8
left_child=3 7 6 4 5 23 27 9 -8 26 16 22 17 -14 19 18 -10 -5 -4 -7 -9 -16 -11 24 -1 -26 -2 -3 -20 -25
right_child=1 2 15 12 -6 14 8 20 10 11 -12 -13 13 -15 21 -17 -18 -19 28 -21 -22 -23 -24 29 25 -27 -28 -29 -30 -31
leaf_value=-0.017821506565188949 -0.031021412942600565 -0.009497831644032572 -0.0089449756091608944 0.12499356681009358 -0.0083056938724845666 0.013790278930628085 0.0037503304855245286 -0.016681896975278689 -0.035243756852072643 -0.00050060079494580626 -0.0047674993831333346 0.038518359637748995 0.029144722939454568 0.01207253107726677 -0.013266621292386264 0.018681147096401785 -0.018497387024999364 0.011339592000897854 0.1360333477163225 0.031449037333251814 0.030267144095107862 0.015043524764899108 -0.042055873032064234 0.17045672832893399 -0.016898471310049956 0.013420744475435771 -0.011493464419392412 0.0076446388382866342 0.002930371067336767 0.027997008278994109
leaf_weight=987.68569265305996 2418.3622474335134 1511.5074210204184 897.41955681890249 24.160339459776878 2420.9572629407048 1372.0025302320719 1208.8219952844083 1050.2823354527354 1836.9635897688568 161.77390268445015 1509.3823197558522 71.837358318269253 8022.4529598802328 2143.6745546907187 394.10234210640192 1940.1174332462251 3110.077541988343 3270.9709850251675 27.630919180810452 2900.6926592737436 145.31338906660676 2877.2592315301299 6022.4736513197422 13.752290971577166 690.74715666472912 1359.8005640879273 977.34999841824174 2104.4792094230652 30.451209887862206 116.14551513642073
leaf_count=11533 42872 16254 9659 186 25318 7648 12293 18564 28104 2259 17881 559 40019 15264 3005 13976 40138 20982 176 13096 2066 17516 124188 117 5390 10568 14054 19630 262 1046
internal_value=-0.000361128 -0.0176272 -0.00642852 0.0158855 0.00933996 0.0133279 -0.0109208 -0.0322631 -0.0162985 -0.0349001 -0.0200522 -0.0400561 0.0222716 0.0255448 0.0196446 0.0110733 -0.0247157 0.0121729 -0.00437408 0.0257786 -0.0109757 0.011633 -0.0409688 -0.00171369 -0.00362878 0.00320742 -0.0254009 0.000478968 0.0662503 0.0430792
internal_weight=51618.6 25024.2 14176.9 26594.4 13133.1 10712.2 11281.2 10847.4 7665.25 9651.8 6456.42 6256.08 13461.3 10166.1 7544.06 2895.62 4947.04 3295.13 955.502 4272.7 1195.6 3271.36 6184.25 3168.13 3038.23 2050.55 3395.71 3615.99 58.0821 129.898
internal_count=534623 362935 158373 171688 95237 69919 134300 204562 98416 183932 86123 127006 76451 55283 41265 24073 68242 21168 10097 20744 20630 20521 126447 28654 27491 15958 56926 35884 438 1163
is_linear=0
shrinkage=0.05


Tree=22
num_leaves=31
num_cat=0
split_feature=21 20 12 1 2 1 21 22 21 21 20 23 6 22 3 0 12 3 23 23 13 21 3 4 21 4 21 22 22 2
split_gain=5200.77 950.69 463.194 290.411 237.473 202.325 184.724 220.915 183.414 228.277 176.252 171.044 157.707 154.208 141.865 139.04 126.648 123.019 124.464 119.945 119.298 155.582 118.748 147.328 117.75 118.206 153.25 117.665 154.145 130.372
threshold=69.500000000000014 3.7871419877831447 96.500000000000014 68.160479452054815 2.3361019288344642 127.50333333333334 76.500000000000014 111.50000000000001 64.500000000000014 41.500000000000007 58.651067995343489 -16.499999999999996 0.0089058767319638212 266.50000000000006 6.5000000000000009 80.500000000000014 83.500000000000014 115.50000000000001 82.500000000000014 -18.499999999999996 99.500000000000014 65.500000000000014 27.500000000000004 66.500000000000014 56.500000000000007 70.500000000000014 -61.499999999999993 20.500000000000004 71.500000000000014 0.90437209572740473
decision_type=10 10 8 10 10 10 10 10 8 10 10 8 10 10 8 10 10 10 10 10 10 8 10 10 10 8 10 8 10 8
left_child=3 6 12 10 19 8 -2 22 9 -5 14 -10 -3 -13 -1 -6 -14 18 -11 -4 -7 -22 23 -8 25 -12 -27 -16 29 -29
right_child=1 2 4 5 15 20 7 -9 11 17 24 13 16 -15 27 -17 -18 -19 -20 -21 21 -23 -24 -25 -26 26 -28 28 -30 -31
leaf_value=0.041014942613778894 -0.023941702806489096 -0.0025591749037537238 -0.0019553361301555216 0.0073730109501017665 -0.015940414891242056 -0.033778291305647828 0.25037526595035364 -0.007475368180299505 0.03364288086749416 0.020655205763217624 0.077453487844655333 0.00048219721900191704 -0.0094341563574212167 0.073260653871055806 -0.017245913571197292 0.001275166925331063 0.038457208660054004 -0.017134484372455294 0.06527435182526424 -0.032880157480555353 0.03881019559196236 0.14078445577337997 -0.042174542281969582 -0.032716452451466475 -0.0060169561840251662 0.12754806403097971 0.0036002481412440329 -0.0037334718383345115 0.00045043873444205822 0.018814173305543233
leaf_weight=254.28186358511448 3393.7672506794333 765.63664944842458 368.44093867018819 4698.2080922648311 3040.424478854984 52.729731045663357 7.7731328420341042 517.38966516032815 471.26066121459007 10466.712045922875 180.86920160055161 3974.0781761594117 173.31361281871796 74.142687655985355 659.62375263124704 1909.3730324618518 678.38965537026525 212.11438964307308 158.66329039633274 2104.6858271434903 748.87416139990091 39.370550911873579 5226.1132410988212 11.244012311100958 136.14166083186865 29.197494968771935 170.94169235229492 851.46812620013952 7434.2156317383051 2594.7755454182625
leaf_count=1780 59421 8127 4391 34945 40693 338 104 8370 2618 63499 1073 36776 1239 532 7453 22905 5711 1244 724 33174 4434 247 111937 200 879 166 1055 4948 60070 15570
internal_value=-0.000355156 -0.0218399 -0.0103381 0.0114176 -0.015621 0.0150067 -0.0331959 -0.038646 0.0139992 0.0165782 0.005326 0.00513391 0.0139083 0.00181513 0.00407329 -0.00929954 0.0287118 0.0205688 0.0213215 -0.028273 0.0390328 0.0439035 -0.0417207 0.0829954 0.033896 0.0481576 0.0216825 0.00325929 0.00450241 0.0132433
internal_weight=51404.2 18196.6 9040.26 33207.7 7422.92 20896.2 9156.29 5762.52 20055.2 15535.7 12311.5 4519.48 1617.34 4048.22 11794.4 4949.8 851.703 10837.5 10625.4 2473.13 840.974 788.245 5245.13 19.0171 517.15 381.008 200.139 11540.1 10880.5 3446.24
internal_count=534623 296272 116240 238351 101163 145357 180032 120611 140338 100412 92994 39926 15077 37308 89821 63598 6950 65467 64223 37565 5019 4681 112241 304 3173 2294 1221 88041 80588 20518
is_linear=0
shrinkage=0.05


Tree=23
num_leaves=31
num_cat=0
split_feature=18 22 21 0 18 18 11 2 19 2 18 21 13 14 6 22 18 10 9 22 6 1 0 11 1 21 25 0 1 11
split_gain=4922.82 1242.34 833.723 367.261 361.535 456.41 258.022 253.427 232.837 225.951 187.577 186.774 186.092 166.067 163.784 141.469 248.309 134.511 131.586 128.323 124.338 120.704 114.397 109.127 96.1389 95.813 98.2396 93.642 93.1877 92.3468
threshold=73.500000000000014 111.50000000000001 76.500000000000014 75.500000000000014 70.500000000000014 57.500000000000007 1.0000000180025095e-35 2.014082365935304 69.935000000000016 2.4341779355738775 67.500000000000014 69.500000000000014 99.500000000000014 -3.4999999999999996 0.11115990177668658 86.500000000000014 84.500000000000014 92.195122265122279 83.500000000000014 10.500000000000002 -0.025741174901943237 127.50333333333334 111.50000000000001 1.5989334109509146 54.581666666666671 65.500000000000014 0.45500000000000002 52.500000000000007 68.160479452054815 0.24957745878684465
decision_type=10 10 10 8 8 10 8 8 10 8 10 10 10 8 8 10 10 10 10 10 8 10 10 10 10 10 2 10 8 10
left_child=4 2 8 6 5 19 11 -6 22 10 24 -3 25 -4 21 -10 -17 18 -8 20 -1 -14 -2 -12 27 -5 -27 -7 -11 -9
right_child=1 3 13 12 7 9 17 29 15 28 23 -13 14 -15 -16 16 -18 -19 -20 -21 -22 -23 -24 -25 -26 26 -28 -29 -30 -31
leaf_value=0.026818215667688633 0.0022870788531525687 -0.0026541189735463221 0.015711072232279185 0.01004907699820359 -0.011811269887273225 0.012775838506820614 0.028330550509727267 0.0042072283576206184 -0.024587291132559874 0.020670715462562373 0.0034221986415582913 -0.034467658512546476 0.0086395322385372491 -0.038328963210760549 0.047762935504274566 0.0015755981320984915 -0.022878169705831203 0.00024417096705321506 0.20176171271444421 0.0088434713275432134 -0.016633412093126469 0.067176886567530861 0.071553654232990635 0.087628279724810687 0.022689192937196311 -0.043259985330407438 0.096848848629809012 -0.031677812697674161 0.032532553906230742 0.022385038555892488
leaf_weight=196.82115448266268 1151.9743509627879 697.16919688507915 145.08775908872485 168.23142740875483 1961.871366918087 536.21361883729696 34.715201828628778 1758.8733680397272 3810.9153773933649 2640.175437502563 2514.6068344712257 1363.9386633746326 3363.6811129003763 7057.7050000168383 316.30108528211713 1978.6359258294106 2183.9011182747781 1612.8395501822233 15.967376839369534 4517.8176903128624 1006.8735451549292 90.431075472384691 62.860891453921795 39.073400817811489 5971.229817032814 285.73708219826221 13.083991490304468 152.06174689531326 4440.6238979175687 1159.1204823926091
leaf_count=2035 10710 6649 1522 1043 19911 2702 204 14093 61798 13660 18117 20565 33505 145638 2370 25741 30476 18288 113 28938 11543 611 479 248 29030 3142 81 779 21804 8828
internal_value=-0.000347893 -0.0166332 -0.0245041 -0.000429974 0.0143981 0.0171274 -0.0118839 0.00208505 -0.01452 0.0213935 0.0162317 -0.0237067 0.00963777 -0.0372404 0.0133256 -0.0176268 -0.0112542 0.00276456 0.0829695 0.00497838 -0.00952845 0.0101721 0.00587123 0.00471062 0.0206496 -0.0201332 -0.0371253 0.00295462 0.0281097 0.011428
internal_weight=51248.5 24353.2 16391.1 7962.1 26895.4 22015.5 3724.63 4879.87 9188.29 16294 9213.19 2061.11 4237.47 7202.79 3770.41 7973.45 4162.54 1663.52 50.6826 5721.51 1203.69 3454.11 1214.84 2553.68 6659.51 467.053 298.821 688.275 7080.8 2917.99
internal_count=534623 362935 276364 86571 171688 128856 45819 42832 129204 86340 50876 27214 40752 147160 36486 118015 56217 18605 317 42516 13578 34116 11189 18365 32511 4266 3223 3481 35464 22921
is_linear=0
shrinkage=0.05


Tree=24
num_leaves=31
num_cat=0
split_feature=18 22 21 18 18 0 2 11 18 19 21 13 3 12 2 16 22 22 18 13 12 12 12 9 22 26 12 4 10 0
split_gain=4476.25 1254.09 680.753 408.717 411.129 333.727 266.458 241.964 209.037 198.065 174.051 170.563 177.465 162.935 144.891 140.927 131.951 129.486 187.719 122.837 119.345 133.164 127.651 113.452 120.969 359.093 109.044 108.164 125.607 262.853
threshold=74.500000000000014 111.50000000000001 76.500000000000014 70.500000000000014 59.500000000000007 75.500000000000014 2.1933675275338733 1.0000000180025095e-35 67.500000000000014 69.935000000000016 69.500000000000014 99.500000000000014 125.50000000000001 95.500000000000014 3.090694815679508 0.19166666666666668 10.500000000000002 86.500000000000014 84.500000000000014 97.500000000000014 97.500000000000014 83.500000000000014 85.500000000000014 99.500000000000014 -12.499999999999998 78.500000000000014 92.500000000000014 89.500000000000014 99.579962825278827 81.500000000000014
decision_type=10 10 10 8 10 8 8 8 10 10 10 10 8 10 8 2 10 10 10 10 10 10 10 10 10 2 8 10 8 10
left_child=3 2 9 4 16 7 -5 10 15 -2 -3 -7 20 27 26 -6 23 -11 -19 -9 21 -13 -23 24 25 -1 -10 28 -4 -30
right_child=1 5 13 6 8 11 -8 19 14 17 -12 12 -14 -15 -16 -17 -18 18 -20 -21 -22 22 -24 -25 -26 -27 -28 -29 29 -31
leaf_value=-0.033833366227410254 0.0050891984358646071 -0.0025115694271308549 -0.0022102697360542501 -0.010567950227991667 0.023778934942033234 -0.019878889693986938 0.010761745514120635 0.092694690097312404 0.071347823849603961 -0.025741194969744776 -0.03399737684774428 -0.0094106475812460247 0.089489398464309561 -0.038704218939847011 0.023690931851599498 0.067730044276945275 0.0091595480960292661 -0.00017922022322791587 -0.022164023397490275 0.00053954777536693692 0.00532917097709679 0.10469345364586864 0.028861249596226737 0.0068178620347322085 -0.035392432209492564 0.15057929702101949 0.0038162009116583595 -0.03090365424351274 0.044955594443569648 0.40613864533392052
leaf_weight=92.09190384298563 1036.3965055607259 660.85131352767348 182.6482232324779 2612.4389827623963 10517.210605964065 452.33844720199704 3331.2763580344617 37.001204095780849 61.031968079507351 3214.2537268698215 1306.9870694614947 220.5093753375113 73.616312384605408 6480.6983726993203 1649.5244759991765 185.60635647177696 5658.5483231022954 1775.603576194495 2142.6229681298137 1590.7653778605163 2610.528681602329 59.717874214053154 784.83552752807736 576.78289863467216 488.60832763463259 37.004965022206306 2905.3323093503714 257.55190332606435 40.047941878437996 5.7620641738176337
leaf_count=1151 9584 6360 2786 28109 49446 4210 27157 259 367 54283 20394 1469 384 139318 9193 826 34976 23703 30476 18015 27534 357 6313 6211 5846 370 20470 4201 756 99
internal_value=-0.000341767 -0.0167356 -0.0251278 0.0130301 0.0161514 -0.000444993 0.00138671 -0.0116269 0.0207054 -0.0153352 -0.0234236 0.00912429 0.0126235 -0.0366102 0.0118115 0.0245411 0.00597188 -0.018303 -0.0122013 0.00263435 0.011084 0.0251894 0.0342233 -0.00912877 -0.024019 0.0190276 0.00520564 -0.00868793 0.0163569 0.0903858
internal_weight=51048.2 22932.7 15135.6 28115.5 22171.7 7797.15 5943.72 3595.6 15318.7 8168.88 1967.84 4201.55 3749.21 6966.71 4615.89 10702.8 6853.04 7132.48 3918.23 1627.77 3675.59 1065.06 844.553 1194.49 617.705 129.097 2966.36 486.01 228.458 45.81
internal_count=534623 350501 265206 184122 128856 85295 55266 45028 80302 118046 26754 40267 36057 147160 30030 50272 48554 108462 54179 18274 35673 8139 6670 13578 7367 1521 20837 7842 3641 855
is_linear=0
shrinkage=0.05


Tree=25
num_leaves=31
num_cat=0
split_feature=21 6 23 12 21 12 1 3 21 19 24 24 19 21 4 19 12 11 21 21 1 19 19 3 0 4 12 19 4 19
split_gain=4067.68 747.826 409.543 331.603 296.701 283.213 206.271 238.924 189.966 173.425 168.273 156.681 153.466 146.675 129.601 123.127 122.577 132.608 121.009 116.68 115.795 110.088 108.811 108.792 100.581 99.4616 97.7529 96.1793 87.8286 87.6994
threshold=70.500000000000014 0.017249969444105024 -10.499999999999998 92.500000000000014 66.500000000000014 97.500000000000014 67.541666666666686 6.5000000000000009 41.500000000000007 104.14500000000001 -0.0098972210802341452 0.46763541817131304 6.9384210526315799 120.50000000000001 161.50000000000003 77.451666666666682 83.500000000000014 2.1852215891692128 75.500000000000014 81.500000000000014 71.75500000000001 115.10429824561406 74.785000000000011 70.500000000000014 67.500000000000014 98.500000000000014 89.500000000000014 106.15500000000002 78.500000000000014 88.015000000000015
decision_type=10 8 10 8 8 8 10 8 10 10 10 10 10 10 10 10 10 10 10 10 10 10 10 10 10 10 8 10 10 10
left_child=4 2 19 -4 6 16 7 12 -8 -7 14 29 -1 18 15 26 -3 21 -5 -2 -12 -18 -9 -16 -11 28 -6 -20 -15 -10
right_child=1 5 3 13 10 9 8 22 11 24 20 -13 -14 25 23 -17 17 -19 27 -21 -22 -23 -24 -25 -26 -27 -28 -29 -30 -31
leaf_value=-0.024199756034632546 0.0021746778404396613 -0.015039935783966719 0.0073841495054846711 -0.024284593260533741 0.024286116115919951 -0.018299212811363121 0.0062989787092731925 0.0070774017630247897 0.018220279984747522 -0.037142271389285844 -0.020968858794610287 0.082565390581916018 0.072810221664328212 0.11904909135645579 0.17450319611021742 0.020690365895234542 0.0082419646206933466 0.064453859116381934 -0.038773506814349962 -0.020898354993933568 0.00019584201977404555 0.057797791204728194 -0.0060641814656909598 0.030718430131460112 0.021886383194942675 0.16213619450244826 -0.0048807442168154651 -0.021901762156718962 -0.03348994577716756 0.0017485827244838334
leaf_weight=50.945281036198139 1356.679658036679 190.25328471511602 547.51708290353417 2833.8116936460137 334.39329496771097 1629.9741008207202 5083.5378036685288 7741.4744133390486 12747.774340588599 84.274288460612297 1293.1736898720264 92.231020800769329 204.07544944435358 13.190655641257761 20.152705907821655 930.38946088403463 537.88192079216242 204.93842593953013 6220.2192059531808 919.16262694448233 1291.856515571475 141.56708962470293 1977.484799079597 37.889970056712627 502.27383361384273 13.966294467449186 2038.5113216675818 977.43225269019604 33.156980641186237 862.78292105346918
leaf_count=413 16009 1463 6664 49992 2472 26486 37215 51533 76761 1170 17296 429 1223 105 138 7137 6592 1409 136904 14566 16383 1011 17119 265 5599 105 17294 15093 259 6401
internal_value=-0.00029113 -0.0209732 -0.0263951 -0.0305131 0.00936637 0.000303455 0.0114685 0.00565708 0.0145538 -0.00990941 -0.000800654 0.0176163 0.0534306 -0.0325692 0.00657548 0.00527406 0.0213682 0.0292005 -0.0330366 -0.00714401 -0.0103919 0.0185672 0.00440353 0.0806412 0.0134052 0.0451695 -0.000770506 -0.0364823 0.00992305 0.0171761
internal_weight=50913 16206.3 12915.1 10639.3 34706.7 3291.16 28760.3 9973.98 18786.3 2216.52 5946.37 13702.8 255.021 10091.8 3361.34 3303.29 1074.64 884.387 10031.5 2275.84 2585.03 679.449 9718.96 58.0427 586.548 60.3139 2372.9 7197.65 46.3476 13610.6
internal_count=535506 283427 239697 209122 252079 43730 191094 70288 120806 33255 60985 83591 1636 202458 27306 26903 10475 9012 201989 30575 33679 7603 68652 403 6769 469 19766 151997 364 83162
is_linear=0
shrinkage=0.05


Tree=26
num_leaves=31
num_cat=0
split_feature=18 22 21 18 1 18 18 23 22 19 21 22 18 12 3 6 18 21 9 18 3 18 19 18 4 19 4 21 7 21
split_gain=3854.6 956.416 866.52 326.316 314.216 264.886 221.192 201.589 187.754 154.529 152.587 152.111 275.374 146.404 145.62 145.087 141.21 141.917 126.257 142.863 117.943 111.63 114.286 109.206 108.087 107.758 100.703 97.0537 140.318 111.122
threshold=72.500000000000014 111.50000000000001 75.500000000000014 14.500000000000002 71.05711031175062 68.500000000000014 62.500000000000007 11.500000000000002 84.500000000000014 69.335000000000022 26.500000000000004 86.500000000000014 83.500000000000014 95.500000000000014 125.50000000000001 0.015008166757408448 65.500000000000014 58.500000000000007 95.500000000000014 120.50000000000001 23.000000000000004 81.500000000000014 84.64500000000001 77.500000000000014 161.50000000000003 72.558333333333351 74.500000000000014 69.500000000000014 0.63166666666666671 4.5000000000000009
decision_type=10 10 10 10 8 10 10 10 10 10 10 10 10 8 10 8 10 10 10 10 10 10 10 10 10 10 10 10 2 10
left_child=3 2 9 -1 7 6 10 18 24 -2 -5 23 -13 -4 15 27 -8 -18 19 -3 -12 22 -15 -11 -7 -19 -10 29 -29 -6
right_child=1 4 13 5 14 8 16 -9 26 11 20 12 -14 21 -16 -17 17 25 -20 -21 -22 -23 -24 -25 -26 -27 -28 28 -30 -31
leaf_value=-0.0015198194973193345 0.0045800155926011138 -0.00060862971820904688 -0.0086488242675501967 0.030721932555639805 -0.011849599108937885 -0.0014219322840854042 0.029698660634261055 0.0017407284802028117 -0.0004947172806235643 -0.01441184408601298 0.083163446455095089 0.0073948423235628731 -0.019204426974751897 -0.03282909235706765 0.078098244446527909 0.016885353374057558 0.032166806155983961 0.0078011874587675008 -0.02707003961260377 0.16025843169531728 0.0084266584806214507 -0.039326581891783972 0.00086481852008851398 -0.031260881190281517 0.058397729960876457 0.026427044276360553 0.026374371607104759 -0.0098407813463408655 0.068488001629780207 0.02201534572362368
leaf_weight=3325.280828975141 1315.2007087469101 54.514542803168297 513.70580724999309 930.21355172991753 356.64183914661407 3826.1577154733241 4574.3315401375294 1311.0949918739498 473.54422564804554 2626.9484277889132 53.232080787420273 1819.157413110137 2091.97068188712 809.21990348771214 71.564677447080612 1953.530638795346 1268.188532859087 2829.8040196150541 1660.7957066968083 18.480069912970066 6342.5787081792951 5517.0847022421658 365.27072094753385 1517.064906001091 77.033721305429935 1070.1971350163221 1322.919385060668 1853.6948280073702 58.995070029050112 755.1328994370997
leaf_count=29660 11434 462 8315 5245 2732 31637 19826 13254 3176 38064 269 21598 29795 18434 383 17122 5865 15449 24283 111 34949 126896 5978 27159 501 5136 8017 23457 377 5922
internal_value=-0.0002857 -0.0144555 -0.0213352 0.0131112 -0.000367525 0.015248 0.0183645 -0.0130537 0.00591526 -0.0113105 0.0118006 -0.013905 -0.00683248 -0.0343722 0.00728226 0.0062642 0.0233002 0.017637 -0.0242413 0.0401181 0.00904869 -0.0363469 -0.0223502 -0.02058 -0.000241326 0.0129123 0.0192917 -0.000596106 -0.00742481 0.0111519
internal_weight=50763.5 24670.1 16575.6 26093.5 8094.45 22768.2 17068.5 3044.89 5699.66 9370.34 7326.02 8055.14 3911.13 7205.28 5049.56 4978 9742.52 5168.19 1733.79 72.9946 6395.81 6691.58 1174.49 4144.01 3903.19 3900 1796.46 3024.46 1912.69 1111.77
internal_count=535506 375776 287673 159730 88103 130070 86739 38110 43331 128050 40463 116616 51393 159623 49993 49610 46276 26450 24856 573 35218 151308 24412 65223 32138 20585 11193 32488 23834 8654
is_linear=0
shrinkage=0.05


Tree=27
num_leaves=31
num_cat=0
split_feature=21 20 12 21 2 22 0 12 22 11 6 3 1 21 2 7 22 22 21 3 20 22 20 4 22 21 3 16 10 22
split_gain=3421.19 858.753 385.199 240.376 218.408 192.374 159.278 157.527 144.846 152.345 142.764 139.505 177.2 136.86 127.786 121.003 120.06 228.818 161.61 117.855 116.835 116.353 105.892 120.014 111.201 104.707 123.677 102.295 101.816 100.179
threshold=70.500000000000014 3.3550219404915356 96.500000000000014 66.500000000000014 2.2860203167680453 55.500000000000007 124.50000000000001 88.500000000000014 283.50000000000006 1.0151628216583726 -0.018951321681351618 6.5000000000000009 66.734050179211479 41.500000000000007 13.063829623869163 0.16166666666666671 201.50000000000003 122.50000000000001 75.500000000000014 81.500000000000014 11.816325802301739 61.500000000000007 55.615493244925261 60.500000000000007 80.500000000000014 74.500000000000014 107.50000000000001 0.115 98.81349896480333 138.50000000000003
decision_type=10 10 8 8 8 10 10 8 10 10 10 8 10 10 10 2 10 10 10 8 10 10 10 8 10 10 10 2 10 10
left_child=3 7 -3 5 25 -1 10 -2 11 -10 -5 14 22 20 -7 -16 17 18 -6 -20 -14 -22 24 -24 27 -4 -27 -13 -8 -9
right_child=1 2 4 6 16 8 28 29 9 -11 -12 12 13 -15 15 -17 -18 -19 19 -21 21 -23 23 -25 -26 26 -28 -29 -30 -31
leaf_value=-0.0040810700653049299 0.011950555853493784 0.011859810852592124 -0.0085467731533150904 0.012967083903223929 0.0033481619189386549 0.13419043844073131 -0.018133530495865982 -0.035132553059550251 0.041784241673026107 -0.016280744984102372 -0.0058912176986733187 0.0068722273530634611 -0.01136499486950325 0.015634449202782029 0.01867598747016154 0.12058714219614441 -0.031834579145801921 0.013270611823582962 -0.025384114634556844 0.008305892852540667 0.098520717009597567 0.0085119824742212174 0.09154506052005025 0.015137874225469226 -0.0043926148177573085 -0.033716443721171281 0.14897315915113626 0.060046730792918349 0.10318617879570152 0.0366200753209181
leaf_weight=2155.2262322306633 187.04350459203124 1695.2893155366182 588.98087103664875 1286.9999846816063 1048.9672527723014 35.834118522703648 24.428926676511765 6446.1012584865093 682.13129303604364 135.38418835401535 4557.2388904429972 5030.865432754159 853.1097068041563 13595.862315930426 207.25699586421251 33.889545515179634 493.85407346859574 1152.9360277950764 1834.0950733684003 302.38808432966471 36.343893736600876 2970.0796120129526 70.39060116559267 190.42097891867161 2923.8095050603151 1819.7139652296901 9.3114962391555292 92.101589806377888 59.211374547332525 49.015193536877632
leaf_count=20663 2453 16563 8103 10641 13819 223 188 151237 3959 731 49680 29422 5609 81817 1277 183 5975 13262 31794 4821 198 20335 383 1199 24613 34894 153 482 476 353
