tree
version=v4
num_class=1
num_tree_per_iteration=1
label_index=0
max_feature_idx=90
objective=binary sigmoid:1
feature_names=emb_000 emb_001 emb_002 emb_003 emb_004 emb_005 emb_006 emb_007 emb_008 emb_009 emb_010 emb_011 emb_012 emb_013 emb_014 emb_015 emb_016 emb_017 emb_018 emb_019 emb_020 emb_021 emb_022 emb_023 emb_024 emb_025 emb_026 emb_027 emb_028 emb_029 emb_030 emb_031 emb_032 emb_033 emb_034 emb_035 emb_036 emb_037 emb_038 emb_039 emb_040 emb_041 emb_042 emb_043 emb_044 emb_045 emb_046 emb_047 emb_048 emb_049 emb_050 emb_051 emb_052 emb_053 emb_054 emb_055 emb_056 emb_057 emb_058 emb_059 emb_060 emb_061 emb_062 emb_063 hr_last hr_mean hr_std hr_min hr_max hr_delta hr_slope hr_missing_frac hr_max_missing_run spo2_last spo2_mean spo2_std spo2_min spo2_max spo2_delta spo2_slope spo2_missing_frac spo2_max_missing_run map_last map_mean map_std map_min map_max map_delta map_slope map_missing_frac map_max_missing_run
feature_infos=[0:3.8498344421386719] [0:2.6705803871154785] [0:3.7941043376922607] [0:4.6420097351074219] [0:6.6678709983825684] [0:6.9577293395996094] [0:0.86826574802398682] [0:3.4999685287475586] [0:16.457614898681641] [0:2.9269180297851562] [0:1.2799122333526611] [0:1.9232685565948486] [0:3.3585202693939209] [0:1.9094712734222412] [0:5.6469898223876953] [0:3.6634273529052734] [0:18.234725952148438] [0:1.198265552520752] [0:1.7745829820632935] [0:1.7342783212661743] [0:1.2879822254180908] [0:1.4096722602844238] [0:5.3229537010192871] [0:2.4420065879821777] [0:6.3429403305053711] [0:12.147631645202637] [0:3.6309633255004883] [0:1.5743656158447266] [0:2.3367478847503662] [0:1.7668443918228149] [0:3.502755880355835] [0:2.5430092811584473] [0:2.7517380714416504] [0:5.4954967498779297] [0:2.5527205467224121] [0:3.9295539855957031] [0:1.9918457269668579] [0:2.2731688022613525] [0:1.9420249462127686] [0:2.0390362739562988] [0:2.9198160171508789] [0:9.3432931900024414] [0:2.221362829208374] [0:4.2296037673950195] [0:2.9884397983551025] [0:8.4883241653442383] [0:1.5281991958618164] [0:1.8981180191040039] [0:6.5058660507202148] [0:8.7939958572387695] [0:5.6083059310913086] [0:1.694810152053833] [0:2.8325245380401611] [0:2.9165248870849609] [0:2.1654596328735352] [0:0.78772354125976562] [0:8.1318731307983398] [0:3.4585962295532227] [0:1.2765358686447144] [0:0.9342847466468811] [0:1.8887935876846313] [0:1.6937369108200073] [0:0.95981109142303467] [0:14.051374435424805] [0:300] [18.493333333333332:141.83333333333334] [0:55.780779146783367] [0:130] [44:306] [-238:247] [-0.59943847957546736:1.2934782608695654] [0:1] [0:300] [45:100] [50:100] [0:23.242522319016928] [45:100] [50:100] [-50:46] [-1.1437908496732014:0.38235294117647167] [0:1] [0:300] [-88:346] [-65:307] [0:171.45099321001999] [-88:307] [-65:347] [-296:403] [-62.400000000000027:19.392551892551896] [0:1] [0:300]
tree_sizes=6680 6821 6791 6807 6826 6840 6830 6840 6841

Tree=0
num_leaves=63
num_cat=0
split_feature=30 41 30 53 60 23 11 40 40 16 60 59 87 44 63 85 26 37 46 63 15 19 70 84 45 35 23 68 20 50 11 16 40 37 48 76 52 60 50 15 63 11 85 0 7 65 60 66 56 37 26 56 84 40 84 87 37 0 46 37 60 63
split_gain=8829.33 2050.18 824.334 608.797 438.412 354.359 343.135 282.388 250.359 235.395 252.16 230.158 213.226 180.713 170.368 184.777 213.705 163.117 220.324 181.313 162.089 153.132 130.156 129.501 222.348 177.624 129.037 167.162 127.362 192.227 124.363 123.525 170.674 114.944 112.788 112.257 111.189 146.659 151.593 129.471 110.986 214.52 106.754 102.896 118.957 102.779 96.9889 96.9441 96.6641 127.721 94.1731 87.182 93.217 84.6738 283.48 114.227 108.603 82.9865 101.284 82.2197 81.5969 81.1683
threshold=1.1165374517440798 1.208790183067322 0.50006052851676952 1.8020854592323305 1.2702259421348574 1.5042381882667544 1.654387950897217 0.2303460240364075 0.18815684318542483 5.2027857303619394 0.68985044956207286 0.063946262001991286 -15.499999999999998 0.93086376786232006 2.5992710590362553 63.500000000000007 0.92221826314926159 0.76401448249816906 0.61004561185836803 1.0089192390441897 2.6798982620239262 1.35486775636673 -0.005482505361170547 2.1795667253978279 3.5762848854064946 2.6030014753341679 1.6809468269348147 80.500000000000014 0.5135990083217622 1.1977421045303347 1.2416220903396609 2.3848369121551518 2.3408635854721074 1.9382840394973757 0.56727588176727306 98.500000000000014 1.490267872810364 1.1356762647628786 1.7030057907104494 1.886250972747803 1.0089192390441897 0.18454676866531375 69.500000000000014 0.94309794902801525 1.6939656138420107 79.760681818181837 1.3892044425010683 2.2380596754971629 2.4189097881317143 1.4010237455368044 0.98695167899131786 2.1220103502273564 2.9273006145119274 0.70544773340225231 1.0306524362403759 -1.4999999999999998 0.93328937888145458 1.4875844717025759 1.3605331182479861 0.11306223273277284 0.70294782519340526 1.2170099616050722
decision_type=2 2 2 2 2 2 2 2 2 2 2 2 10 2 2 10 2 2 2 2 2 2 10 8 2 2 2 10 2 2 2 2 2 2 2 10 2 2 2 2 2 2 8 2 2 10 2 10 2 2 2 2 10 2 10 10 2 2 2 2 2 2
left_child=1 17 8 6 5 23 12 35 11 31 -11 -3 48 -14 15 16 34 42 -19 22 46 -8 -20 59 25 40 27 -18 -7 -30 -15 -5 33 -33 -10 -6 37 -29 -39 -38 41 -25 -1 44 60 57 61 50 49 -2 -13 52 -47 55 -55 -17 -56 58 -43 -4 -35 -9
right_child=3 2 4 9 7 28 21 20 14 10 -12 47 13 30 -16 53 26 18 19 -21 -22 -23 -24 24 -26 -27 -28 36 29 -31 -32 32 -34 43 -36 -37 39 38 -40 -41 -42 45 -44 -45 -46 51 -48 -49 -50 -51 -52 -53 -54 54 56 -57 -58 -59 -60 -61 -62 -63
leaf_value=-1.966598687110314 -1.9162320723736779 -1.939803322949726 -1.9775834437415478 -2.0164534144714623 -1.8149894670219764 -1.8961637715360149 -1.9065809547767072 -1.8316331200049083 -1.7438163769949586 -1.9765094876902307 -1.689964588748226 -1.9216555110520692 -1.9954923354107337 -1.9684396729510032 -1.9919504446951424 -1.8435081913000406 -1.7026553884682682 -1.9734712382647357 -1.6671874444745682 -1.9450992751490872 -1.9671297972695072 -1.6728247489432628 -1.858051810535168 -1.9559050886024278 -1.9746110011689719 -1.735076865131931 -1.6796007947493461 -1.94272360864831 -1.9069238752387594 -1.7530655525980585 -1.887689252196965 -2.0033407140170221 -1.8048961075578769 -2.0049107182040533 -1.851849441668026 -1.940396851286303 -1.612060576530532 -1.7658936209585137 -1.8892060897842873 -1.8384469454727195 -1.9372700313887914 -1.876570347417762 -2.0165145307642129 -2.0182856395583526 -1.7727812222200723 -1.9418467983020851 -1.7906256154131022 -1.7182759110987833 -1.9545677868858657 -1.7383900087325974 -1.800686726412658 -1.9502539098929768 -1.7756345425292221 -1.5954515276752803 -1.9129285258914288 -1.9966699373757693 -1.7356145042460476 -1.7145669285563778 -1.7182538338217452 -1.8500606970586264 -1.8356872421255732 -1.9267688093852962
leaf_weight=296.52348130941391 50.909476101398468 79.324067413806915 153.15895241498947 3295.5544371008873 21.741467595100403 71.036478281021118 16.14465415477753 157.03366941213608 29.060377478599548 23.033039927482605 11.516519963741301 26.800125896930695 1263.2653720974922 418.25417363643646 12.377568185329435 27.661174118518829 57.367337763309479 108.27681386470795 14.422557711601256 33.473249614238739 20.12700217962265 12.377568185329435 23.463564038276672 64.363354563713074 121.83832335472107 16.252285182476044 40.038742303848267 20.234633207321167 31.105367004871368 58.443648040294647 53.815513849258423 778.92574745416641 11.624150991439818 20.665157318115238 143.25689786672592 99.558700621128082 15.283605933189394 95.791614651679993 33.688511669635773 10.763102769851683 147.13161486387253 39.608218193054199 167.68914115428925 25.078029453754425 14.314926683902739 13.346247434616087 146.37819766998291 17.974381625652313 149.93002158403397 12.592830240726469 40.2540043592453 31.751153171062469 22.925408899784088 11.19362688064575 39.070063054561615 21.741467595100403 11.085995852947233 19.050691902637482 13.561509490013121 13.776771545410154 10.8707337975502 26.154339730739594
leaf_count=2755 473 737 1423 30619 202 660 150 1459 270 214 107 249 11737 3886 115 257 533 1006 134 311 187 115 218 598 1132 151 372 188 289 543 500 7237 108 192 1331 925 142 890 313 100 1367 368 1558 233 133 124 1360 167 1393 117 374 295 213 104 363 202 103 177 126 128 101 243
internal_value=-1.96732 -1.89127 -1.86652 -2.00018 -1.89061 -1.91275 -1.97731 -1.85218 -1.82419 -2.01097 -1.88099 -1.87854 -1.97983 -1.98563 -1.80848 -1.8044 -1.79003 -1.96897 -1.92852 -1.86031 -1.82938 -1.80514 -1.78539 -1.92903 -1.91607 -1.89668 -1.76252 -1.77676 -1.84617 -1.80651 -1.95923 -2.01205 -1.99519 -1.99779 -1.83363 -1.91792 -1.80095 -1.81754 -1.79798 -1.70561 -1.90415 -1.88033 -1.98463 -1.93686 -1.89232 -1.84565 -1.82097 -1.82139 -1.93267 -1.88097 -1.84904 -1.88975 -1.83679 -1.86219 -1.82296 -1.91091 -1.87374 -1.80411 -1.83619 -1.96706 -1.94658 -1.84522
internal_weight=8834.03 2665.16 2021.31 6168.87 1288.34 817.35 1977.29 470.993 732.967 4191.58 34.5496 164.353 1948.77 1735.34 568.615 556.237 445.485 643.849 179.636 71.3594 349.693 28.5222 37.8861 656.765 489.829 367.99 273.168 233.129 160.585 89.549 472.07 4157.03 861.479 849.855 172.317 121.3 175.761 149.715 129.48 26.0467 351.738 204.607 464.213 70.9288 45.8508 140.243 329.566 85.0285 213.432 63.5023 67.0541 68.0228 36.2717 110.752 61.3497 49.4026 50.1561 72.2204 53.1697 166.936 31.5359 183.188
internal_count=82077 24762 18780 57315 11970 7594 18371 4376 6810 38944 321 1527 18106 16123 5283 5168 4139 5982 1669 663 3249 265 352 6102 4551 3419 2538 2166 1492 832 4386 38623 8004 7896 1601 1127 1633 1391 1203 242 3268 1901 4313 659 426 1303 3062 790 1983 590 623 632 337 1029 570 459 466 671 494 1551 293 1702
is_linear=0
shrinkage=1


Tree=1
num_leaves=63
num_cat=0
split_feature=30 41 62 41 61 45 84 37 3 32 63 48 84 40 16 43 54 86 1 14 43 11 22 37 34 50 79 4 52 23 22 22 86 86 30 21 40 48 37 57 63 64 6 41 8 84 33 48 20 40 79 41 41 54 4 40 64 24 6 28 68 42
split_gain=7679.88 1610.95 608.745 541.608 538.998 226.397 230.272 225.882 221.516 210.076 240.554 202.638 189.661 169.619 167.533 146.765 180.784 138.535 188.082 149.929 133.613 130.268 126.141 124.878 117.941 113.476 112.349 109.542 108.856 184.269 115.006 110.815 108.458 103.881 101.445 129.824 110.229 97.0262 96.8127 101.387 94.5004 94.2652 168.55 115.602 94.1847 137.302 94.0197 97.7664 91.8067 109.275 90.3221 117.216 88.9465 88.5503 88.1347 89.4824 88.0162 87.4093 148.51 85.7074 85.5402 85.2673
threshold=1.1165374517440798 1.208790183067322 0.6315898895263673 1.2414312958717348 1.1923104524612429 5.1568679809570321 2.1795667253978279 1.9538995027542116 1.8415766954421999 1.4820793271064761 1.2170099616050722 0.89558255672454845 1.1360628875773482 1.5233017802238467 2.3848369121551518 0.76596587896347057 0.44472660124301916 67.500000000000014 0.08322943747043611 0.49971580505371099 0.42596808075904852 1.6338921189308169 0.95003652572631847 1.9382840394973757 2.1985065937042241 3.0832061767578129 0.00071189679885326929 1.409697473049164 1.5490087270736697 0.61848786473274242 1.231165409088135 2.9688776731491093 66.500000000000014 75.500000000000014 0.57285264134407055 0.70858973264694225 0.88273814320564281 1.0724973082542422 0.13443115353584292 2.0925809144973759 1.6609365344047549 100.50000000000001 0.18839244544506076 2.9912441968917851 0.46713626384735113 11.651717803373062 0.17567258328199389 0.77359324693679821 0.44118870794773107 1.5715419054031374 8.44453827265208e-05 1.4803917407989504 0.66087824106216442 1.3512449264526369 0.7214912772178651 1.2849898338317873 68.500000000000014 2.0625265836715703 0.72614797949790966 0.53354850411415111 91.500000000000014 2.0898175239562993
decision_type=2 2 2 2 2 2 8 2 2 2 2 2 10 2 2 2 2 10 2 2 2 2 2 2 2 2 10 2 2 2 2 2 10 8 2 2 2 2 2 2 2 8 2 2 2 10 2 2 2 2 10 2 2 2 2 2 10 2 2 2 10 2
left_child=1 15 4 14 5 6 38 8 21 10 17 20 -13 -12 27 52 -17 -4 61 37 26 40 -21 -16 28 53 46 -2 30 32 41 -32 -30 -31 36 -36 59 60 39 -3 50 42 -8 48 -25 -46 -6 -48 -44 -50 -5 -52 -1 -15 55 -53 -9 -10 -59 -14 -20 -19
right_child=3 2 9 7 11 -7 24 56 57 -11 13 12 34 25 23 16 -18 18 19 22 -22 -23 -24 44 -26 -27 -28 -29 29 33 31 -33 -34 -35 35 -37 -38 -39 -40 -41 -42 -43 43 -45 45 -47 47 -49 49 -51 51 54 -54 -55 -56 -57 -58 58 -60 -61 -62 -63
leaf_value=-0.048854056209593787 -0.030985037625447517 -0.0070103109603851192 0.085026250355351662 0.0185855202798751 0.10455093673239864 -0.022381900298353189 0.26577454332130368 0.061458144227855206 -0.03524487066975425 0.26384411875374453 0.0032149156256557608 0.0048067962058744636 0.15643080672299878 0.015798788652361961 -0.027830892513358647 -0.0063936094073855435 0.088864891559697803 0.19835815192942119 0.0091483548935943002 0.26385837951468083 0.068262868198718518 0.13910858412150079 0.12698867093054797 -0.013998349638093495 0.23341943077836633 0.25546647648508147 0.021419572440924465 -0.051130405609522971 -0.048135461248509252 0.26456816363705926 0.01979793964610857 0.17783910376586531 0.13471878842836749 0.088471432528607175 0.011233475945024279 0.12592898607525946 0.23253316214651651 0.16739693363855412 0.11317685111842285 0.064707587992572119 -0.0071070709895933283 -0.0053178202493566005 -0.026613581722948882 0.21925747641426138 0.19072704238087368 -0.017166444955198354 0.24674409357506122 0.15758758821526239 0.071257463106513944 0.18197058234230309 -0.026351243467495462 0.099970143199461056 -0.0015625135285737644 0.14364301984691982 0.042268728765342302 0.29798250523458425 0.23587088962072666 -0.0081310245523002599 0.17559793459792827 0.079258442789278752 0.099462267333456381 0.082289792892342437
leaf_weight=152.43137896806002 915.45214466005564 196.35036464780569 102.43449308723211 192.47659046202898 32.263903312385082 101.41983516514301 12.964515887200831 18.470613896846775 582.59834613651037 27.167889319360256 64.069426417350769 58.610493145883083 62.646348789334297 24.523180395364761 1042.0484240800142 119.69375409185886 85.304063864052296 168.25098580867052 36.797066189348698 27.791442550718784 40.795944519340992 20.568503372371197 42.69441207498312 35.912925347685814 11.484062284231184 12.122790433466433 11.947072595357893 2566.8431534171104 16.329574428498745 24.918023124337196 162.24962048232555 11.905545733869074 16.109590120613575 12.614364586770533 53.639895878732204 45.684911973774433 21.820635929703712 35.042934857308865 25.426097348332405 65.791616320610046 315.09573989361525 28.771689496934414 20.935153432190418 14.416886314749716 18.90420788526535 13.696171820163725 59.195979669690132 63.984035439789295 219.88989108800888 24.801343530416489 14.69868081063032 11.151365488767626 285.92999513447285 30.255238510668278 14.091942504048346 11.682986430823801 11.889708578586577 221.04939477145672 11.574596293270586 84.514527074992657 91.194959796965122 17.46579310297966
leaf_count=1459 8724 1794 868 1787 268 910 108 163 5544 225 559 520 518 215 9878 1119 747 1375 328 231 345 178 359 330 95 103 100 24740 147 202 1431 107 140 106 464 388 177 295 216 574 2951 256 183 120 162 124 492 536 1915 211 137 104 2657 257 130 106 97 2058 102 716 778 148
internal_value=-0.000162888 0.0678517 0.0883585 -0.0320856 0.0705854 0.0482934 0.0565803 -0.00516036 -0.00809678 0.127614 0.121943 0.110844 0.0862901 0.0613598 -0.0404416 -0.0016762 0.0332455 0.137153 0.149889 0.120023 0.149401 0.0155297 0.180954 -0.0235317 0.0747869 0.117044 0.169176 -0.0458344 0.0715678 0.129949 0.0633307 0.0306019 0.0426717 0.205383 0.10409 0.0639882 0.127661 0.0936803 0.0200244 0.0109892 0.0109842 0.0810443 0.0895246 0.0813651 0.0418562 0.103386 0.180532 0.200433 0.073881 0.0824791 0.034337 0.0930644 -0.0180072 0.0864098 0.140598 0.201281 0.129762 -0.0248993 0.00101072 0.112111 0.0734975 0.187442
internal_weight=8842.86 2824.65 2181.29 6018.21 1501.48 966.378 864.958 1425.35 1394.99 679.811 652.643 535.104 326.917 130.971 4592.86 643.359 204.998 521.672 419.238 233.521 208.187 579.766 70.4859 1110.56 577.39 66.9012 167.391 3482.3 565.906 69.9716 495.935 174.155 32.4392 37.5324 268.306 99.3248 168.982 163.035 287.568 262.142 559.197 321.779 293.008 280.043 68.5133 32.6004 155.444 123.18 265.626 244.691 244.102 51.625 438.361 54.7784 36.9263 22.8344 30.3603 815.222 232.624 147.161 127.992 185.717
internal_count=82077 24762 18780 57315 13039 8515 7605 13357 13097 5741 5516 4524 2783 1134 43958 5982 1866 4382 3514 1991 1741 5393 590 10494 5021 575 1396 33464 4926 595 4331 1538 287 308 2263 852 1411 1401 2584 2368 5215 2793 2537 2429 616 286 1296 1028 2309 2126 2264 477 4116 472 340 210 260 7704 2160 1234 1106 1523
is_linear=0
shrinkage=0.05


Tree=2
num_leaves=63
num_cat=0
split_feature=30 41 53 30 39 60 11 16 75 16 44 10 86 26 32 52 84 54 60 11 23 16 40 87 24 40 36 40 52 49 83 66 2 83 23 38 8 64 1 41 56 83 70 23 58 54 53 38 34 68 2 66 30 24 10 81 58 36 58 48 48 26
split_gain=6737.11 1300.38 575.494 527.961 296.879 310.408 279.219 206.448 193.355 191.924 157.67 145.736 138.772 144.124 190.603 249.484 129.834 145.07 126.314 124.768 122.432 119.699 141.556 118.406 113.848 102.307 97.0647 96.9944 96.4903 102.753 96.8133 89.194 163.447 105.189 87.3098 86.9742 86.9619 78.5926 78.472 76.9378 76.307 91.8035 71.5333 70.5762 69.9902 69.9319 67.2581 72.7033 67.1407 66.4502 64.0335 63.61 63.3005 84.997 63.2441 63.1165 79.3368 62.9959 63.6836 62.794 80.122 60.8021
threshold=1.1165374517440798 1.1160590052604678 1.8020854592323305 0.50006052851676952 0.46014159917831426 1.2640451788902285 1.5133154392242434 5.2027857303619394 1.0357498598304462 2.6284059286117558 0.92617979645729076 0.87085846066474926 275.50000000000006 1.0121240615844729 1.2673084139823916 1.5490087270736697 2.8232447838546046 0.59965890645980846 1.1289780139923098 1.2416220903396609 1.0993869304656985 2.3848369121551518 2.3408635854721074 -15.499999999999998 1.2212197780609133 1.457041919231415 0.8007115125656129 1.564683794975281 1.3756007552146914 0.20136059075593951 66.401666666666685 2.8241527719666881 1.3219527006149294 72.788333333333341 1.1290967464447024 0.4273145198822022 0.46713626384735113 104.50000000000001 0.055199041962623603 2.446205854415894 1.5521895885467532 65.655000000000015 -0.018917543528261253 1.3832834959030154 0.44059868156909948 0.7628406584262849 0.88701829314231884 0.60976430773735057 0.85100919008255016 91.500000000000014 1.8591765165328982 4.5818676441772999 1.3958498239517214 1.6526401042938235 0.52660441398620617 98.500000000000014 0.16468299925327304 1.526293992996216 0.59734240174293529 1.1497045755386355 1.6147760748863222 0.79922121763229381
decision_type=2 2 2 2 2 2 2 2 10 2 2 2 10 2 2 2 10 2 2 2 2 2 2 10 2 2 2 2 2 2 10 10 2 10 2 2 2 10 2 2 2 10 8 2 2 2 2 2 2 10 2 10 2 2 2 2 2 2 2 2 2 2
left_child=1 16 6 12 -5 11 10 21 -9 61 23 18 13 14 28 39 -1 -18 37 52 31 -4 57 -2 -13 -20 -22 -19 40 -30 -31 32 44 49 -11 -15 -27 42 -37 -16 41 48 -6 -28 -7 -36 -46 -48 54 -33 -25 -52 53 -12 -3 -44 -57 -23 -59 -55 -61 -8
right_child=2 3 7 4 5 20 9 8 -10 34 19 24 -14 35 15 -17 17 27 25 -21 26 22 -24 50 -26 36 43 -29 29 30 -32 33 -34 -35 45 38 -38 -39 -40 -41 -42 -43 55 -45 46 -47 47 -49 -50 -51 51 -53 -54 59 -56 56 -58 58 -60 60 -62 -63
leaf_value=-0.029961203034154827 0.0235198224948493 0.023925407215323477 -0.047955872072899725 0.0042169178569949973 0.087033107585446579 0.17869827022204066 0.081750576487220838 0.23626554597968383 -0.0055464616342965718 0.043417379765630627 0.0045734471050652382 0.044395682921057965 -0.047108943107540074 0.2198399788352545 0.0098858310787809222 0.18431047449232876 -0.012616336228921705 0.026906794319832235 0.050032981215041399 0.065460530324748731 0.1747579361338526 -0.033700063669896474 0.13658174644159132 -0.02982467351763058 0.1505343758176399 0.18232317772929038 0.1624910287827912 0.1286665603893796 0.22197095700895272 0.069848948734634889 0.2276749818224868 0.1847720677255365 -0.0072903704091762936 0.027140309861123875 0.10157568201518637 0.20192878308754333 0.057953170261293874 -0.040481295979419574 0.11343738566968786 0.13857374917776497 0.067253570526785433 0.14207711631802375 0.0095608055587979648 0.018079772343294897 0.10004921321400639 0.23542802172782934 0.016641258996171922 0.1408635465046354 0.029649722277032099 0.060285367329833674 -0.025910000759034591 0.13350432895952008 -0.01887697289498801 0.182762819339129 0.12006477836703092 0.0099970983732096449 0.16355044993056245 0.10126657724784981 -0.00965196601503749 -0.045177630444480706 0.13891166508157463 -0.039789306807974378
leaf_weight=304.43846732378006 122.90888064354658 19.981000810861588 3064.3822164088488 212.51021906733513 45.075565464794636 20.192732699215412 14.656999781727789 12.388083152472971 24.849266014993191 19.331771083176136 186.0152620151639 44.800108350813389 14.297544389963148 35.350189603865147 118.68776293843985 29.079253047704697 147.71986290067434 61.756606765091419 286.97526441514492 82.768496006727219 79.445069834589958 739.11757852882147 13.0871110484004 1138.0282333642244 57.939624808728695 29.814589738845825 13.996678441762922 37.720052897930145 39.225618869066238 35.332632578909397 13.402427881956099 53.499243512749672 52.910389922559261 19.229476742446423 18.224663399159908 31.952056236565113 26.590562209486961 47.15399294346571 116.02096674591303 12.874482072889803 105.42606598138809 169.61105692386627 230.94537798315287 21.390014700591564 156.67911817878485 21.004536777734756 57.981090180575848 14.781440570950506 36.047130413353443 13.406142540276049 12.975100167095663 12.086927115917204 241.79391994327307 11.87586624920368 118.90198014676571 17.748785063624382 15.990592181682585 16.325152985751629 62.421322047710419 12.494144640862944 11.217204459011553 34.537939317524433
leaf_count=2917 1139 161 30619 1864 376 157 125 103 218 173 1732 372 126 254 977 216 1382 559 2454 717 602 7163 108 11020 450 230 109 314 290 278 100 412 435 154 163 246 215 421 888 97 838 1275 2006 166 1236 157 475 118 280 104 124 115 2264 108 921 156 131 141 592 114 102 318
internal_value=-0.000251549 0.061161 -0.0312782 0.0769808 0.059025 0.0679396 -0.00899255 -0.0422716 0.0748993 0.0692264 -0.0135929 0.0486416 0.107416 0.109921 0.0995666 0.0517737 -0.00810326 0.0188162 0.0404831 0.00891429 0.0987173 -0.0433917 -0.0265601 -0.0231517 0.104252 0.0621326 0.144078 0.0654926 0.113839 0.161735 0.113252 0.085316 0.0725358 0.130206 0.130387 0.149378 0.123693 0.0196544 0.132545 0.022479 0.104476 0.115866 0.0288087 0.0751995 0.0894551 0.173244 0.081601 0.0418766 0.090452 0.159828 -0.0280837 0.0509724 -0.00118558 0.0181178 0.106233 0.0188931 0.0827729 -0.0291706 0.0133429 0.0889143 0.0419101 -0.00357806
internal_weight=8839.37 2966.88 5872.49 2415.25 1519.06 1306.55 1939.92 3932.57 37.2373 107.756 1832.16 803.034 896.19 881.893 698.569 160.641 551.635 247.197 700.295 546.165 503.511 3895.33 830.951 1286 102.74 343.38 114.832 99.4767 537.928 87.9607 48.7351 388.68 302.545 86.1349 58.561 183.323 56.4052 356.914 147.973 131.562 449.967 344.541 309.76 35.3867 249.634 39.2292 229.442 72.7625 174.93 66.9054 1163.09 25.062 463.396 221.602 138.883 264.685 33.7394 817.864 78.7465 35.5872 23.7113 49.1949
internal_count=82077 24762 57315 19590 12643 10779 18371 38944 321 936 17435 6811 6947 6821 5433 1290 5172 2255 5989 5037 3968 38623 8004 12398 822 2899 877 873 4143 668 378 3091 2421 670 493 1388 445 3090 1134 1074 3475 2637 2669 275 1986 320 1829 593 1362 516 11259 239 4320 2056 1082 2293 287 7896 733 324 216 443
is_linear=0
shrinkage=0.05


Tree=3
num_leaves=63
num_cat=0
split_feature=56 54 7 57 84 40 63 38 38 59 48 7 43 84 0 63 4 2 35 76 40 61 64 57 50 68 42 16 24 31 86 66 5 5 16 28 48 68 48 61 62 45 84 35 58 37 64 48 63 66 18 46 86 86 60 40 77 22 67 83 50 24
split_gain=5766.8 1186.94 628.716 516.035 307.941 266.553 271.034 212.985 199.711 155.307 140.297 130.636 172.76 136.55 125.469 132.014 113.513 111.511 110.439 109.092 108.116 135.508 107.475 106.592 105.812 102.067 108.488 150.921 149.711 101.622 93.7859 141.926 119.123 92.0606 91.9399 90.9374 89.5476 87.9318 85.2346 81.2234 81.1336 80.6308 177.934 98.9402 78.7672 78.4205 91.6783 75.5004 75.734 72.3878 70.9958 83.7917 70.9748 132.352 67.1826 90.6491 65.1752 64.6813 63.2786 105.163 82.4395 76.144
threshold=3.3313326835632329 0.61009633541107189 1.2457119822502138 0.94997265934944164 2.6710120797626034 1.3742463588714602 1.5800924301147463 1.170094430446625 0.66113832592964183 0.85384750366210949 1.4396173954010012 1.5698477029800417 0.42596808075904852 2.4945496140196624 3.1866624355316167 2.2394154071807866 1.1745429635047915 0.97805267572402965 2.5637108087539677 76.500000000000014 2.2267881631851201 0.69367736577987682 56.500000000000007 1.5990443229675295 1.1622682213783266 67.500000000000014 1.2997151017189028 4.7270834445953378 1.6923266649246218 0.49654546380043035 71.500000000000014 2.417730800039966 0.8802856206893922 0.72988343238830578 5.2534329891204843 0.30878579616546636 1.5022011995315554 92.500000000000014 1.9660959243774416 0.92344662547111522 0.24706579744815829 1.1187995076179507 7.749960568935335 1.3059318661689761 0.53880178928375255 1.9498343467712405 66.500000000000014 0.69793087244033825 1.6189594864845278 0.63855305169554144 0.54961884021759044 1.1631349325180056 67.500000000000014 64.500000000000014 1.1194146275520327 0.41544526815414434 98.500000000000014 0.496383547782898 79.500000000000014 -3.3699999999999997 2.4522972106933598 2.2135243415832524
decision_type=2 2 2 2 10 2 2 2 2 2 2 2 2 10 2 2 2 2 2 8 2 2 8 2 2 8 2 2 2 2 10 10 2 2 2 2 2 10 2 2 2 2 10 2 2 2 10 2 2 10 2 2 10 10 2 2 10 2 10 10 2 2
left_child=1 24 4 16 54 9 23 10 11 17 -6 30 13 -13 15 25 18 34 -2 -8 35 38 -19 41 -1 -10 27 -27 44 50 31 -4 -32 -14 -5 -21 40 -31 -22 -18 -26 43 -43 -7 -28 -37 -47 -24 -49 -35 51 -9 53 -46 -3 -56 -15 -57 59 61 -60 -38
right_child=3 2 8 5 7 6 19 29 14 -11 -12 12 33 56 -16 -17 39 22 -20 20 21 -23 47 -25 36 26 28 -29 -30 37 32 -33 -34 49 -36 45 58 -39 -40 -41 -42 42 -44 -45 52 46 -48 48 -50 -51 -52 -53 -54 -55 55 57 -58 -59 60 -61 -62 -63
leaf_value=-0.038088944269040005 -0.026544778313434655 -0.014769553433720812 0.0031086360175824265 -0.034779397157020067 0.0706619601911289 0.1032816247098458 0.10879396792871783 0.03514395883712889 0.17377951627493418 0.1230971836160038 0.00097997791418313429 0.14651177428302406 0.12288074237926555 0.14133108557106241 0.24327763095272831 0.0010184477898878897 -0.048230042544725134 0.10539352858535117 0.116436292309131 0.12100536025071772 0.098788571701694111 0.21184838458126817 0.091544015920819469 0.15470315559781314 0.17315559885521306 0.052895861833420002 0.031843042916392221 0.1120662493985618 0.18827082192695854 0.035806378682008581 0.11504596857502802 0.11314692144139843 0.0168822692149521 0.11008363949074103 0.11471832163106498 -0.025561868358958181 0.096275624958133507 0.169440967794971 -0.048260863847875896 0.046056054482209174 0.027931915832513733 0.25882664496375507 0.0515247582541625 -0.019512933462033356 0.1652200363919768 -0.015049368712530998 0.13637145373690196 0.020378911310095865 -0.030657934532347716 -0.013613974099300256 -0.00086137990649361976 0.11908543483444732 0.12075330660827087 0.035447887845718076 0.002833191636506104 0.02779411112922563 0.027818411566691872 0.12642978853747261 0.0035254706940597959 -0.04485843023729999 0.15088032966342635 -0.017935203810360931
leaf_weight=251.49630019813776 569.7223140001297 222.73363963514566 172.62654300779104 1170.941269300878 132.57576878368855 22.669907227158546 20.29884472489357 46.538151457905769 45.600827783346176 17.676989674568176 158.70834423601627 126.24320931732655 23.182722747325897 17.126820437610149 14.95005142688751 34.354832634329796 2721.9017132297158 21.894148707389832 13.83331825584173 11.7872943803668 17.610545471310616 11.411345541477202 17.794395193457603 27.880570739507675 13.480430439114569 244.85591497272253 35.67231135815382 192.48044262826443 58.335448153316975 15.306386671960352 77.794095262885094 35.29424686729908 51.275948368012905 14.532107435166834 10.375429861247538 451.88515033572912 27.74770075827837 62.875811792910099 22.374600060284138 23.03488152474165 33.563093610107899 12.446975164115427 61.477822333574295 59.35174322873354 27.326516300439835 24.684383280575275 16.799257591366768 107.38052254170179 224.98483470827341 63.542035050690174 26.666662573814392 82.31238129734993 316.58445194363594 69.916829891502857 151.52116715162992 36.534707590937614 48.327870242297649 30.492898337543011 32.708348818123341 126.39385598152876 13.372303918004034 30.784023247659206
leaf_count=2464 5631 2084 1433 11627 1069 200 167 388 341 159 1405 896 165 126 103 279 28038 210 129 109 162 87 160 228 98 1902 277 1369 403 122 577 266 429 119 85 4402 262 450 210 196 280 104 519 538 200 221 127 929 2182 522 212 599 2202 522 1338 301 350 243 292 1171 109 289
internal_value=-0.000319388 0.053722 0.0674433 -0.0305455 0.0353427 -0.0125079 0.0117872 0.0612213 0.0860166 -0.0242712 0.0326952 0.0637993 0.08822 0.116126 0.099473 0.0973758 -0.0431814 -0.0259482 -0.0231554 -0.00506106 -0.00921363 0.0598753 -0.00207712 0.064657 -0.0145882 0.100717 0.097192 0.0789379 0.112912 0.0967764 0.0425698 0.0217875 0.0760483 0.0353892 -0.0334664 -0.016243 0.00666824 0.143278 0.0165037 -0.0474388 0.0695461 0.0485583 0.0864289 0.0144262 0.103132 -0.0195221 0.0462702 -0.00879685 -0.014169 0.00941013 0.0733988 0.0887675 0.109277 0.0719154 0.00455552 0.0242506 0.05752 0.0726665 -0.00613659 -0.0191997 0.0462869 0.0362079
internal_weight=8826.05 3165.84 2636.29 5660.22 966.266 2331.73 760.678 524.984 1670.02 1571.05 291.284 629.946 292.955 191.698 1040.08 1025.13 3328.49 1553.37 583.556 576.851 556.553 51.3965 372.054 183.827 529.546 990.773 945.172 437.336 507.836 233.699 336.991 207.921 129.07 101.257 1181.32 505.156 278.05 78.1822 39.9851 2744.94 47.0435 155.946 73.9248 82.0217 449.5 493.369 41.4836 350.16 332.365 78.0741 155.517 128.851 413.828 97.2433 441.282 218.549 65.4547 67.0276 231.006 184.926 46.0807 58.5317
internal_count=82077 25657 20692 56420 8211 22426 7074 4245 12481 15352 2474 4883 2178 1372 7598 7495 33994 15193 5760 5485 5318 459 3481 1589 4965 7216 6875 3271 3604 1771 2705 1699 1006 806 11712 4859 2501 572 372 28234 378 1361 623 738 3201 4750 348 3271 3111 641 1199 987 2924 722 3966 1882 476 544 2123 1722 401 551
is_linear=0
shrinkage=0.05


Tree=4
num_leaves=63
num_cat=0
split_feature=30 41 53 30 60 11 23 57 36 44 14 64 39 38 57 50 25 84 9 2 11 32 12 37 54 5 23 42 66 1 23 24 49 63 3 32 41 15 11 17 17 43 33 11 38 11 66 66 39 88 56 0 53 62 63 64 59 54 68 66 68 58
split_gain=5310.49 927.16 499.197 376.563 211.263 203.321 175.862 148.314 138.573 133.032 122.754 154.384 120.658 108.262 118.646 102.824 100.56 116.284 99.1127 98.0257 96.2599 84.8148 83.9994 82.563 96.2117 92.6331 82.1506 163.668 92.372 98.9991 82.2121 111.379 81.1802 77.6896 76.179 74.4458 70.6337 65.8188 79.5996 70.7795 101.852 75.2898 76.5403 65.435 148.129 64.5831 61.7416 103.312 80.9545 61.4662 60.4668 65.1965 59.883 59.4454 59.0491 58.9447 58.6619 123.259 58.4947 66.3348 58.0126 57.0538
threshold=1.1425552964210512 0.9823598861694337 1.8020854592323305 0.50006052851676952 1.2725036144256594 1.5133154392242434 0.96432054042816173 0.94997265934944164 1.6046398878097536 0.92617979645729076 1.2702976465225222 102.50000000000001 0.46723005175590521 1.7157301902770998 1.7210257053375246 1.5393908023834231 5.5206151008605966 2.849756324854865 0.235729955136776 1.8591765165328982 1.2416220903396609 0.87599512934684765 1.2224683761596682 0.77302709221839916 0.36217075586318975 0.69197273254394542 0.43848282098770147 0.85075885057449352 2.417730800039966 0.06975197792053224 0.7000110149383546 0.91575872898101818 0.3243167400360108 3.0990089178085332 0.22632571309804919 1.254549562931061 2.446205854415894 2.6874868869781499 0.53895288705825817 0.71941089630126964 0.57357120513916027 0.42596808075904852 0.8666333556175233 1.3743394017219546 1.6812589168548586 1.7481792569160464 2.8733642681319393 0.71311133565123319 0.65072748064994823 -0.049078434204824335 1.7396462559700014 1.085962235927582 0.29358613491058355 0.55541113018989574 0.43576751649379736 80.500000000000014 0.86346620321273815 0.43513056635856634 117.50000000000001 0.69552138705897881 80.500000000000014 0.49434980750083929
decision_type=2 2 2 2 2 2 2 2 2 2 2 8 2 2 2 2 2 8 2 2 2 2 2 2 2 2 2 2 10 2 2 2 2 2 2 2 2 2 2 2 2 2 2 2 2 2 10 10 2 10 2 2 2 2 2 10 2 2 10 10 8 2
left_child=1 23 5 26 6 9 16 -4 45 19 13 55 -6 14 18 -7 17 -5 -8 22 60 -20 -2 43 -25 -26 28 -28 29 -3 -29 46 -30 -19 35 58 -21 38 39 40 -14 42 -42 -1 -45 56 47 48 -32 -40 51 53 -23 -36 -48 -12 -9 -58 59 -33 -11 -34
right_child=2 3 7 4 12 15 10 8 -10 20 11 -13 37 -15 -16 -17 -18 33 21 36 -22 52 -24 24 25 -27 27 30 32 -31 31 34 61 -35 50 -37 -38 -39 49 -41 41 -43 -44 44 -46 -47 54 -49 -50 -51 -52 -53 -54 -55 -56 -57 57 -59 -60 -61 -62 -63
leaf_value=-0.0395419658619761 -0.03318502309744073 0.0038512957432600666 -0.047175444407451417 -0.001063456147793708 0.012353895752045797 0.002431216476669253 0.15206802139272041 -0.030430567981961133 0.13280997195736424 0.012253844845562691 0.11495932669477144 -0.040289370202864848 0.0075717802267386766 0.10571216074773454 0.078724548125170088 0.10053882282108165 -0.045675021265916806 0.053317307798825653 -0.014866885665451536 0.12063561456791833 0.0568976868996258 0.10624567311464986 -0.0033264384579760838 -0.017699073787497143 0.14032111424693747 0.009983339142212156 0.16439855553913771 0.032552681404679061 0.17510335091902712 0.075068655056386949 0.016578865824721543 0.058874410211223416 0.12110654093070268 -0.046146732085642989 0.012326308445062044 0.043091282885745874 -0.014357659996113659 -0.0049602861006220085 0.070701059208863673 0.032699698168075213 0.084892028061549121 0.01704182397426264 0.16270724218065724 0.17909530458294456 -0.023555944843486942 0.076444151813364336 0.17297653315552713 0.0093271436431107916 0.1417046869533774 0.12550106435898897 0.027080554564604016 0.1812740562900523 0.02448558247750552 0.097833920632203197 0.04467735867261774 0.22200451950670944 -0.056851062330483017 0.16731408196087563 0.073010819950609263 0.16968801377582454 -0.025644357952860158 0.00083080198453073313
leaf_weight=270.08143389970064 843.88098122179508 87.657139278948307 2646.8825174123049 267.47542863339186 77.788756862282753 47.644483469426632 13.461273260414599 988.55941040813923 13.743849515914915 278.73353730142117 50.182628639042377 13.957578130066393 35.572388611733913 63.370532087981701 116.04891441762447 60.774615444242954 60.541643403470516 248.4890286847949 139.91501842439175 20.207906126976013 84.235941059887409 27.18278045207262 326.7510522082448 82.049333103001118 24.448980428278446 30.812579318881035 72.758039519190788 66.131599754095078 28.634388402104378 110.07551226019859 20.291122242808342 15.354169622063635 20.980184257030487 21.31643021851778 22.651974581182003 21.444646507501602 18.617569409310818 22.382024623453617 80.873757749795914 104.99810683727264 79.417596057057381 22.576628044247627 52.48552094399929 11.611890472471712 40.358330920338631 14.86658153682947 20.236779995262623 87.757647849619389 35.616695992648602 139.31892294436693 35.384511560201645 20.988339640200138 127.16496606171131 197.93303191661835 16.105625130236149 17.291575878858566 13.151672512292864 11.489614851772783 25.225823380053043 112.13676804304123 158.33987338840961 18.601932600140572
leaf_count=2701 8516 700 28357 2382 642 436 103 10122 108 2608 343 117 263 470 867 449 553 1997 1194 180 673 188 3198 789 182 261 473 474 182 753 152 102 157 183 162 142 168 181 557 812 539 159 339 102 378 132 135 645 239 917 254 125 963 1317 115 117 125 95 170 694 1492 128
internal_value=-0.000377848 0.0500539 -0.0302757 0.0607919 0.0468546 -0.00899677 0.0343489 -0.0408854 -0.0249047 -0.0131576 0.0542568 0.11108 0.0705569 0.0447581 0.0356431 0.0574257 0.0154149 0.0222986 0.0193962 -0.0222584 0.00795663 0.0133271 -0.0248508 -0.0158142 0.0166493 0.0676478 0.0847633 0.093038 0.0608052 0.0434972 0.0855916 0.0911492 0.110974 0.045459 0.104417 0.130328 0.0559037 0.0789783 0.0826246 0.0656471 0.0838496 0.101414 0.115855 -0.0296555 0.0217231 -0.0270131 0.0578976 0.0431696 0.0962917 0.105374 0.0881241 0.0970654 0.0388847 0.0890531 0.116119 0.142392 -0.0285311 0.0476715 0.142578 0.156342 -0.00147565 0.064582
internal_weight=8805.02 3277.14 5527.88 2817.78 1781.81 1839.19 1166.4 3688.69 1041.81 1730.77 568.575 81.4318 615.414 487.143 423.773 108.419 597.823 537.281 307.724 1209.46 521.309 294.263 1170.63 459.363 137.311 55.2616 1035.97 770.017 265.949 197.733 697.259 631.127 68.2165 269.805 451.119 174.161 38.8255 537.625 515.243 295.05 190.052 154.48 131.903 322.052 51.9702 1028.07 180.008 143.665 55.9078 220.193 276.958 241.573 154.348 220.585 36.3424 67.4742 1013.2 24.6413 152.717 127.491 437.073 39.5821
internal_count=82077 25418 56659 21005 13886 17720 9477 38939 10582 16835 4362 577 4409 3785 3315 885 5115 4562 2448 12062 4773 2345 11714 4413 1232 443 7119 5199 1920 1453 4726 4252 467 2180 2966 1108 348 3767 3586 2112 1300 1037 878 3181 480 10474 1286 1036 391 1474 1858 1604 1151 1479 250 460 10342 220 966 796 4100 285
is_linear=0
shrinkage=0.05


Tree=5
num_leaves=63
num_cat=0
split_feature=30 41 2 55 66 40 35 40 63 60 13 1 0 87 40 57 51 37 55 30 59 62 11 63 37 25 86 30 2 59 36 48 63 48 50 42 36 42 8 57 86 48 35 24 60 24 55 82 63 19 22 57 4 21 23 86 40 8 40 35 54 64
split_gain=4841.86 806.376 448.003 275.842 194.966 184.778 174.401 166.737 142.538 129.602 125.386 121.238 99.8141 102.404 99.1007 119.204 100.286 97.925 97.1444 91.2832 95.9489 90.5446 90.4403 87.8638 91.6462 86.6798 90.9685 93.3756 86.5964 84.9442 84.4364 84.0665 82.072 108.758 103.709 80.9737 78.8538 77.6378 77.0304 119.236 103.429 74.8805 72.5688 72.8232 72.1909 70.6628 70.133 69.1827 68.9955 67.9648 67.7421 66.8465 69.8829 107.559 62.8064 62.2489 58.5946 76.2648 58.4648 72.7185 57.0074 56.7193
threshold=1.1425552964210512 1.208790183067322 0.31304344534873968 0.58705592155456554 2.417730800039966 0.18815684318542483 0.46183288097381597 1.7011289000511172 0.90086555480957042 1.4458922743797304 1.1946877241134646 0.77381959557533275 2.998221874237061 -25.499999999999996 1.5988437533378603 0.84167659282684337 0.59948384761810314 0.67177158594131481 0.69135361909866344 1.3715584874153139 0.86346620321273815 0.45464536547660833 1.1968726515769961 1.198161840438843 0.12623292207717898 0.021942410618066791 251.50000000000003 0.26776842772960668 1.2457588911056521 0.027547138743102554 0.75753325223922741 0.8692491650581361 0.15770406275987628 1.1349884271621706 1.7030057907104494 2.0286482572555546 1.6046398878097536 2.0451381206512456 0.14611631631851199 0.88210329413414013 94.500000000000014 0.83370691537857067 2.6888678073883061 1.2375341057777407 0.53503584861755382 1.293516278266907 0.71793466806411754 69.500000000000014 0.28611409664154058 1.1673020720481875 0.13482868671417239 1.4189295172691347 2.0729151964187627 0.74903571605682384 1.330880403518677 67.500000000000014 2.4001076221466069 3.0667357444763188 1.5583237409591677 2.0512045621871953 0.91172856092453014 64.500000000000014
decision_type=2 2 2 2 10 2 2 2 2 2 2 2 2 8 2 2 2 2 2 2 2 2 2 2 2 2 8 2 2 2 2 2 2 2 2 2 2 2 2 2 8 2 2 2 2 2 2 8 2 2 2 2 2 2 2 10 2 2 2 2 2 10
left_child=1 14 11 6 5 18 -3 9 17 19 -9 38 13 54 16 -16 37 29 -5 47 -21 28 -10 24 32 -15 27 -27 -6 -7 -26 -32 34 -34 -23 -17 51 -1 -2 40 -40 -20 43 -29 -18 -45 48 -4 55 -46 -12 -13 53 -53 -8 -31 -52 -58 -25 -60 -28 -62
right_child=2 3 7 4 21 8 12 10 22 -11 50 36 -14 25 15 35 44 -19 41 20 -22 23 -24 58 30 26 60 42 -30 46 31 -33 33 -35 -36 -37 -38 -39 39 -41 -42 -43 -44 45 49 -47 -48 -49 -50 -51 56 52 -54 -55 -56 -57 57 -59 59 -61 61 -63
leaf_value=0.13111074869197525 -0.040511129270832287 -0.0090937241721015232 0.035243447265452858 0.0017015575099169527 0.074187148505123243 0.11384637769723963 -0.041206313318741715 0.065154573310614125 -0.0010733773469540147 0.154244204133336 0.086318692206829806 -0.045382072447364544 0.17077567865845511 0.13116683061967699 -0.01615050735601626 0.096166615388813034 -0.051490414997798578 0.13179747668640579 0.11166616858094898 -0.026002600517956654 0.11809249144589729 0.15537378541086538 0.075941569196571412 0.0091390730566660149 0.137381020518581 0.13674245226898066 -0.026807024293742945 0.005887608501034312 0.15509517333498363 0.030850786346767651 0.12389353122750124 0.031905012901324879 0.0091453271000883334 0.1285798145063308 0.027432672486441864 -0.0040850241044154446 0.085497194246945296 -0.012330294790868664 0.11129401490824886 0.12282802798498345 -0.021480811012762179 0.03032090050220957 0.11503252965745954 0.16203820836421123 -0.013063432917638243 0.050234148565780484 0.11892609748239141 -0.011666916671594014 0.036241552086724062 0.087326828765184106 -0.015774139331401479 -0.034742813385639094 -0.041508235937992577 0.14643793626100129 0.067906114773350443 0.093222082815774987 0.14330295005720023 -0.020471991666831675 0.14018778717145533 0.0053021968080684094 0.089588668410373079 -0.0085862603497494014
leaf_weight=20.287209697067738 102.6862223893404 168.18128083646297 115.99013824015856 182.72472273558378 50.691594578325748 106.00534446537495 51.551053397357464 105.27704297751188 99.685526460409164 10.863014839589594 21.215345874428749 2947.5047791749239 16.00482764095068 31.781592220067978 77.562904216349125 69.027936890721321 131.26911234110594 82.431309767067432 43.750941105186939 1380.3299943059683 11.650156788527964 42.604654729366302 61.722803927958012 60.052637942135334 141.31110363453627 33.242188088595867 60.564555995166302 96.534644834697247 95.145922392606735 53.74369665235281 48.961310513317585 50.406984753906727 80.756776295602322 24.949484907090664 25.212787881493568 28.44075046479702 11.761789858341215 17.632133089005947 17.017362780869007 22.162219166755676 106.21389009058475 80.0600680783391 39.460751697421074 14.768817067146299 304.80985376983881 327.95034880936146 51.989402756094933 243.79011310636997 199.78737868368626 17.846471056342125 214.74422134459019 16.130287110805511 39.475572414696217 16.643548630177975 17.722526982426643 156.47670862823725 14.077133864164354 14.359107621014116 24.982772529125214 16.65217063575983 30.524673454463482 28.399651765823364
leaf_count=166 1062 1425 1045 1501 338 663 424 834 777 74 197 32368 100 226 746 515 1368 515 286 14175 105 252 414 425 857 196 517 752 590 368 321 327 556 168 166 237 102 154 174 199 1070 583 264 100 2911 2363 304 2353 1436 148 2114 161 386 150 118 993 114 124 151 118 237 222
internal_value=-8.42621e-05 0.047025 -0.0293642 0.059199 0.0706743 0.0579459 0.0369152 -0.0115231 0.0704343 -0.0179262 0.0190073 -0.040964 0.0472529 0.044554 -0.00220536 0.030105 -0.0137036 0.0808709 0.0248712 -0.0189939 -0.0247966 0.0921863 0.0283773 0.0823526 0.0925767 0.050596 0.0465407 0.0557091 0.126972 0.0734802 0.112547 0.0772301 0.0648779 0.037335 0.107809 0.0669138 -0.0437141 0.064412 -0.00735821 0.0160565 -0.00314555 0.0590658 0.0500821 0.0442473 -0.0202291 0.0550521 0.0642182 0.00345659 0.0572812 -0.00751074 0.000632427 -0.0442174 0.00329794 0.0572663 -0.0132917 0.0772766 -0.00684294 0.0606035 0.040707 0.0862394 0.0072581 0.0422715
internal_weight=8775.56 3363.67 5411.89 2696.79 1780.11 1118.38 916.687 2132.3 811.842 1762.62 369.673 3279.6 748.506 732.501 666.876 175.032 491.845 650.434 306.536 1751.76 1391.98 661.728 161.408 515.891 414.203 663.227 631.446 511.957 145.838 568.003 240.679 99.3683 173.524 105.706 67.8174 97.4687 3031.52 37.9193 248.08 145.393 123.231 123.811 478.715 439.254 453.925 342.719 461.997 359.78 410.008 322.656 264.396 3019.75 72.2494 32.7738 69.2736 210.22 243.18 28.4362 101.688 41.6349 119.489 58.9243
internal_count=82105 25298 56807 19053 12109 7840 6944 21135 5470 17752 3383 35672 5519 5419 6245 1498 4747 4279 2370 17678 14280 4269 1191 3341 2647 4877 4651 3675 928 3764 1505 648 1142 724 418 752 33167 320 2505 1443 1244 869 3479 3215 4427 2463 3101 3398 2797 3059 2549 33065 697 311 542 1361 2352 238 694 269 976 459
is_linear=0
shrinkage=0.05


Tree=6
num_leaves=63
num_cat=0
split_feature=30 41 53 55 16 37 36 35 40 40 52 56 40 43 54 0 33 59 6 50 4 12 39 16 12 35 68 25 11 4 32 48 40 88 43 35 32 24 51 41 49 10 55 35 56 33 33 35 41 7 11 64 17 33 60 27 26 32 11 62 9 42
split_gain=4330.97 682.28 464.368 225.722 221.66 232.917 157.24 149.788 139.446 133.449 118.356 106.513 93.6605 90.9761 117.372 89.9332 128.615 83.5442 127.369 82.0491 107.931 99.6997 96.5091 79.1446 78.1858 92.1611 102.99 75.7918 75.2839 73.3957 72.0869 84.8786 70.8954 68.8608 75.0452 65.3789 64.1774 94.7294 61.0416 60.2359 139.469 69.4456 59.8608 59.3297 56.3553 55.5443 61.7309 55.4938 55.0174 54.6209 54.0662 56.1887 53.9744 53.352 52.9922 82.8775 52.6621 52.0406 49.9294 49.4591 48.2923 47.6457
threshold=1.1425552964210512 1.208790183067322 1.5926190018653872 0.58705592155456554 2.5527279376983647 1.9281586408615115 1.5293118953704836 0.46183288097381597 0.18815684318542483 1.7358800172805788 0.96753337979316723 3.0577678680419926 1.9250359535217287 0.2983809113502503 0.44472660124301916 1.566489636898041 1.2733163237571719 0.063946262001991286 0.5806223750114442 1.1028712987899782 0.77465379238128673 0.79365721344947826 0.65072748064994823 3.4768399000167851 2.2471146583557133 2.4514100551605229 87.500000000000014 1.0000000180025095e-35 1.3375715613365176 1.409697473049164 0.83170950412750255 3.3945813179016118 2.3408635854721074 -0.031624240269336149 2.0822412967681889 0.23825824260711673 1.2641041278839114 1.6923266649246218 0.77474316954612743 1.6330311894416811 0.062428727746009834 0.89793497323989879 0.63480454683303844 2.5637108087539677 2.4520554542541508 0.17197284102439883 0.21104915440082553 2.5326631069183354 1.6660442948341372 2.1089075803756718 1.1559425592422488 73.500000000000014 0.47196806967258459 1.177142918109894 1.2155900001525881 0.81671318411827099 1.016092121601105 1.3914164304733279 1.4782119393348696 0.64249882102012645 1.0341465473175051 2.0286482572555546
decision_type=2 2 2 2 2 2 2 2 2 2 2 2 2 2 2 2 2 2 2 2 2 2 2 2 2 2 10 2 2 2 2 2 2 10 2 2 2 2 2 2 2 2 2 2 2 2 2 2 2 2 2 8 2 2 2 2 2 2 2 2 2 2
left_child=1 13 9 7 29 32 12 54 17 10 -2 15 -7 42 43 16 19 -5 45 20 21 22 -10 -11 25 27 -27 -9 -28 47 31 59 39 34 -32 -20 -21 -38 -17 -6 -41 -42 -1 -15 48 -19 -47 -4 52 -12 51 -16 -35 -13 -3 -56 -50 -39 -46 -29 -8 -52
right_child=2 3 4 8 5 6 60 24 11 23 49 53 -14 14 50 38 -18 18 35 36 -22 -23 -24 -25 -26 26 28 30 -30 -31 33 -33 -34 44 -36 -37 37 57 -40 40 41 -43 -44 -45 58 46 -48 -49 56 -51 61 -53 -54 -55 55 -57 -58 -59 -60 -61 -62 -63
leaf_value=-0.030792009969227242 -0.027393391731298396 -0.033365352707023073 -0.029955744208546443 0.0018376818595604565 -0.031631638870036782 -0.023807083885078878 0.22150499148047997 0.123886115811027 0.017537553450522953 0.02095491995173111 0.0042837741258762475 0.039733149801996187 0.13280595723088096 -0.024894682741639439 0.081369282028381326 0.15467858762185907 -0.011973619717351622 0.023938190873510751 -0.01718990728987331 0.088008015812528692 -0.021721916380744864 0.14526008287681955 0.088538517732199284 0.11376685170106232 -0.026070742213429518 0.17612163509049597 0.10309375464281295 -0.033128012156345296 0.0040262464137180484 -0.046970468922435303 0.0095503503895981515 0.12531949536792455 0.094322012245554435 0.17858314070254874 0.12779499148525869 0.10342270564560321 0.032512618910980701 0.019783568780629007 0.05192609534329197 0.15628287710703981 -0.025740581199376895 0.087231303236583096 0.02180747664301963 0.087734630597936444 0.011433774421770522 0.18871326222362866 0.080590158176894675 0.085978175373659219 0.033471877965909856 0.10967556703051978 0.081410688208715859 -0.037974883965034525 0.081923262012298229 -0.051807818767597304 0.11820998376708843 -0.0066916724491217399 0.097620266894896585 0.11308319360191964 0.11189676163447548 0.038445398004505367 0.097998448916881198 0.014767443160928061
leaf_weight=271.07761669903994 503.49130273610353 94.53311862796545 636.47885527461767 116.38592381030321 641.10103106498718 42.698979765176773 13.663333088159559 25.759870328009129 103.91735357046127 228.70363473147154 488.0450147241354 63.012830026447773 12.295350819826124 139.14675550162792 14.203532151877878 55.26290836930275 44.628441423177719 37.836504392325878 69.954161055386066 766.83489575982094 44.065066955983639 32.222271949052811 88.72404944896698 25.534091033041477 38.347254641354084 26.316581308841705 46.126897662878036 78.340303629636765 32.822820976376534 2499.7389038130641 155.62668821960688 12.683893725275992 12.618625164031981 20.330681420862675 14.684490464627741 13.385346606373785 143.46950188279152 18.306033633649349 19.573013439774513 13.670815967023371 110.63827691227198 15.510330043733118 67.57382670789957 12.765216171741484 79.026360481977463 14.835905805230139 119.78833158314228 10.492153115570543 92.113750226795673 12.611447185277937 89.635646313428879 32.269263304769993 49.864202857017517 21.296386525034904 17.505141071975231 55.042512536048889 49.019935637712479 81.425815969705582 14.662200674414633 34.885292299091816 18.811962462961674 38.270227007567883
leaf_count=2773 5236 828 6879 914 6834 424 104 166 755 2070 4572 463 87 1383 109 311 311 277 571 4656 324 190 536 174 324 153 293 654 230 28631 1160 100 94 133 95 95 931 120 124 113 1112 141 612 117 587 91 800 101 649 94 652 277 321 171 142 455 303 469 98 253 141 322
internal_value=-0.000135871 0.0433751 -0.0285957 0.0542132 -0.0368792 -0.0147114 0.0627235 0.0342199 0.0643201 -0.0020829 -0.0102759 0.0711885 0.0112077 -0.00214261 0.0166989 0.074479 0.071464 0.0369572 0.0529361 0.0743755 0.0498325 0.0638545 0.0502382 0.0302764 0.0435251 0.0471697 0.0904607 0.0399016 0.0619071 -0.0430856 0.0363033 0.00266429 -0.0232468 0.0452139 0.0197456 0.00218196 0.0809102 0.0585302 0.127804 -0.0251466 0.00458883 -0.0118504 -0.0202964 -0.0154304 0.0594345 0.0774624 0.0925056 -0.0280756 0.0737445 0.00693857 0.0446887 -0.00149959 0.109919 0.01661 -0.00869744 0.0234461 0.0557525 0.0959578 0.0271562 -0.0110759 0.149961 0.0614706
internal_weight=8743.66 3457.56 5286.1 2792.62 4027.72 881.009 87.4696 937.692 1854.92 1258.39 1004.15 1482.74 54.9943 664.942 326.291 1398.43 1323.59 372.186 255.8 1278.96 268.929 224.864 192.641 254.238 770.611 732.264 105.266 626.998 78.9497 3146.71 601.238 125.909 793.539 475.328 170.311 83.3395 1010.04 243.201 74.8359 780.92 139.819 126.149 338.651 151.912 305.017 172.461 134.624 646.971 211.329 500.656 174.379 46.4728 70.1949 84.3092 167.081 72.5477 141.134 99.7318 93.6886 113.226 32.4753 127.906
internal_count=82105 25298 56807 19053 44661 9050 756 6944 12109 12146 9902 9361 511 6245 2860 8727 8292 2748 1834 7981 1805 1481 1291 2244 5519 5195 676 4519 523 35611 4353 1007 8294 3346 1255 666 6176 1520 435 8200 1366 1253 3385 1500 2091 1168 891 6980 1406 4666 1360 386 454 634 1425 597 952 589 685 907 245 974
is_linear=0
shrinkage=0.05


Tree=7
num_leaves=63
num_cat=0
split_feature=30 41 2 55 66 40 40 40 20 63 40 54 4 68 13 30 23 55 32 57 63 41 30 11 36 59 11 37 56 28 35 44 83 27 12 21 14 30 86 20 44 25 68 21 36 11 87 25 9 68 2 54 74 63 86 79 63 68 39 37 33 43
split_gain=3896.83 679.539 383.464 216.534 143.994 143.796 136.909 121.62 117.965 101.075 97.9177 101.845 93.1042 106.775 91.2754 80.9698 80.8077 79.3226 78.9961 77.0342 78.6752 92.1312 78.7867 75.1249 75.0295 74.0298 73.2234 69.0654 68.1664 74.3733 67.6004 64.8928 64.8009 62.1325 68.6797 61.7603 60.9144 60.7921 65.9805 60.667 58.9041 68.5983 66.6337 58.0035 83.5327 56.8956 55.9232 54.59 52.5853 89.2322 51.3599 64.9945 49.3464 53.0079 91.9025 48.9286 57.0111 48.4677 48.4549 48.2773 96.8268 47.9529
threshold=1.2216583490371706 1.208790183067322 0.31304344534873968 0.58705592155456554 2.417730800039966 1.7011289000511172 0.18815684318542483 0.31358540058135992 0.97187969088554393 0.90086555480957042 1.5988437533378603 0.24002975225448611 1.3062005043029787 135.50000000000003 1.1946877241134646 0.52650004625320446 1.671919643878937 0.69135361909866344 0.71362105011940014 0.44506189227104193 3.0369943380355839 3.812036514282227 0.35023327171802526 1.1968726515769961 1.6046398878097536 0.85384750366210949 1.6043974161148074 0.67177158594131481 0.86116823554039013 0.57558801770210277 2.5637108087539677 0.75788798928260814 62.311666666666675 0.89862999320030224 1.7159520983695986 0.88192915916442882 0.97443324327468883 1.3715584874153139 69.500000000000014 0.63870999217033397 1.2313011884689333 1.0724184513092043 113.50000000000001 0.78701025247573864 0.37300586700439459 1.4507700800895693 -14.499999999999998 1.0000000180025095e-35 1.2407426834106448 69.500000000000014 1.1465367674827578 1.515349864959717 98.7400787401575 0.28611409664154058 67.500000000000014 0.014727274747497337 1.7052797675132754 71.500000000000014 0.81024599075317394 0.12623292207717898 0.46521699428558355 2.7871735095977788
decision_type=2 2 2 2 10 2 2 2 2 2 2 2 2 8 2 2 2 2 2 2 2 2 2 2 2 2 2 2 2 2 2 2 10 2 2 2 2 2 8 2 2 2 10 2 2 2 10 2 2 10 2 2 10 2 10 10 2 10 2 2 2 2
left_child=1 10 12 7 6 8 17 -3 25 27 15 30 13 31 35 16 -1 48 -17 -9 21 22 -21 -11 -14 37 47 32 -6 40 -12 46 -8 57 -35 -7 -19 38 -4 -25 59 42 58 44 45 -13 -2 -24 49 -5 51 -31 -34 54 -54 56 -49 -16 -42 60 -30 -39
right_child=2 3 5 4 28 14 9 19 -10 23 11 43 24 -15 33 18 -18 36 -20 20 -22 -23 26 39 -26 -27 -28 -29 29 50 -32 -33 52 34 -36 -37 -38 61 -40 -41 41 -43 -44 -45 -46 -47 -48 55 -50 -51 -52 -53 53 -55 -56 -57 -58 -59 -60 -61 -62 -63
leaf_value=0.10692433226039187 0.016361305352049837 -0.0057423842872268002 0.11276757673239744 0.14465000694754165 0.1094463447789277 0.02652689462278144 0.10096568229137337 -0.029238621184437253 0.15036346874581294 -0.0021458925249620586 -0.029758213910166278 -0.04170547277426781 -0.045749093655467386 0.11565280861473166 0.068497588298337839 -0.034246388926947965 -0.01141598063457158 0.035436161175880283 0.0089265057824225134 0.10390846382228998 -0.012149648644406649 0.14832594352143491 0.096944060718768071 -0.015327353693929688 0.0788967971854726 0.07235198316423512 0.1129083719767921 0.10684535839865761 -0.020077102001837731 0.031382470428769203 0.097405455886237002 0.083773151772632698 0.10113921234723633 0.010945170078399052 0.11257429306398237 0.10964057314710632 0.1291826283622641 -0.02682866454315834 -0.0035709534387175948 0.092863891681426169 0.10773041920748155 0.011171193390048103 0.028675657860078294 -0.029181834555731895 0.098880846674205269 0.08872847044322732 -0.034158673682999713 0.035274003687893997 -0.03314253975101674 0.0051300155501912779 0.026798547666791652 0.10667312709972952 0.009937377452349877 0.02974044028744607 0.07879684891460903 0.11474952023041161 -0.011662441674491328 -0.028147166353340827 0.17490857879031121 0.08600752694544439 0.097362341281394704 0.024703989344512161
leaf_weight=25.910653337836266 61.216578602790833 189.04362434148788 12.930135428905485 12.896317362785338 127.20674193650484 56.969640456140041 85.617537193000317 40.002175241708755 10.273361578583716 106.16009259968996 84.80909887701273 22.971812628209591 2378.0157265812159 13.535041660070418 14.32905040681362 349.11642669886351 32.543502256274223 111.70376110076904 152.12478033453226 49.954700946807861 62.447551138699055 21.47218219935894 34.074740789830685 17.416677720844746 12.134631462395189 21.577522620558739 31.871752187609673 92.857332497835159 40.852849930524826 52.568102680146694 11.92005445063114 13.078865699470041 50.455677673220634 83.682929672300816 20.744894444942474 36.782575458288193 20.509646393358707 1273.0888537690043 212.14614802598953 50.603515155613422 129.32377722859383 19.1002337038517 21.838780999183655 17.945911280810833 72.305400662124157 13.144555561244486 520.81480679661036 534.88666848093271 74.68202880769968 102.90473993867636 132.08389940112829 63.035032913088799 62.482922874391079 203.06128437817097 215.83026298880577 17.350723139941692 73.598176464438438 137.06737143546343 33.873080208897591 85.620606198906898 30.771143026649952 46.802523322403431
leaf_count=213 623 1618 117 92 685 446 496 352 66 814 859 186 28123 121 143 3638 294 753 1425 276 496 113 219 120 96 179 206 515 281 340 103 127 280 782 185 254 116 13662 2044 303 725 115 126 139 515 103 5733 3813 612 843 793 371 395 1368 1226 108 593 1386 198 510 205 467
internal_value=-0.000179385 0.0379996 -0.0294884 0.0488307 0.0587295 -0.0120815 0.0481006 0.0305905 -0.0185136 0.0582713 -0.00348444 0.0245251 -0.0406705 -0.0232118 0.0169314 -0.0146492 0.0410401 0.0202235 -0.0211436 0.0385249 0.041808 0.046223 0.0432672 0.0241387 -0.0451163 -0.0196211 0.0388882 0.0666413 0.0761564 0.0692036 -0.0140877 -0.0263701 0.0605951 0.00146473 0.0311341 0.0591356 0.0499786 -0.0209056 0.00311244 0.0651614 0.0836685 0.101385 0.110698 0.0540816 0.0678634 0.00576597 -0.0288451 0.0353133 -0.000429418 0.0206678 0.0480991 0.0724363 0.0540959 0.049165 0.0633375 0.0319577 0.0295969 -0.0190001 0.121674 0.0606683 0.0303773 -0.0250013
internal_weight=8706.14 3780.95 4925.19 2998.16 1943.46 1926.4 1207.18 1054.7 1576.82 884.485 782.792 223.097 2998.8 608.645 349.576 559.695 58.4542 322.696 501.241 865.659 825.656 763.209 741.737 174.18 2390.15 1566.55 691.782 710.305 736.274 609.068 96.7292 595.11 617.448 255.824 104.428 93.7522 132.213 1544.97 225.076 68.0202 361.38 204.136 185.036 126.368 108.422 36.1164 582.031 659.91 190.483 115.801 247.687 115.603 531.83 481.374 278.313 625.836 608.485 151.396 163.197 157.245 71.624 1319.89
internal_count=82105 27551 54554 20076 12282 19731 7933 7794 16535 5517 7475 1905 34823 6604 3196 5570 507 2416 5063 6176 5824 5328 5215 1237 28219 16469 4939 4280 4349 3664 962 6483 3765 2496 967 700 869 16290 2161 423 2160 1164 1049 943 804 289 6356 4733 1547 935 1504 711 3269 2989 1621 4514 4406 1529 923 996 486 14129
is_linear=0
shrinkage=0.05


Tree=8
num_leaves=63
num_cat=0
split_feature=30 41 2 30 39 40 16 60 16 40 10 40 46 46 51 39 54 59 32 8 40 30 52 2 1 14 23 39 47 19 43 32 4 60 32 16 7 10 58 32 24 49 6 23 18 60 30 0 36 35 42 42 65 7 52 65 74 23 50 45 35 16
split_gain=3513.34 585.144 370.183 182.837 157.5 131.077 117.141 109.154 105.022 98.9306 97.2005 87.9199 97.7257 85.3304 83.0966 81.4117 118.58 77.8388 72.3489 71.4716 86.2766 71.0894 62.1674 80.9207 62.1028 97.8634 76.9177 81.118 61.6202 73.6423 104.798 61.3665 60.8874 60.3654 59.7162 58.6042 57.9749 65.7514 69.6328 57.5767 70.5195 63.7052 57.0624 86.0969 59.1938 58.2753 58.1812 56.8637 54.947 54.6729 54.283 53.9229 53.6824 89.797 60.7677 69.2637 86.1057 81.1668 52.9931 70.2252 53.24 51.3594
threshold=1.2216583490371706 1.208790183067322 0.31304344534873968 0.48397582769393926 0.46723005175590521 1.7011289000511172 3.4768399000167851 1.1407374143600466 4.9506726264953622 1.7790743708610537 0.86581677198410045 1.5988437533378603 0.57753497362136852 1.4443063735961916 0.59948384761810314 0.59565988183021557 1.2442901730537417 0.85384750366210949 0.71362105011940014 6.7620794773101816 1.5583237409591677 1.511374354362488 1.5642729401588442 1.334708631038666 0.77381959557533275 0.4865525364875794 0.68855831027030956 0.70788857340812694 1.2674039602279665 0.88461652398109447 0.029347836971282962 0.98331335186958324 1.5668665766716006 0.47960089147090917 1.0856826305389407 3.4258953332901005 1.3184974789619448 0.70741450786590587 0.69376298785209667 1.2641041278839114 1.5806947946548464 0.65482580661773693 0.51380950212478649 0.26903045177459722 0.44656431674957281 0.5773962438106538 0.25292018055915838 0.64324405789375316 1.5524681806564333 2.6030014753341679 2.0286482572555546 2.0451381206512456 47.588333333333345 1.969157934188843 1.2689006328582766 56.831666666666671 99.706868686868702 0.39013189077377325 0.65253794193267833 1.1347714066505434 2.0710557699203496 2.5700367689132695
decision_type=2 2 2 2 2 2 2 2 2 2 2 2 2 2 2 2 2 2 2 2 2 2 2 2 2 2 2 2 2 2 2 2 2 2 2 2 2 2 2 2 2 2 2 2 2 2 2 2 2 2 2 2 10 2 2 10 10 2 2 2 2 2
left_child=1 11 8 42 -5 17 15 10 9 -2 -6 14 49 19 51 16 -7 28 -16 20 22 33 23 24 25 -9 -27 -28 29 52 -31 -8 61 -11 -21 -30 -32 -38 -39 40 -25 -42 43 47 45 -45 -47 -3 -23 -13 58 -1 -4 54 -54 -56 -57 -58 59 -14 -60 -17
right_child=2 3 5 4 7 6 31 13 -10 21 -12 12 50 -15 18 32 -18 -19 -20 34 -22 48 -24 39 -26 26 27 -29 35 30 36 -33 -34 -35 -36 -37 37 38 -40 -41 41 -43 -44 44 -46 46 -48 -49 -50 -51 -52 -53 53 -55 55 56 57 -59 60 -61 -62 -63
leaf_value=0.10435649151981019 -0.045274898734796599 -0.023574967890139759 -0.053758582950858197 0.00010650710693692323 0.011979206775838566 -0.014174014479310848 0.033121133127349343 0.02828891727212628 0.066381764648733119 0.0043919117509928496 0.061763655947330888 -0.021629238586437151 0.05302335688420387 0.15524196743977825 -0.031933417779230679 -0.0028283758341015094 0.11878636270429782 0.07115158867139465 0.0089863688198687404 0.07194243884694268 0.083503929806043445 -0.032177989341817093 0.09238701554585757 -0.0079709630364341519 0.021029517279095081 0.060086957829492929 0.15147967428281731 0.045521677546556796 -0.034744991384168651 0.13358864978228768 -0.022452804875295156 0.13843429546844105 -0.038554663868974541 0.13072236969729936 -0.04822531920922709 0.057718219762429392 0.13981369136939673 0.095189781831898537 -0.012435723047963905 -0.015176484868051857 0.15850910199202878 0.033300334281003693 0.090906587414739351 0.0054860524941840808 0.030183195391035977 0.099321051309597008 0.063681201445290062 0.046524332068600578 0.077509333287923435 0.091035297815099225 -0.0026429631442135139 -0.011832778377741361 -0.023236889510524675 0.12733610470773718 0.11462814039961433 -0.031414121896686319 0.13447781560214186 -0.026870186066953142 0.085860521926078848 0.17308440460186614 -0.03924034012982569 0.078017954248873589
leaf_weight=23.311976745724678 2340.2233417928219 49.876616038382053 95.035890854895115 265.16323686391115 428.51107557117939 33.734410710632801 29.481205463409424 182.84005919843912 23.024369537830353 73.649578526616096 127.13194837421179 101.95701055973768 25.649881199002266 19.080850899219513 357.60325223952532 100.32968089729548 33.343825779855251 24.173282168805599 154.77186897397041 14.996502883732317 174.10670000314713 441.55083663761616 64.395564138889313 36.351547658443451 149.79289274662733 248.43957021087408 54.141684576869011 27.106356777250767 570.73316418379545 17.146079666912556 96.620072491466999 26.060157239437103 105.86265221238136 10.849039427936075 33.284642040729523 17.667321912944317 12.489536724984644 20.462322913110256 56.597229555249214 95.041669137775898 17.906281627714634 23.479782983660698 141.9792183637619 35.616552866995335 121.43801572918892 144.38237651437521 553.50991402566433 68.885811388492584 11.720566026866434 12.039615996181963 29.220833316445351 17.46843595802784 517.95595603436232 11.122732914984224 15.705825649201868 65.508400201797485 19.034522943198681 13.199824817478655 18.693131968379021 23.191735923290253 15.603823363780974 24.427231051027775
leaf_count=166 28507 368 1027 2160 3320 319 234 1286 194 730 823 1025 179 102 3813 917 268 186 1437 91 984 5185 402 248 1078 1515 302 157 6445 184 1012 171 1098 94 247 161 128 181 578 650 107 156 748 234 727 758 3133 480 113 98 235 154 5438 109 145 645 174 122 118 144 106 189
internal_value=-0.000214882 0.0353319 -0.0287322 0.0451334 0.0359426 -0.0116184 0.0158737 0.0415434 -0.0399801 -0.040831 0.02337 -0.00336388 0.0228862 0.0503938 -0.0141056 0.00343682 0.0519191 -0.0178699 -0.0195729 0.0486105 0.0512868 -0.0214926 0.0450509 0.0414007 0.0493503 0.0576274 0.073898 0.116129 -0.019277 -0.01134 0.0153029 0.0825344 -0.0106648 0.0206119 -0.0109003 -0.0319687 0.00440886 0.0333916 0.0161431 0.0109275 0.042842 0.0874737 0.061294 0.0569761 0.0625175 0.0678707 0.0710545 0.0170848 -0.0293417 -0.00973031 0.0559779 0.0545864 -0.0186843 -0.0134965 -0.0159774 0.0171662 0.00150549 0.0684065 0.0765815 0.110033 0.0289443 0.0130012
internal_weight=8664.68 3856.97 4807.71 3077.46 1961.77 1906.69 353.239 1696.61 2901.02 2877.99 555.643 779.512 226.356 1140.96 553.156 297.698 67.0782 1553.45 512.375 1121.88 1073.6 537.77 899.495 835.1 662.321 512.528 329.688 81.248 1529.28 940.878 203.315 55.5414 230.62 84.4986 48.2811 588.4 186.169 89.5491 77.0596 172.779 77.7376 41.3861 1115.69 973.709 854.947 733.509 697.892 118.762 453.271 113.997 112.359 40.7804 737.563 642.527 631.405 113.449 97.7427 32.2343 83.1386 48.8416 34.297 124.757
internal_count=82105 27551 54554 20076 13628 19731 3196 11468 34823 34629 4143 7475 1905 7325 5570 2791 587 16535 5250 7223 6885 6122 5901 5499 4338 3260 1974 459 16349 9743 2083 405 2204 824 338 6606 1899 887 759 1161 511 263 6448 5700 4852 4125 3891 848 5298 1123 782 320 7660 6633 6524 1086 941 296 547 323 224 1106
is_linear=0
shrinkage=0.05


end of trees

feature_importances:
emb_040=31
emb_030=21
emb_063=19
emb_011=18
emb_041=17
emb_037=15
emb_060=15
emb_016=14
emb_023=14
emb_035=14
emb_048=14
emb_032=12
emb_054=12
hr_max=12
map_max=12
hr_std=11
map_std=11
emb_002=10
emb_024=10
emb_036=9
emb_050=9
emb_057=9
hr_last=9
emb_004=8
emb_039=8
emb_042=8
emb_043=8
emb_056=8
emb_059=8
emb_000=7
emb_033=7
emb_052=7
emb_055=7
emb_007=6
emb_038=6
emb_053=6
emb_058=6
emb_001=5
emb_008=5
emb_010=5
emb_022=5
emb_025=5
emb_026=5
emb_044=5
emb_046=5
emb_062=5
map_mean=5
map_delta=5
emb_006=4
emb_012=4
emb_014=4
emb_020=4
emb_021=4
emb_045=4
emb_049=4
emb_005=3
emb_009=3
emb_015=3
emb_017=3
emb_019=3
emb_028=3
emb_051=3
emb_061=3
hr_mean=3
spo2_slope=3
emb_003=2
emb_013=2
emb_018=2
emb_027=2
emb_034=2
hr_slope=2
spo2_mean=2
spo2_min=2
map_min=2
map_slope=2
emb_031=1
emb_047=1
hr_min=1
spo2_std=1
spo2_max=1
spo2_max_missing_run=1
map_last=1

parameters:
[boosting: gbdt]
[objective: binary]
[metric: auc]
[tree_learner: serial]
[device_type: cpu]
[data_sample_strategy: bagging]
[data: ]
[valid: ]
[num_iterations: 2000]
[learning_rate: 0.05]
[num_leaves: 63]
[num_threads: 0]
[seed: 0]
[deterministic: 0]
[force_col_wise: 0]
[force_row_wise: 0]
[histogram_pool_size: -1]
[max_depth: -1]
[min_data_in_leaf: 100]
[min_sum_hessian_in_leaf: 0.001]
[bagging_fraction: 0.8]
[pos_bagging_fraction: 1]
[neg_bagging_fraction: 1]
[bagging_freq: 5]
[bagging_seed: 3]
[bagging_by_query: 0]
[feature_fraction: 0.8]
[feature_fraction_bynode: 1]
[feature_fraction_seed: 2]
[extra_trees: 0]
[extra_seed: 6]
[early_stopping_round: 0]
[early_stopping_min_delta: 0]
[first_metric_only: 0]
[max_delta_step: 0]
[lambda_l1: 0]
[lambda_l2: 0]
[linear_lambda: 0]
[min_gain_to_split: 0]
[drop_rate: 0.1]
[max_drop: 50]
[skip_drop: 0.5]
[xgboost_dart_mode: 0]
[uniform_drop: 0]
[drop_seed: 4]
[top_rate: 0.2]
[other_rate: 0.1]
[min_data_per_group: 100]
[max_cat_threshold: 32]
[cat_l2: 10]
[cat_smooth: 10]
[max_cat_to_onehot: 4]
[top_k: 20]
[monotone_constraints: ]
[monotone_constraints_method: basic]
[monotone_penalty: 0]
[feature_contri: ]
[forcedsplits_filename: ]
[refit_decay_rate: 0.9]
[cegb_tradeoff: 1]
[cegb_penalty_split: 0]
[cegb_penalty_feature_lazy: ]
[cegb_penalty_feature_coupled: ]
[path_smooth: 0]
[interaction_constraints: ]
[verbosity: -1]
[saved_feature_importance_type: 0]
[use_quantized_grad: 0]
[num_grad_quant_bins: 4]
[quant_train_renew_leaf: 0]
[stochastic_rounding: 1]
[linear_tree: 0]
[max_bin: 255]
[max_bin_by_feature: ]
[min_data_in_bin: 3]
[bin_construct_sample_cnt: 200000]
[data_random_seed: 1]
[is_enable_sparse: 1]
[enable_bundle: 1]
[use_missing: 1]
[zero_as_missing: 0]
[feature_pre_filter: 1]
[pre_partition: 0]
[two_round: 0]
[header: 0]
[label_column: ]
[weight_column: ]
[group_column: ]
[ignore_column: ]
[categorical_feature: ]
[forcedbins_filename: ]
[precise_float_parser: 0]
[parser_config_file: ]
[objective_seed: 5]
[num_class: 1]
[is_unbalance: 0]
[scale_pos_weight: 1]
[sigmoid: 1]
[boost_from_average: 1]
[reg_sqrt: 0]
[alpha: 0.9]
[fair_c: 1]
[poisson_max_delta_step: 0.7]
[tweedie_variance_power: 1.5]
[lambdarank_truncation_level: 30]
[lambdarank_norm: 1]
[label_gain: ]
[lambdarank_position_bias_regularization: 0]
[eval_at: ]
[multi_error_top_k: 1]
[auc_mu_weights: ]
[num_machines: 1]
[local_listen_port: 12400]
[time_out: 120]
[machine_list_filename: ]
[machines: ]
[gpu_platform_id: -1]
[gpu_device_id: -1]
[gpu_use_dp: 0]
[num_gpu: 1]

end of parameters

pandas_categorical:[]
